
//<![CDATA[

// a few things don't have var in front of them - they update already existing variables the game needs
lanesSide = 3;
patchesAhead = 50;
patchesBehind = 10;
trainIterations = 400000;

// the number of other autonomous vehicles controlled by your network
otherAgents = 0; // max of 10

var num_inputs = (lanesSide * 2 + 1) * (patchesAhead + patchesBehind);
var num_actions = 5;
var temporal_window = 0;
var network_size = num_inputs * temporal_window + num_actions * temporal_window + num_inputs;

var layer_defs = [];
    layer_defs.push({
    type: 'input',
    out_sx: 1,
    out_sy: 1,
    out_depth: network_size
});
layer_defs.push({
    type: 'fc',
    num_neurons: 36,
    activation: 'relu'
});
layer_defs.push({
    type: 'fc',
    num_neurons: 24,
    activation: 'tanh'
});
layer_defs.push({
    type: 'fc',
    num_neurons: 24,
    activation: 'tanh'
});
layer_defs.push({
    type: 'fc',
    num_neurons: 24,
    activation: 'tanh'
});
layer_defs.push({
    type: 'regression',
    num_neurons: num_actions
});

var tdtrainer_options = {
    learning_rate: 0.001,
    momentum: 0.0,
    batch_size: 128,
    l2_decay: 0.01
};

var opt = {};
opt.temporal_window = temporal_window;
opt.experience_size = 400000;
opt.start_learn_threshold = 5000;
opt.gamma = 0.7;
opt.learning_steps_total = 10000;
opt.learning_steps_burnin = 1000;
opt.epsilon_min = 0.0;
opt.epsilon_test_time = 0.0;
opt.layer_defs = layer_defs;
opt.tdtrainer_options = tdtrainer_options;

brain = new deepqlearn.Brain(num_inputs, num_actions, opt);

learn = function (state, lastReward) {
brain.backward(lastReward);
var action = brain.forward(state);

draw_net();
draw_stats();

return action;
}

//]]>

/*###########*/
if (brain) {
brain.value_net.fromJSON({"layers":[{"out_depth":420,"out_sx":1,"out_sy":1,"layer_type":"input"},{"out_depth":36,"out_sx":1,"out_sy":1,"layer_type":"fc","num_inputs":420,"l1_decay_mul":0,"l2_decay_mul":1,"filters":[{"sx":1,"sy":1,"depth":420,"w":{"0":0.02091821845964903,"1":-0.06040076294155493,"2":0.006764662842560273,"3":-0.034850538728425834,"4":-0.01012264035260414,"5":0.04590458913384688,"6":-0.03383366958948677,"7":-0.006129346396980715,"8":0.01609260840368127,"9":-0.04525292783282083,"10":0.0010710707839762142,"11":-0.004440271785958944,"12":0.037982751757374617,"13":-0.0014970717049619788,"14":0.006717910996581222,"15":0.028747822761938865,"16":-0.0012125636931027955,"17":0.006404440289730643,"18":0.0075277593945664995,"19":0.03244426810940598,"20":-0.13870084837687885,"21":0.0029572567426967137,"22":0.0012165030326341327,"23":-0.020649324150144775,"24":0.02216988206582932,"25":0.012124760949515232,"26":-0.020892941573853203,"27":-0.01485026232615688,"28":0.08623507505627363,"29":-0.015501401585378492,"30":0.058779783707656644,"31":-0.00929018165853687,"32":-0.026996548246798455,"33":-0.016294515237411766,"34":-0.041529820483301186,"35":0.006272807721092636,"36":0.021996176440178934,"37":-0.004353723779217816,"38":0.017006771833537587,"39":0.03175522954983057,"40":0.010783401394505182,"41":0.08465462276583277,"42":-0.03169018886247874,"43":0.06289813376958868,"44":0.01430357907665575,"45":-0.05985491781742078,"46":-0.08766796243283095,"47":-0.023175098698151805,"48":-0.10164414791878545,"49":-0.03262314145862719,"50":0.005279216332863783,"51":-0.021089804826946685,"52":0.046436332953718434,"53":0.07561318621193715,"54":0.0010180939817060934,"55":-0.06554529477501059,"56":-0.05830849331118941,"57":0.03563631495228696,"58":0.07777060660602741,"59":0.021640512831308453,"60":0.029044150475381707,"61":-0.03512215870920439,"62":-0.006309683128633423,"63":-0.015992401113162077,"64":0.003931222826809548,"65":0.00005067637100495247,"66":0.029660277568808333,"67":0.011139842587736358,"68":0.023494567801970845,"69":0.024632764989951317,"70":0.03799414859929101,"71":0.011399651945492152,"72":-0.015487211352790416,"73":-0.04493358833751031,"74":0.08273740957042161,"75":0.0802007209146249,"76":0.012730987083928154,"77":0.01621283529722287,"78":0.015457942670420092,"79":-0.04059969010728124,"80":0.07495700938008552,"81":0.02161693540742329,"82":0.018525518362928418,"83":-0.04344839563280286,"84":-0.08276181389252844,"85":-0.020339205181507645,"86":-0.06285254367870012,"87":-0.016773314225538,"88":0.0026486555107714696,"89":-0.03085814057596766,"90":-0.0696681527584345,"91":-0.02542115074444773,"92":0.016875415988004166,"93":0.002965763917670867,"94":-0.044714841687503025,"95":0.018619243358509167,"96":0.0182269349456564,"97":0.11362204806596905,"98":-0.00963507588128091,"99":0.04573264474591411,"100":0.07221278008615037,"101":-0.027907572443738267,"102":-0.016391571636153054,"103":-0.02528640605728685,"104":0.02104892684220598,"105":-0.027145250291847927,"106":-0.059910033942105485,"107":-0.05884375138899706,"108":0.0560678405094289,"109":-0.040669446780185234,"110":0.03926506084487611,"111":0.021968463984030826,"112":0.0008582544354781684,"113":-0.00019861124842321252,"114":0.0012189960381991214,"115":-0.05368719717035929,"116":-0.014307570907979033,"117":0.04386028752530585,"118":-0.019687940581165835,"119":0.013221337078252057,"120":0.036321336615772665,"121":-0.09331864221138571,"122":-0.040888687561209405,"123":-0.03103210001772753,"124":-0.047996989186171915,"125":-0.004219344148414191,"126":0.0483412588086119,"127":0.014708170465653415,"128":-0.012368205093973893,"129":0.021899798300069075,"130":0.04674739220916431,"131":0.04446410093920015,"132":0.013954676585617233,"133":-0.000042965161397085366,"134":0.00725813608952051,"135":-0.0329748259386248,"136":0.0550821883350937,"137":0.0379803545425928,"138":-0.01344610887620842,"139":0.058117683203713896,"140":-0.015124614405001286,"141":-0.05814265702191728,"142":0.03893262764345744,"143":-0.07417088715557095,"144":0.015649036233955513,"145":-0.011080099809519918,"146":-0.026824347957921216,"147":0.01770787092062942,"148":0.0008682564366662072,"149":0.018829428744706125,"150":0.03284228145221331,"151":0.00169742379382569,"152":-0.009894045966087846,"153":0.01757914584397071,"154":0.021910440485847643,"155":0.07650844697530554,"156":-0.055554774821691626,"157":0.01583410092213346,"158":-0.05224923755602503,"159":0.06723424720186634,"160":-0.018284828048182048,"161":0.06485077831240856,"162":0.014588645788315813,"163":0.08413151900012122,"164":0.012115768812685338,"165":0.053165629546923554,"166":0.06667338568986411,"167":-0.006112011897787716,"168":-0.04824932129027467,"169":-0.037831201315884806,"170":-0.02780155025772128,"171":-0.01910032027371082,"172":0.01834168271802707,"173":0.02928823607557719,"174":0.008936426848564001,"175":-0.004120025289458765,"176":-0.007803894486609015,"177":0.02835840285504039,"178":0.017897915353198405,"179":0.03383004824984822,"180":-0.021832627302225446,"181":0.010324397520141484,"182":-0.017463412978632104,"183":0.04197482469816866,"184":0.017734529637473916,"185":-0.07901100720767025,"186":-0.0032207455635846214,"187":0.007058103867676949,"188":-0.040209460703221026,"189":-0.035271571250262805,"190":-0.005299337238492452,"191":-0.04145481121258068,"192":0.018321581170619577,"193":0.07062253036761863,"194":-0.057852373728081115,"195":-0.018559044568126175,"196":0.03429008614085532,"197":-0.029839005690579373,"198":0.020924678441414025,"199":-0.023697309776433622,"200":0.03674090192836976,"201":-0.0020400991777934953,"202":0.009906614237438348,"203":0.014624879563598104,"204":-0.030374967553383113,"205":0.011981176762191499,"206":0.039912125661655626,"207":0.012339811258560852,"208":-0.028030233677668714,"209":0.010824297560569462,"210":-0.09932746535158696,"211":-0.01578469023819907,"212":0.02185581667961593,"213":-0.01831204605237934,"214":-0.03710923359667511,"215":0.05611715837486714,"216":0.019460846613707825,"217":0.10370977448205376,"218":0.06795390199026866,"219":0.014313933433021009,"220":-0.005599948501326445,"221":0.01278134089162697,"222":0.06278616219566108,"223":0.01635835243283576,"224":0.05419484446169383,"225":-0.031029056947379733,"226":-0.003189577779137331,"227":0.07497091800082009,"228":-0.00009752641192950059,"229":-0.024647389877805483,"230":0.004060790523018856,"231":0.016900655638568577,"232":-0.028996356227765332,"233":-0.02934283835025231,"234":-0.0026895805130263185,"235":0.07931314338125241,"236":0.0023770027663250685,"237":-0.011041464171860095,"238":-0.0463451914784307,"239":-0.025517476473603404,"240":0.007032700237622844,"241":-0.00593062509339854,"242":-0.010791280495063248,"243":0.05367153588494822,"244":-0.042775577952459794,"245":0.009221349630709665,"246":0.028060445726475494,"247":0.02384472316112763,"248":-0.0600487704047822,"249":-0.02535519321747597,"250":-0.025254190771048644,"251":-0.0023269663959113672,"252":-0.060717860194705375,"253":-0.027042014941135003,"254":0.003147913627161816,"255":0.10741831548155004,"256":-0.1672827257962315,"257":-0.010173198010573875,"258":-0.005456093824560588,"259":-0.018233442830310215,"260":-0.004834131609766575,"261":-0.01153194912911775,"262":0.05179362926158735,"263":-0.1638704683900149,"264":-0.02231125374362398,"265":0.038027266062820045,"266":-0.032756688060281036,"267":0.03542402582191848,"268":-0.03611170676189547,"269":-0.0033620176731802994,"270":-0.04637022084558736,"271":0.007009390282557395,"272":-0.0011486895691222238,"273":-0.0505617757534958,"274":-0.05755571997939654,"275":0.05064679648204946,"276":0.023858039496556543,"277":-0.17102484372794885,"278":0.06838213568116412,"279":-0.035888990472897175,"280":0.04222128680093711,"281":-0.03697885059935814,"282":-0.019147966810176824,"283":-0.02856578418273193,"284":-0.26794638362942774,"285":-0.006699330399402693,"286":0.0441778424460111,"287":-0.0041938297415847,"288":0.013991091723427673,"289":-0.08455056486896191,"290":-0.038707446614962594,"291":-0.18353142512898765,"292":-0.03476141075798129,"293":-0.008945425431693863,"294":-0.02671417694363297,"295":0.07205441919292771,"296":-0.037606747118782334,"297":-0.03422173118753871,"298":-0.058202785436840467,"299":-0.07476297587089814,"300":-0.03204840289554336,"301":0.012011271917488972,"302":-0.008714124872667466,"303":0.06134453148000777,"304":-0.010112778529738643,"305":-0.12545761622955393,"306":-0.09683054932238686,"307":0.036070970965635316,"308":-0.000611118929300486,"309":-0.041345249841612204,"310":-0.03476743567651529,"311":-0.06332001693065294,"312":0.012088222536092213,"313":-0.19098912260529496,"314":-0.0074492860699283455,"315":-0.0040839787605922995,"316":0.04740723880735634,"317":0.01601862778919267,"318":-0.040899757082621176,"319":0.02836550084169022,"320":-0.11487002317202584,"321":0.026473919255638564,"322":0.030308079643816113,"323":0.009311550382987107,"324":0.031275849556703705,"325":-0.04920319461851339,"326":0.09572050823817115,"327":-0.10205937089789509,"328":0.08338648091597334,"329":0.016926354468729185,"330":-0.013898455635905664,"331":-0.04177135104496805,"332":-0.03330035415967547,"333":0.056936215849405176,"334":-0.01507208477079301,"335":-0.08292526561637298,"336":-0.019551620540092865,"337":0.03832886521036774,"338":0.051398663471576504,"339":0.02974357222668807,"340":0.13976006568904045,"341":-0.1838695945926515,"342":0.0035645800437880434,"343":-0.09515746126792932,"344":-0.08560158379324508,"345":-0.03138352557105917,"346":0.06640194497296616,"347":0.16816645640481273,"348":-0.13146430654743324,"349":0.030486151377572046,"350":-0.020124931335236514,"351":-0.011873925301907886,"352":0.027234672858350188,"353":-0.0770644172498518,"354":0.01994046924312274,"355":-0.044000889088985196,"356":-0.03587136792522274,"357":0.062004849742547635,"358":-0.0037816369032789856,"359":-0.02988620439407252,"360":-0.01139439207682397,"361":0.13633351720952105,"362":-0.07865830771266742,"363":-0.015837035398395555,"364":0.011157421092890467,"365":-0.018532285580652785,"366":-0.0046785009153492,"367":-0.007642446886553166,"368":0.0612152020847866,"369":-0.016813844644862484,"370":0.0223687481436897,"371":0.02083805642557505,"372":0.030426183774747997,"373":-0.011004252578666544,"374":-0.03427581350164791,"375":0.12005967023626951,"376":0.03803229359842433,"377":0.00392549123336421,"378":-0.04418545218202259,"379":-0.050453685832054666,"380":-0.013387372231194232,"381":0.026044954942414312,"382":0.06271083719408488,"383":0.034225612103865696,"384":-0.04968182824788694,"385":0.025265255006274558,"386":0.03942610171889762,"387":-0.037642504222325214,"388":0.02764768328762838,"389":0.08709224181706642,"390":0.02567526909027287,"391":0.02001863994773448,"392":0.07854876220010465,"393":0.020736261393860665,"394":0.014832363025360791,"395":0.05478119161420099,"396":0.030212894437502476,"397":0.006860839739884733,"398":0.05292650678843644,"399":-0.04522715283496121,"400":-0.022298406124793363,"401":-0.0299108343567053,"402":-0.10979688821085339,"403":0.002243658587292497,"404":0.006960982239679664,"405":-0.008154685576829315,"406":-0.02538213451860939,"407":-0.0005506247786253627,"408":0.007244782367606557,"409":0.005260430191864438,"410":-0.023575794750809554,"411":-0.03689358445491539,"412":-0.0012937318498410534,"413":-0.012092723656409551,"414":0.02109132071738746,"415":-0.004182375851438716,"416":0.09148127071371318,"417":0.026600282162124452,"418":-0.03004772798761089,"419":0.040364480715257306}},{"sx":1,"sy":1,"depth":420,"w":{"0":0.0007343815322666381,"1":-0.01241854977346436,"2":-0.004003798635298903,"3":0.036438293487564645,"4":0.04330516830764358,"5":0.02982571297060533,"6":0.009744265366454941,"7":-0.005702264690866489,"8":0.026558653637092873,"9":0.0437595960609637,"10":-0.07214030599231337,"11":-0.026091642469128554,"12":0.055350103015617685,"13":-0.05136801424153719,"14":-0.000868352851313255,"15":-0.027589597828477246,"16":0.03209022500170853,"17":0.025379707301459928,"18":0.038940834856790035,"19":0.010131123727170784,"20":0.07089966355774059,"21":-0.03759020663940834,"22":0.017675593678282406,"23":0.018737308921098948,"24":0.027533121196243942,"25":-0.04833163117703857,"26":-0.036762190393131,"27":-0.0017206545786942796,"28":0.008075700166417938,"29":-0.005225761375279256,"30":-0.00396632360773335,"31":0.031605189352428446,"32":-0.021994969186942052,"33":-0.00022691447482169893,"34":-0.08574553921611319,"35":0.01850578655059674,"36":0.0057729878495697265,"37":0.0630715268810977,"38":0.015967337214256663,"39":0.007613897011853187,"40":0.04134062067057549,"41":0.01949515832114626,"42":-0.026981924458666463,"43":0.06867879596676701,"44":0.007798768175706263,"45":-0.04570360024470159,"46":0.034218749264386734,"47":0.07942620293866504,"48":-0.008738730659550116,"49":0.06407204506859154,"50":0.004918255920526478,"51":0.023125068078358044,"52":0.02966189054359322,"53":-0.04266692781602361,"54":-0.09071059254463511,"55":0.059776046915530505,"56":-0.003064531126346451,"57":-0.025425757142748837,"58":0.002163110964078179,"59":-0.015583509028788531,"60":0.02879516544990408,"61":0.041482446127698185,"62":0.026345156898295176,"63":-0.04747169080236827,"64":-0.025596933791514245,"65":0.028168251422246632,"66":0.006585771729275513,"67":0.04311973883904204,"68":-0.022624882680889465,"69":0.029957606030501092,"70":0.014126191175949971,"71":0.039150405073589474,"72":0.017164848211632003,"73":0.005419450732906332,"74":0.01102675776869487,"75":-0.017218576539683245,"76":0.05705641073782394,"77":-0.06341558990919209,"78":-0.02478688943244346,"79":0.015637393939823274,"80":0.011861299328651244,"81":0.0805876350442038,"82":-0.0021926209844210817,"83":-0.00818600733156848,"84":0.027510283849197542,"85":-0.020075008211256573,"86":0.03606010471012208,"87":-0.016468953771283344,"88":-0.035527606582285244,"89":-0.05692098101544545,"90":-0.020541189191121436,"91":0.013457835975930553,"92":-0.011537529606368188,"93":0.06534474010693919,"94":-0.02531083730626399,"95":0.04912592930106899,"96":-0.004241743352462894,"97":0.009446101669334097,"98":-0.04687510807648166,"99":-0.0018876010583029604,"100":-0.004045579747837128,"101":0.019236032181147437,"102":-0.021629967808268372,"103":0.015631020370463922,"104":0.04235761251370808,"105":0.021652492121894157,"106":-0.011739693663514923,"107":-0.021656096892326407,"108":0.018362148582144452,"109":0.005820584824746082,"110":0.0213901424524994,"111":-0.00460401420291094,"112":-0.010465139081277375,"113":-0.025891219414351206,"114":0.009307238351847543,"115":-0.02289893122779705,"116":0.051688868338757576,"117":0.002076288112472832,"118":0.03383460072657961,"119":-0.054097257210583165,"120":-0.00744662823367219,"121":0.040495164033140144,"122":-0.02531656816620415,"123":0.009487620949084737,"124":-0.025892466870261515,"125":0.015068073493213567,"126":-0.049904941297817126,"127":-0.07084520594054243,"128":0.008988778236406217,"129":-0.0561824742248168,"130":0.09067020704845695,"131":0.027080983017915543,"132":-0.01078014003469667,"133":0.0031165157320133187,"134":-0.010402822661180278,"135":-0.0037062049963903707,"136":0.02170471841023498,"137":-0.0010654366648090421,"138":0.014420491603961577,"139":-0.01103687210757957,"140":-0.010314450982882747,"141":-0.01467068982650308,"142":-0.007611458261077419,"143":0.0011245625920553032,"144":0.041683511511794974,"145":0.058349547876548,"146":0.019736006785438714,"147":0.05597433129444344,"148":-0.018389124748759082,"149":0.050075925704107536,"150":-0.027323352712156194,"151":-0.021733301082908062,"152":-0.015550662402938658,"153":0.008484647270094086,"154":-0.022936891954149826,"155":0.011268543756964703,"156":-0.018983922760669354,"157":-0.03138150110169382,"158":0.026876876738524836,"159":0.07714846008078637,"160":-0.003472888142506055,"161":0.035647111261916505,"162":-0.04036329411977876,"163":0.03848693597990037,"164":0.019677139934153445,"165":-0.019223279923057612,"166":0.004213095245764954,"167":0.010604211514134824,"168":-0.038180737399433826,"169":-0.04550724515273269,"170":0.03664687202609475,"171":0.03785266695761662,"172":-0.001583031555318929,"173":-0.03455903322900996,"174":-0.0005511811695690796,"175":0.03131209067964416,"176":-0.026261957352187424,"177":-0.024762168740852967,"178":0.009603508682803418,"179":0.028522742903396934,"180":0.018931753575742467,"181":0.040378442197168386,"182":-0.010148725862913079,"183":-0.009795950237904109,"184":-0.05116553386421774,"185":0.020230464144702635,"186":0.015259597866498553,"187":-0.017926928472161797,"188":-0.017789146403689365,"189":0.06727925442165808,"190":-0.025806161538392325,"191":0.050895977554008515,"192":0.025524229816335234,"193":-0.018845329091946875,"194":-0.04433627893246011,"195":0.01791613024390581,"196":0.028762848563698803,"197":0.023214600643844598,"198":0.0467060916298793,"199":-0.048931757842632116,"200":0.00738676275007319,"201":0.03606248353271936,"202":-0.006882851013660804,"203":-0.03608622685083738,"204":-0.04575294056648712,"205":-0.012760177479427958,"206":-0.04255361913336122,"207":-0.006460545768484708,"208":-0.0362449329139753,"209":-0.05185745852897743,"210":0.015435437960501237,"211":-0.029182373390514084,"212":-0.009945564261444615,"213":0.02063752607968678,"214":0.08145196604637613,"215":-0.06970525401412594,"216":0.032072192879624165,"217":-0.0010916916845576368,"218":0.001161235873698495,"219":0.007322679374422543,"220":-0.0002538541129805686,"221":-0.05915261145803674,"222":-0.021316649562797513,"223":-0.023227360352938868,"224":0.0988263496727564,"225":-0.004325426877168333,"226":0.016687477076463807,"227":-0.05313445538884792,"228":0.0018336560690227004,"229":0.04063102818882157,"230":-0.008021166436960424,"231":-0.019601457961772435,"232":0.019854097751164163,"233":-0.04718743015856964,"234":-0.10194714519851451,"235":-0.06018642327069771,"236":-0.0687530486266228,"237":-0.05305154109268706,"238":-0.03742401498422442,"239":-0.03363188777707367,"240":0.02314561403118689,"241":-0.036547482262730864,"242":0.03502800473675786,"243":0.006752782746440063,"244":0.02634871992176371,"245":-0.010722460375699088,"246":0.028323678461701755,"247":0.045580861171671344,"248":-0.047603989898553765,"249":-0.030600358777658834,"250":-0.00016683649043113804,"251":-0.004880979903114132,"252":0.048893684918646485,"253":-0.06184885538826037,"254":-0.048048021767879964,"255":-0.09246605734013284,"256":-0.0048145598327959975,"257":0.027949483666175313,"258":-0.04720337047594603,"259":0.028632249790208272,"260":0.027193956365418628,"261":0.017764460696365093,"262":-0.1448707227404972,"263":0.030483760588878007,"264":0.04645644637542752,"265":-0.03279868297404424,"266":-0.006959953279441041,"267":0.0037302562422560147,"268":-0.006526070868620527,"269":-0.14722212001623602,"270":-0.018102376506130627,"271":-0.04441611811460227,"272":0.051408027615241755,"273":-0.02028765249258419,"274":0.017979209026620067,"275":0.07322640645208275,"276":-0.2132115406970969,"277":-0.03259238290074636,"278":0.06775112321160184,"279":0.006768960859674936,"280":0.00621581118340246,"281":0.03929943996827493,"282":0.02362488112143794,"283":-0.3320181285461424,"284":0.05308040262882269,"285":-0.0055033010334128414,"286":0.012036246441030716,"287":-0.014382436256927084,"288":0.007993528223760843,"289":0.09266658592759976,"290":-0.34164046516880275,"291":0.03566167394306292,"292":-0.04052256091105818,"293":0.02097997678011426,"294":-0.044456540530364644,"295":0.0362688022950621,"296":0.1090079190408894,"297":-0.2435628200489584,"298":-0.08813930696612951,"299":0.009515144353869546,"300":-0.019202815364811415,"301":0.007184058425749295,"302":0.07474754964623907,"303":0.14188361908519265,"304":-0.3310531804005486,"305":0.0028322294692208418,"306":-0.061603934892961815,"307":0.02276357216400383,"308":-0.052086757781058965,"309":0.07731833380180791,"310":0.23786344680746335,"311":-0.4151320296616253,"312":-0.11078679235343249,"313":0.02290894803952191,"314":-0.05406049070301688,"315":-0.0007708774078383336,"316":0.023689810796146907,"317":0.18988254189156706,"318":-0.36801095740340367,"319":-0.10053421544813232,"320":-0.004882274785279406,"321":0.02111914187339041,"322":0.006849785508290866,"323":0.12430532548481522,"324":0.28939145791388804,"325":-0.384324437183752,"326":-0.06665834764671777,"327":-0.0160557950089999,"328":0.00570512731728011,"329":-0.026587688906417543,"330":0.1289509497215854,"331":0.08389622394246908,"332":0.017372772652948208,"333":-0.16503874248614345,"334":-0.037643992847563645,"335":-0.017520777313920065,"336":0.00695022113332466,"337":0.0816957933982833,"338":0.2703205704101519,"339":-0.11919514498448974,"340":-0.1144205048830947,"341":0.013293025361848837,"342":0.0003928982511156328,"343":0.013935056412574606,"344":-0.0006901986012985742,"345":0.3126494638956389,"346":-0.06489100398418599,"347":-0.060655547192571956,"348":-0.015776174733768862,"349":0.008223375045447227,"350":-0.0005890216659981095,"351":0.046805748202841,"352":0.32358571708016953,"353":-0.0764007992981409,"354":-0.05003905773512968,"355":0.04682190804252018,"356":0.012564964171899196,"357":-0.0005608974407906531,"358":0.045298393382628956,"359":0.22357982851704894,"360":0.10281397737720414,"361":-0.013617406525037148,"362":-0.04210726371623157,"363":0.02781981271734734,"364":-0.01476276217431784,"365":0.008932360720623965,"366":0.3277580995575422,"367":-0.0036714610924216897,"368":-0.10748607044911677,"369":0.04610544249514102,"370":0.024677816675273016,"371":0.0010192561336550203,"372":-0.028843140408104373,"373":0.5204051648327447,"374":0.049620953436647894,"375":-0.0970374608224839,"376":-0.0381140222044447,"377":-0.040972507231584125,"378":-0.04906630116010006,"379":-0.0015654290904764832,"380":0.25956137514270483,"381":-0.0257711346842534,"382":-0.0515064116570518,"383":-0.009860925980872652,"384":-0.02519340821838793,"385":-0.007430931756178621,"386":0.02792204316425978,"387":0.11324950817202944,"388":-0.009759896144930892,"389":-0.00981037074457531,"390":0.04059235676253211,"391":-0.04180879435182893,"392":-0.053408464670201494,"393":-0.02714379158025377,"394":0.06947556892607919,"395":0.032813960398700874,"396":0.03991365598742323,"397":-0.020670453499689555,"398":0.04603659997308898,"399":0.04409142258509507,"400":-0.04609129797980405,"401":-0.12687026689123196,"402":-0.09803682463148254,"403":0.06927821819653691,"404":0.0013908059280680507,"405":-0.037601941381757105,"406":-0.054168370120818966,"407":-0.02725244107731242,"408":0.06132589427140065,"409":-0.08487048149641224,"410":0.004247999154512997,"411":-0.02527120528610651,"412":0.06405427569948899,"413":-0.014423133815031621,"414":-0.011247943148285778,"415":0.03912451133068815,"416":0.015919667172186177,"417":-0.03351044465498011,"418":0.02977671602826442,"419":-0.0054663006511245435}},{"sx":1,"sy":1,"depth":420,"w":{"0":-0.02528834229744167,"1":-0.00513317560851272,"2":-0.003575300224636768,"3":0.032392348389480505,"4":0.007324940055103875,"5":-0.008040747121925944,"6":-0.10490639725274074,"7":-0.0321272249929792,"8":0.021155093447019727,"9":-0.00965699841997734,"10":-0.019757667615378602,"11":-0.03477284743307983,"12":0.037052018258071875,"13":-0.06979354248303422,"14":-0.00330919909077514,"15":-0.05049174319786303,"16":0.014896474063777278,"17":0.006856663796806182,"18":0.015492163689577483,"19":-0.016209824674859343,"20":-0.017550117234509728,"21":0.031588418732965466,"22":-0.0213563116433584,"23":0.03418548387509585,"24":0.0013702914890231389,"25":-0.0350192413270152,"26":0.016423793714282764,"27":-0.08297927451938368,"28":0.007871107928657556,"29":0.0204313022976479,"30":0.10751533067361208,"31":-0.0018252815553317784,"32":0.030996635045026463,"33":-0.01245730119598052,"34":0.05894733786212792,"35":-0.07020184496054628,"36":-0.00043095548834488353,"37":0.008645765151429301,"38":0.07705014894138223,"39":-0.01925482667428203,"40":-0.05264353751270473,"41":-0.06732294960243691,"42":0.04182901010610236,"43":-0.013795404438763523,"44":-0.043848939674547865,"45":0.08465013427334388,"46":-0.0698596444199827,"47":-0.06391368201867723,"48":-0.025331161978797437,"49":-0.03876602725340768,"50":-0.0570074229154003,"51":0.060077153781435855,"52":0.032950453957851455,"53":-0.014077903232547798,"54":0.02398902794329234,"55":0.019275230890227778,"56":0.0015160186561884255,"57":-0.04551406313345089,"58":0.04364870280853872,"59":0.050811490287123305,"60":0.027821764001485033,"61":-0.02431546096655711,"62":-0.038916023685161526,"63":0.0018823912489456475,"64":0.045753247807137166,"65":0.08784435120572043,"66":0.012453334897368874,"67":0.023525743527208733,"68":-0.06887059259551011,"69":-0.06704472491931576,"70":-0.008326636067713764,"71":0.013239433340075515,"72":-0.0013876235173251132,"73":0.020043480913205316,"74":0.04550051722403563,"75":0.004568219731891691,"76":-0.04754080483706253,"77":0.01146020724415238,"78":-0.03272098668771179,"79":-0.020960537973460924,"80":0.07118284603106101,"81":-0.07292759576961153,"82":-0.03045009727262943,"83":0.02640799343167627,"84":0.024927953036175943,"85":0.08437468360137122,"86":0.02432683395573908,"87":-0.0012508365356503131,"88":-0.07995124238665109,"89":0.040287369905777,"90":0.08269306245046039,"91":0.04074223856174093,"92":-0.006065634420771091,"93":0.060986782820784166,"94":0.03558754352008911,"95":0.0478421769305041,"96":-0.00859946656033975,"97":0.018275329860148088,"98":-0.037235251068206236,"99":-0.018336181080195336,"100":-0.0112573825488621,"101":0.06403391019202784,"102":0.07039374408085908,"103":0.0037778197887657176,"104":0.01655605683709579,"105":0.04032575373383895,"106":-0.04278268575667502,"107":-0.02019153184529543,"108":-0.023214023912080124,"109":-0.024790598108455596,"110":0.005333231481934355,"111":-0.0027511661395109802,"112":0.022259855135593448,"113":-0.005820402866383691,"114":0.05387142156296813,"115":0.013641019370326149,"116":-0.011482407966726225,"117":0.06101247688377028,"118":-0.07995990859150735,"119":0.030447007699623448,"120":-0.03549887893620431,"121":0.06846573395341658,"122":0.0641673505758647,"123":-0.020718849130956566,"124":-0.0065343294975999285,"125":0.1072993382501187,"126":0.1089432358635262,"127":0.040722933464437575,"128":0.00283236425965725,"129":-0.052784969661898794,"130":0.08375683261222212,"131":-0.027034296008201942,"132":-0.08105492881021577,"133":-0.05725780858856346,"134":0.033688123294317154,"135":-0.07113333258090916,"136":0.05682532584905309,"137":0.021254025434745725,"138":-0.035207382220320785,"139":0.0017623613096298312,"140":0.02495125793845761,"141":-0.089359288603513,"142":-0.038123771932111125,"143":-0.001912586092975943,"144":-0.031077059948217762,"145":-0.015556685022173175,"146":-0.05672275311761177,"147":-0.09408421536857986,"148":-0.011928007193373204,"149":0.0021590391951923664,"150":-0.008789988328658094,"151":-0.02070237860753708,"152":0.00023601986017623692,"153":-0.035768704661583356,"154":-0.06414405099702562,"155":-0.012314582162220694,"156":0.005549064103211396,"157":-0.07696061405493954,"158":0.039650589731318936,"159":0.016977768840225914,"160":-0.005114463135896013,"161":0.023042312965599474,"162":-0.006217460496806125,"163":0.06096820969114415,"164":0.06346874350758351,"165":0.015765959517967533,"166":-0.0935896684018237,"167":-0.0460097760027214,"168":-0.010650305573714073,"169":-0.06709391845721403,"170":0.12999801086477217,"171":0.1357085619723486,"172":-0.06885494121658407,"173":-0.05641285355941554,"174":-0.08633313395581872,"175":-0.0741430244326453,"176":-0.07454873380256483,"177":0.0913599855047529,"178":0.014555623555946959,"179":0.004843089045496906,"180":-0.02316729445321043,"181":-0.048597139582119316,"182":0.03099778793090907,"183":-0.006489979634034255,"184":0.04627728510178211,"185":0.0331079376074661,"186":0.026716988007137548,"187":-0.028410498910772037,"188":-0.12050250888220701,"189":0.002690599309764699,"190":0.04152446726589075,"191":0.01431090824317083,"192":0.07820321548251923,"193":0.02186342426334642,"194":0.0019078956853167874,"195":-0.029988297877377775,"196":-0.08677193689781316,"197":-0.03882306144681978,"198":-0.08516529971443006,"199":-0.018078138505083944,"200":0.1506549602173371,"201":0.005738727380616623,"202":-0.06512824137577386,"203":-0.04787583322895661,"204":-0.025522640808737458,"205":0.02144609567864194,"206":0.06090638944515526,"207":-0.007333324387213845,"208":-0.017367856425297663,"209":-0.02006532265728459,"210":0.04262032455643338,"211":-0.0504315044025633,"212":0.04175598946045176,"213":0.060217608617886456,"214":0.06505015206849338,"215":0.05717367947293473,"216":-0.06417906650250017,"217":-0.0017962097980676888,"218":0.024653459318038997,"219":-0.012199257768237149,"220":-0.01580384634860186,"221":-0.029759491103606033,"222":-0.038748943363705546,"223":0.06292240422419525,"224":0.0039296391716865725,"225":-0.033571033315028795,"226":0.14068989583890787,"227":0.06332732656889321,"228":0.0055405324007602565,"229":-0.025406915682445557,"230":0.022261530686380756,"231":-0.03625704348141939,"232":0.029232171581035415,"233":0.05971727670189093,"234":-0.08474880836820053,"235":-0.07244795312691305,"236":0.028359821041468742,"237":0.009413026867370583,"238":-0.005423802276872941,"239":0.05831705598005371,"240":-0.023010147635818733,"241":0.0023947460909479463,"242":0.0029516654167531897,"243":-0.0011241377098029578,"244":0.0162032752137192,"245":-0.002974434014237155,"246":-0.024249593511969897,"247":0.020507073932792816,"248":-0.01489493023764385,"249":-0.036874754419517396,"250":-0.02904566300175335,"251":-0.0171673079335763,"252":-0.014569665547225602,"253":0.11873143344762176,"254":-0.0021573057700645226,"255":-0.05847001763342778,"256":-0.06966829032562659,"257":-0.05631986805416325,"258":-0.031215862503405207,"259":0.005340416096466316,"260":-0.09569963823978904,"261":-0.01661717606459883,"262":-0.046362930021431596,"263":0.0038545417826982144,"264":0.06359597717592914,"265":0.04915685437002353,"266":-0.006418841559967334,"267":0.07391650573235718,"268":0.003574440477551502,"269":-0.04195488333547761,"270":-0.048769212057176096,"271":-0.020822355025661394,"272":0.03728806607816177,"273":0.07363669635329312,"274":0.050796204504738846,"275":0.00224289856753936,"276":-0.14934877657585865,"277":0.06379820652625497,"278":0.01853820987014616,"279":0.06228934134168025,"280":0.0004981140231282047,"281":-0.033388978432892354,"282":-0.017550127699966816,"283":0.002729402238008965,"284":-0.00175572176267448,"285":0.03727306043997959,"286":0.014198368895238764,"287":-0.026911635200626144,"288":-0.020076536884417677,"289":-0.03913429980411288,"290":0.018718919542992526,"291":0.000652204863265782,"292":-0.028401148668940134,"293":0.03350424449500012,"294":0.01649750871637446,"295":-0.01703792588800465,"296":-0.06677077727939736,"297":-0.030005202634411716,"298":-0.04612224127729654,"299":-0.0023444967262933624,"300":0.020057748495514602,"301":0.028754564258521277,"302":0.04267064735323592,"303":-0.18246333242727109,"304":-0.06551704138951717,"305":0.0014572511922103185,"306":-0.00825071698861914,"307":0.03843334688636206,"308":0.031099668217318875,"309":-0.10601815521503277,"310":0.041394875785751295,"311":-0.06617444106495589,"312":-0.03976895125216207,"313":-0.004153640383887515,"314":0.033729326746266504,"315":-0.002574614621458136,"316":0.03642905162711747,"317":-0.08729443572526915,"318":-0.026053489741957488,"319":-0.05440178137921843,"320":0.06973651450382597,"321":0.008496449946510599,"322":-0.05335859424052768,"323":-0.039426976519353195,"324":-0.1564625287974349,"325":0.002674341808435004,"326":-0.05647077353340718,"327":-0.04810299118159716,"328":-0.05164745245224874,"329":0.0005581026550047182,"330":-0.0016222978914207807,"331":-0.03193416573013246,"332":0.0396192480425003,"333":-0.01172778253814361,"334":0.07189831484355481,"335":-0.0217911068240917,"336":0.00542530196894009,"337":-0.04505467003523311,"338":-0.09100662722072916,"339":0.06165563851294143,"340":0.019719496938032096,"341":0.031248140289202014,"342":-0.021293847048710637,"343":0.03689016739987826,"344":0.037196859029288876,"345":-0.11025604375958958,"346":-0.003404104629299805,"347":-0.026790657834647756,"348":-0.010624971625087727,"349":-0.03401501129744491,"350":-0.0022700281873642486,"351":-0.028906394296951073,"352":-0.047989211141592596,"353":-0.014128753302344758,"354":0.03808749401367486,"355":-0.01016817577257312,"356":-0.01196972868819097,"357":-0.017350991021585115,"358":-0.0498220601688868,"359":0.039865332972761285,"360":-0.1857297625047916,"361":-0.02127183284886699,"362":-0.01306231169205833,"363":0.00329214263783725,"364":0.015713475666181545,"365":-0.0706689584993308,"366":0.05162925424164934,"367":-0.029963818008789653,"368":0.06663880769075889,"369":0.009944375156531484,"370":0.02117619061273909,"371":0.004433550584302834,"372":-0.06922387206685585,"373":-0.10119689266521795,"374":0.010236663628503584,"375":0.036717675130591335,"376":0.031294589134585944,"377":-0.025540238647689253,"378":-0.042879901787010365,"379":0.0469906665573236,"380":0.03001351682837302,"381":0.05904465562440551,"382":-0.01021547827345342,"383":0.02365140184613981,"384":0.007021532906442731,"385":-0.061068553044526824,"386":-0.0025276363696460154,"387":-0.0564898003903103,"388":0.0068486909877053595,"389":0.018293670049525104,"390":-0.016528435259279807,"391":0.0697338657728896,"392":-0.03155130124144912,"393":0.02711038639114338,"394":0.012718000269787862,"395":0.035012325849492605,"396":-0.007307954572133056,"397":0.07077568947441584,"398":0.04391787102511496,"399":0.011048622421811842,"400":-0.08245570850521652,"401":-0.02219070896394555,"402":0.051805910567188695,"403":-0.011577576592884064,"404":0.08649936470877956,"405":-0.08893335572800412,"406":0.032118101065561386,"407":0.026869109332155625,"408":-0.054882858164474704,"409":-0.1113162586684857,"410":-0.009216467712605902,"411":-0.007815735170944577,"412":-0.002490904677743059,"413":-0.11590610062337968,"414":0.01844873708719045,"415":-0.11181162236669627,"416":0.013749462557747153,"417":-0.025245802802768613,"418":0.10128030212194379,"419":0.011934382495612208}},{"sx":1,"sy":1,"depth":420,"w":{"0":0.00052717264062592,"1":-0.07158977441868648,"2":0.0025271060707353116,"3":-0.007683424005112843,"4":-0.028265162829764878,"5":-0.05123007216872464,"6":-0.04296218956643092,"7":0.03724124450262479,"8":0.021025795934216964,"9":-0.0017441352605917881,"10":-0.025995630817484388,"11":-0.012520004762862495,"12":-0.007995420160633425,"13":-0.06722662426540436,"14":-0.000942051343020798,"15":-0.007966421682192509,"16":-0.015605558543308558,"17":-0.05127117590347739,"18":0.04468113783531741,"19":0.014358698953220733,"20":-0.07800366199280583,"21":-0.036440153529470776,"22":-0.0021771738872279987,"23":0.008911966245704974,"24":0.05219482888315318,"25":0.008246122164494765,"26":-0.035794533082731596,"27":0.03520956136648981,"28":0.043691326788756375,"29":-0.010412842679678541,"30":-0.02189202918531979,"31":-0.008385259538468843,"32":-0.07619306427317268,"33":-0.0431256802729627,"34":-0.03457729305187377,"35":0.002380437351827803,"36":-0.015552485983036433,"37":0.03372366133708208,"38":-0.012337774936957036,"39":-0.026231454182274933,"40":-0.10977698297602517,"41":-0.06713069998616163,"42":0.0021733076981080442,"43":-0.016373452329836426,"44":-0.024134937107842647,"45":-0.029326208071280783,"46":0.015378707394995278,"47":-0.08099719315159803,"48":0.04366130524589696,"49":-0.007096070178573472,"50":0.057080078439056894,"51":-0.02976004274790738,"52":0.05366614924345469,"53":-0.02879160148631183,"54":0.02838283949066041,"55":-0.01420875858932279,"56":-0.012299297365739712,"57":-0.012451674366856595,"58":0.044276368594117266,"59":0.02132524567314044,"60":0.0423979284016093,"61":-0.027903732414621855,"62":-0.008112528858557465,"63":-0.005564060556881807,"64":0.012782730939526053,"65":0.0400010253783143,"66":0.017633241249428416,"67":-0.018146917312039195,"68":-0.011833775533290082,"69":-0.021430293236013878,"70":0.08524652829588962,"71":-0.015953296867449233,"72":0.020809791161248366,"73":-0.06468293064065202,"74":-0.05006934099097267,"75":-0.07341638412803213,"76":0.047634463469198814,"77":0.035799803817273455,"78":0.002779936695174609,"79":-0.04042995314472027,"80":-0.01820483884276034,"81":-0.035315848573352425,"82":-0.03767451788663067,"83":-0.03078436264388211,"84":0.003163590902608523,"85":-0.013232320569405648,"86":-0.0022441875660801818,"87":0.029831361532442036,"88":0.011402424952687793,"89":0.0285348765390152,"90":-0.05917529268910837,"91":0.01477087383145149,"92":-0.007192097677223554,"93":-0.008810543192496939,"94":-0.007969479716011847,"95":-0.0058032409952364855,"96":-0.021923278004193286,"97":-0.0074073970629767545,"98":0.03367382643760888,"99":-0.03668252122232426,"100":0.035000200659245535,"101":-0.00017139121083374742,"102":-0.022276360447383337,"103":-0.03817651768925184,"104":-0.06001179425285942,"105":0.0067212022195558075,"106":-0.013201034991019413,"107":0.02268772663434539,"108":-0.023287211407980842,"109":-0.053548908069096575,"110":-0.01255193862661571,"111":0.007476180324764839,"112":-0.023164620393489314,"113":-0.05032102714753833,"114":-0.08447343676352408,"115":-0.00811029032777103,"116":-0.06599635797203512,"117":0.017855806636468456,"118":-0.012347861795648231,"119":0.06648049962089586,"120":-0.010183414141460002,"121":-0.042160126380040984,"122":0.03604416248289168,"123":0.0601197131272128,"124":-0.03319494518116071,"125":-0.005013961888120054,"126":-0.020194576218680996,"127":-0.0032765504341985964,"128":-0.0028526548324103547,"129":-0.07543761549558863,"130":0.0020274555773879483,"131":-0.0911557583005464,"132":0.01696074645905313,"133":-0.05128737817369162,"134":0.016837329603200255,"135":-0.01085080139293527,"136":0.002818523376010235,"137":0.004877516274911379,"138":0.010227980115028805,"139":0.056264569166611746,"140":-0.02222924118477713,"141":-0.021525699600519047,"142":0.008200052670125385,"143":0.007924258352843728,"144":-0.057975939419508855,"145":0.019880169579554727,"146":-0.07975370012298927,"147":-0.0008301517770266937,"148":0.034448904669890944,"149":-0.03700336870350465,"150":-0.00010578121288635436,"151":-0.007696241443037068,"152":0.06179926699770414,"153":0.003971204131295765,"154":0.041627784762916016,"155":-0.0030300949067038857,"156":-0.05786798283799667,"157":-0.028467958749791786,"158":-0.027566304488662024,"159":-0.029604086793339045,"160":0.07946713856826677,"161":-0.011237928710753874,"162":-0.004236521990255104,"163":-0.024450781379695738,"164":-0.01844446120422273,"165":-0.0019159457871742282,"166":-0.006331118013813721,"167":-0.006970090912919648,"168":0.01134497862343528,"169":-0.0018848891545430683,"170":0.032101554005115565,"171":0.033825930589742745,"172":-0.027262981795949593,"173":-0.011863147814222477,"174":-0.018256468195638146,"175":-0.011647330637209786,"176":0.016528791958244762,"177":-0.008669930651110162,"178":-0.06619916945922273,"179":0.008074792691697752,"180":0.015422034260475812,"181":-0.01978784580190809,"182":0.009444167242803513,"183":0.004050361986382425,"184":-0.028911794880777816,"185":-0.014515052965249544,"186":0.001074349500074012,"187":0.05506493505416259,"188":-0.007357514228003361,"189":-0.008976446055545042,"190":0.02288033869981625,"191":0.014382865184819038,"192":0.03861799510873969,"193":0.012445386475835787,"194":-0.012485109870321068,"195":0.04597918706401408,"196":-0.0039973578688295925,"197":-0.008389905487479558,"198":0.030738032356563784,"199":-0.0008838824647643427,"200":0.059928153630614905,"201":-0.04182921627828934,"202":-0.03885615631742358,"203":0.040203105798048776,"204":0.01925731602421621,"205":0.0094205973627484,"206":-0.013358853705120206,"207":0.03790456789260467,"208":0.030492808402366733,"209":-0.0062972628717154235,"210":0.0055049352737522855,"211":-0.03035902440539788,"212":-0.06544025451054823,"213":-0.025488670349340332,"214":-0.020753286691852973,"215":0.05118764700171143,"216":0.04549456463383139,"217":-0.00648145005379059,"218":0.02255461658227767,"219":-0.01563859892140612,"220":0.03505425487857902,"221":0.06283769121470646,"222":0.05122874641905279,"223":-0.007108842413092162,"224":0.03272658956982994,"225":0.016763641338416922,"226":0.023368723544273717,"227":0.037562826936232335,"228":0.08433442846703018,"229":-0.001735538780984912,"230":0.014169260813965112,"231":-0.02807795254684595,"232":0.0023303574587857814,"233":0.04610915304262348,"234":0.011792243356665255,"235":0.01761324063680247,"236":0.010729476964996053,"237":0.022715649060153123,"238":-0.04222694869239051,"239":-0.03596587581281178,"240":-0.0029872057923047697,"241":0.07637736177509936,"242":0.04698105324300633,"243":0.06053705173658248,"244":0.02322685415238984,"245":-0.003879765514924348,"246":0.012823743113599996,"247":-0.035425775905981574,"248":0.13253935464120112,"249":0.04397195520834124,"250":0.062115056613928465,"251":0.017970535578147147,"252":-0.012978384441873993,"253":0.008375937963216427,"254":0.03064052309602006,"255":0.10350156569769624,"256":0.0861373858207926,"257":0.002968967125562475,"258":0.07172429920478297,"259":0.020605497642205168,"260":-0.022790057499065146,"261":0.04575376771862723,"262":0.13101517821973294,"263":0.11975298493485041,"264":0.019562768874482907,"265":0.004206852304015509,"266":0.002502029869488344,"267":-0.004399533393126133,"268":0.04695009820023436,"269":0.14755409104928324,"270":0.0014000293679878233,"271":0.06996650818170652,"272":0.007620094733056327,"273":0.03600696728322767,"274":-0.02469792132936864,"275":0.032792658294194595,"276":0.14005418827533367,"277":0.07994304382734252,"278":0.0734509302954778,"279":0.02103322110892907,"280":0.0025052921011793038,"281":0.046548599516733215,"282":-0.042493391851438585,"283":0.18333304781310003,"284":0.1252615272281421,"285":0.07768609073971519,"286":0.06204763017493436,"287":0.005822967268870373,"288":0.01325279239886433,"289":0.09922336045840673,"290":0.12148568742680198,"291":0.07864159841181192,"292":0.022472926828350014,"293":-0.009383808728794305,"294":-0.014010600906712417,"295":-0.010154505195869305,"296":0.03391463378039381,"297":0.0645728300883451,"298":0.04081033987839496,"299":0.08673046961945059,"300":-0.08559470220023843,"301":0.0785959661277883,"302":0.022466773693729177,"303":0.07544828359064966,"304":0.21911903161958743,"305":0.052605224484959336,"306":0.027829712851256558,"307":0.014074395645114542,"308":-0.008035149969802417,"309":0.01926224853519117,"310":0.09860007385070856,"311":0.11835108580562229,"312":0.10577065582390326,"313":0.05300633237909843,"314":0.0770998062801944,"315":0.003336705025414577,"316":-0.003624643836129421,"317":0.10357798587016058,"318":0.09743416009313619,"319":0.04168768385632352,"320":0.07676509877275449,"321":-0.06074980419793318,"322":-0.016116898013509847,"323":0.012847319734665815,"324":0.010678693677080742,"325":0.18778476952381568,"326":-0.08193284769003059,"327":0.0019477231946564248,"328":-0.013683073171388761,"329":-0.019349652227797453,"330":-0.0135792933135719,"331":0.10079252179952748,"332":-0.06191919348598978,"333":-0.02150088164674763,"334":0.06252251484570036,"335":-0.012810370831340486,"336":0.04870785050516033,"337":0.01809883331105055,"338":0.06982168384773153,"339":-0.19188775664883992,"340":-0.04535682446124136,"341":0.06335895227050653,"342":0.005229003060183897,"343":-0.029109887844365957,"344":0.02841736338316097,"345":-0.0555947200393052,"346":-0.24411700894892605,"347":-0.10360393728087251,"348":-0.0016699449738301789,"349":0.012079857602929924,"350":-0.023313726628819472,"351":-0.024754936586848384,"352":-0.026071120908114795,"353":-1.4277484523103596,"354":-0.053838507620390975,"355":-0.017833991420525268,"356":-0.010010374955675163,"357":0.02208200196526273,"358":0.031090945343598186,"359":0.031577999177769586,"360":-1.3666305278725512,"361":-0.0027241162666274,"362":0.028979486461716705,"363":-0.012362467516826776,"364":-0.00009336855164257407,"365":0.002824568411842892,"366":0.0030911106017450923,"367":-1.2393169767402679,"368":-0.021282811503233308,"369":0.014879251618845566,"370":0.015216302781981267,"371":-0.00467858734438268,"372":0.001049299678162912,"373":0.030168249897683654,"374":-1.3202823385002829,"375":-0.06232500847667309,"376":-0.04506479415198047,"377":-0.019466962851599084,"378":0.023966530380174288,"379":0.011102007801433465,"380":0.05672810846575463,"381":-0.24170223569832683,"382":-0.05493959411191829,"383":-0.002056025666773051,"384":0.03800893791875364,"385":-0.03448783786494004,"386":-0.013359263444790822,"387":-0.003694535926881947,"388":-0.1546178806962874,"389":-0.11241354016126293,"390":-0.05026644760597986,"391":0.0201060069737575,"392":-0.011428319733615667,"393":0.058426452797009115,"394":-0.052470822967883635,"395":-0.16271000901994903,"396":0.027272504800487308,"397":-0.012005639933275197,"398":0.018509878632425224,"399":0.005354176295551944,"400":-0.019033514342072566,"401":-0.023796655690229252,"402":-0.0887676956123344,"403":0.034490708034018824,"404":0.03181034940323315,"405":-0.0068014596769280285,"406":-0.003852568911658633,"407":-0.02609488532013983,"408":-0.06919518699249695,"409":-0.08493298848857402,"410":-0.07210921779573601,"411":-0.018694819118466405,"412":-0.04068768070993894,"413":-0.03807389756997442,"414":-0.02934051386444951,"415":-0.11340256798793046,"416":-0.08499205894333875,"417":0.012184651317837464,"418":-0.050015362129857695,"419":0.02301068158449026}},{"sx":1,"sy":1,"depth":420,"w":{"0":-0.010364152155250942,"1":0.03849816255266872,"2":0.006240175078711152,"3":0.06820709229254944,"4":0.09165065601851724,"5":-0.003909076621712114,"6":0.01025510629462427,"7":-0.12315634452548588,"8":-0.01900642734151399,"9":0.05483858128446345,"10":0.07235992687053841,"11":0.048168589200461805,"12":-0.023468413262894994,"13":-0.038067023910499195,"14":0.04850132834108279,"15":-0.024295736432072418,"16":-0.07042044437752477,"17":0.0375819716681634,"18":0.009339318298654935,"19":-0.001993611520454441,"20":0.04595936801524773,"21":0.11693271646961279,"22":-0.048595495337757665,"23":0.010931905524539315,"24":0.006722233516664421,"25":-0.04430621955635275,"26":0.03680537021363273,"27":0.025031297401541478,"28":0.018202555502715205,"29":0.055400025553503554,"30":-0.04580279927068617,"31":0.010175490774272544,"32":0.04063893509310219,"33":0.1264556594133571,"34":0.05247396567489695,"35":0.0150413879665422,"36":0.0011996656887292532,"37":0.11225665580852189,"38":0.030582612778115695,"39":0.011279274899839748,"40":0.039161852988112755,"41":-0.027346612813102796,"42":0.05894927103446218,"43":0.040229857246225666,"44":-0.027459884987267175,"45":0.030930938208447247,"46":-0.006864509395784183,"47":0.0697740739448432,"48":0.06439121964585154,"49":0.010372415839801365,"50":0.016677251010928637,"51":-0.016758447573423253,"52":0.02053123389329301,"53":0.011264759513223125,"54":-0.02510147678545825,"55":0.02065988117323992,"56":-0.04792692729902871,"57":-0.005683596202984902,"58":0.043907887005827026,"59":-0.0322135028955919,"60":-0.0036969504397848176,"61":0.00419986073238855,"62":0.017171475319940777,"63":0.05360844186775347,"64":0.012187805793755113,"65":-0.06419625892390018,"66":0.04606129900359395,"67":0.028862327061864847,"68":-0.023292767986767476,"69":-0.0171875855579982,"70":-0.002220142146059172,"71":0.02700359435883252,"72":0.0393286878336989,"73":0.06865588763135928,"74":0.03577205642661123,"75":0.07906246932137104,"76":-0.07965956858712267,"77":0.046202946719823494,"78":-0.005616737359199549,"79":0.004532784323320266,"80":0.04938584751917246,"81":-0.01444258967245503,"82":-0.025362855356198727,"83":-0.04085731870093002,"84":-0.0063475636576491926,"85":0.02555491543337979,"86":-0.038891175312500026,"87":-0.06111442583230913,"88":-0.07790993051668434,"89":-0.0024181160144461714,"90":-0.03640786775784315,"91":0.03636390251232439,"92":0.02023277304085436,"93":0.09174004741168948,"94":0.02654620452807596,"95":0.0015590333409651674,"96":0.007291577564999213,"97":0.001745219531397967,"98":-0.04976591248634172,"99":0.03203081337416217,"100":-0.021736318032742015,"101":0.017138458119746,"102":-0.023322496079773592,"103":0.033084961753667035,"104":-0.04223834133114698,"105":-0.05441194093033926,"106":-0.0003565032656009055,"107":-0.051923416070092605,"108":0.05910046271915891,"109":-0.010655645149231814,"110":0.021322522238186634,"111":-0.041149947256002226,"112":-0.0199274888662602,"113":0.012296967185239288,"114":0.05577953443384067,"115":-0.036659014867610945,"116":-0.007514286198626096,"117":-0.016169096670278504,"118":0.02285564264121421,"119":0.009314448505634773,"120":0.0788196443719362,"121":-0.0013505741199086783,"122":0.032241304494909195,"123":0.01032452454255941,"124":-0.07302939050878647,"125":0.019579631350633106,"126":0.044645894288893095,"127":-0.058255393429253635,"128":0.02426950985870842,"129":0.035694366970613615,"130":-0.041841263901890115,"131":-0.006458050410954891,"132":-0.011475969345456943,"133":0.06571629446216645,"134":-0.015780504476306155,"135":0.05018282351324813,"136":0.04039422177557397,"137":-0.009177107559715875,"138":-0.0031370716459519906,"139":-0.010594510982661615,"140":-0.035427895879982844,"141":0.07288536332509703,"142":0.027980385026383513,"143":-0.031019660418551736,"144":0.009562621984852592,"145":0.013021506566011812,"146":-0.053589457499261035,"147":-0.010107932476876106,"148":-0.06323395254769978,"149":-0.010595963331305802,"150":0.06333307118630004,"151":-0.02954371198567825,"152":0.01015900190129346,"153":-0.028100784284219388,"154":-0.08771050553649418,"155":-0.013000048662557422,"156":0.007851886010059653,"157":-0.0032925678031203204,"158":0.01590319866771549,"159":-0.021773461424514393,"160":0.08452602200231478,"161":0.0073022918470489325,"162":-0.0072534103876448755,"163":0.06959287285410967,"164":0.014596213544137288,"165":-0.043368423566107074,"166":0.015450888334106802,"167":0.017292843080559343,"168":0.009434991241556298,"169":0.028128026144560312,"170":0.0502291882222111,"171":-0.07268198338788781,"172":-0.03244242268032388,"173":0.019607050891566478,"174":0.09047747164410627,"175":0.031143610493073983,"176":-0.00513016301085063,"177":0.05134575223884994,"178":0.02714493921233691,"179":0.03885614796100883,"180":-0.02412526229486597,"181":-0.05530557116210041,"182":0.009651882609949666,"183":-0.019852623853846733,"184":-0.006261998098325357,"185":0.01492449918333835,"186":-0.044176994341884816,"187":-0.015549250854509807,"188":-0.009855157407518855,"189":0.006323652934950891,"190":0.0525873860156856,"191":0.054080517208893876,"192":0.015482929737891614,"193":-0.07220691873450477,"194":0.0005816751021831252,"195":-0.04199297325499595,"196":0.07014862660218521,"197":0.010801772672936171,"198":0.014590156591146432,"199":0.061542211363117355,"200":0.025884685755957183,"201":0.07626675018909349,"202":-0.00343626335429711,"203":0.014505287173182245,"204":-0.004583196679346136,"205":-0.051575505747493346,"206":-0.049032883452558164,"207":-0.005729409297264112,"208":0.01119069458455528,"209":0.03613852253890003,"210":0.02464684517686791,"211":-0.022781341035792987,"212":0.011616059932858892,"213":-0.0541116930566865,"214":-0.009160914281705257,"215":-0.09767745424007736,"216":-0.056166279823484114,"217":-0.06032443042421134,"218":-0.0759075327515649,"219":-0.022899555423887615,"220":0.0330305080992005,"221":-0.03375739449913543,"222":0.023271591724749775,"223":-0.024499145177165057,"224":-0.05527544108210479,"225":-0.009425149245816224,"226":-0.06293465053374232,"227":-0.00011474503674464932,"228":-0.05114274189101357,"229":0.020191992807199893,"230":0.02409913094018545,"231":0.04706546739512805,"232":0.0049267625768200235,"233":0.017480395082863996,"234":0.0528482502524879,"235":-0.04398421349386398,"236":-0.020691674359495704,"237":0.01916891735161721,"238":0.05007202508947031,"239":-0.041345653884144,"240":0.06528354600491712,"241":0.019418440483222582,"242":-0.0104298166846348,"243":0.04660023433088866,"244":-0.029959556982501148,"245":0.012388397529651898,"246":-0.056160818249769116,"247":0.02921729542693027,"248":0.02795516750446423,"249":-0.04892053323968027,"250":-0.017825933784665515,"251":-0.05295519726137812,"252":-0.024525169571813426,"253":0.007960454422588156,"254":-0.07101207772278821,"255":0.09020180966217763,"256":-0.03570638875676327,"257":-0.07255855610458958,"258":0.05368885025355506,"259":-0.022314388815567337,"260":0.020141663276477473,"261":0.021450882584152692,"262":0.07322370897917822,"263":-0.03537355552020056,"264":-0.0017349153562213277,"265":-0.031127119036199358,"266":-0.02414517491467741,"267":0.026438458148264222,"268":0.03849057060733975,"269":0.041355596824489964,"270":-0.007106139737833528,"271":-0.02693771331811846,"272":-0.013594084062105322,"273":-0.05771119552934744,"274":-0.012921671420650515,"275":-0.05414430769888324,"276":0.12459880013513837,"277":-0.08333485512033015,"278":-0.014222741847560711,"279":0.05200244481545504,"280":0.06075410307521752,"281":0.06714690926271788,"282":0.023137468740334496,"283":0.04358847929904111,"284":0.045596824117797065,"285":0.005989321134417201,"286":0.028765619234730214,"287":-0.002241260453655416,"288":-0.06148626906486519,"289":-0.03133804609903874,"290":0.03311262376421194,"291":0.05601905937708274,"292":0.03566703699211144,"293":0.026359625359984026,"294":-0.014428373800986133,"295":-0.0169844080239138,"296":0.1234513985515377,"297":0.09841855172101792,"298":0.13366353812958054,"299":-0.049082909824664664,"300":-0.016238936737097934,"301":-0.02928543634377252,"302":-0.009720990520011408,"303":-0.01639882242063812,"304":-0.009737240652101431,"305":0.020073204039373873,"306":-0.017835752754974087,"307":0.0254949096262617,"308":0.07081115077074808,"309":0.034256603843085064,"310":-0.033342784808605364,"311":-0.07913976318132487,"312":0.10755914613110822,"313":0.012898635324798402,"314":0.01987676162661719,"315":-0.03522623087841589,"316":-0.0025476226446555883,"317":0.027895553206154902,"318":0.004977695876193513,"319":0.10746182974569123,"320":0.009020578334024087,"321":0.05088087752164819,"322":-0.0037553632580141112,"323":-0.026800112615582128,"324":-0.021816775355837918,"325":0.04765575603992838,"326":0.04946916267161116,"327":-0.03135907032780223,"328":-0.025891168635003688,"329":0.06471989859594143,"330":-0.026310915720930302,"331":0.026034275968070602,"332":-0.11214529026336054,"333":0.11023753952696205,"334":0.005112898838708464,"335":-0.027334912432072755,"336":-0.05861740380908534,"337":-0.04706944253267427,"338":0.030432689683320278,"339":-0.17087561880067034,"340":0.06863323100889215,"341":-0.09319810062700455,"342":-0.025005842694403764,"343":0.051862655496192386,"344":0.08948591611559484,"345":-0.02664298410093564,"346":-0.04226137123249051,"347":-0.00021499579060721297,"348":0.0498199141055976,"349":-0.013643329612230345,"350":0.020931103145747934,"351":-0.07307125095188242,"352":-0.02147842951123051,"353":-0.7766664552037925,"354":-0.022827805099376982,"355":0.011193371888929406,"356":-0.019947514394717532,"357":0.0497014139326781,"358":-0.021474414853434345,"359":0.039830129707987785,"360":-0.8409974133811089,"361":-0.01572062545196396,"362":-0.08388946388015195,"363":0.058718749360569165,"364":-0.07343063665547835,"365":0.00012638598232653968,"366":0.004215443331341594,"367":-0.8021837781263929,"368":0.007199071388982551,"369":0.023754168096681943,"370":0.05348809398614585,"371":0.03713853957149296,"372":-0.07082915680212688,"373":-0.09911823899661779,"374":-0.861832915202444,"375":0.048535052456779144,"376":0.005593574667349223,"377":-0.02328500729013712,"378":-0.036319060838340675,"379":0.05548277559501536,"380":-0.056401316437544216,"381":-0.19269897019487062,"382":0.08918481379185991,"383":-0.00930135641773779,"384":-0.040326449667996755,"385":0.04382337958776808,"386":0.0706705551681612,"387":-0.02806719216173192,"388":-0.12545493884293485,"389":-0.02853370722606286,"390":-0.03892534298890271,"391":-0.02600333533977605,"392":0.05307522480356457,"393":-0.05032910331924481,"394":0.023775146131570404,"395":-0.1708401767414263,"396":-0.010194458644689184,"397":-0.01762061532591408,"398":-0.019779305790073608,"399":0.055361643430587894,"400":-0.02551850115004045,"401":-0.04085912279935573,"402":-0.10988021204650543,"403":0.017891246237175754,"404":0.028643768300572157,"405":0.01445160155572642,"406":-0.01613596813972947,"407":-0.009958903691392977,"408":-0.046514385676460414,"409":-0.06461370908101216,"410":0.04676732766479792,"411":0.008830379813193215,"412":0.037814583506367336,"413":-0.012740647384067737,"414":0.07694449593760178,"415":0.019169405941467328,"416":-0.032355952881724534,"417":-0.08629865551625789,"418":-0.007578506404210609,"419":0.03448323073580189}},{"sx":1,"sy":1,"depth":420,"w":{"0":0.0107248363880572,"1":0.023708431414091347,"2":0.0558656472964462,"3":0.004937832100626849,"4":0.08109903421767758,"5":0.014944937004611435,"6":-0.000002626022841551782,"7":-0.012538287141958714,"8":-0.0031870508290602535,"9":-0.009642801526916652,"10":0.027656105327004833,"11":-0.0018798196348023637,"12":0.011664895422822546,"13":0.002166775638663352,"14":0.013225452098931398,"15":0.01424171318375676,"16":-0.027568027905196087,"17":-0.007117222561315333,"18":-0.016934793547017195,"19":-0.004646545301736902,"20":-0.01865932063897087,"21":0.0033325061556881497,"22":0.03134945464179793,"23":-0.025232124976668272,"24":0.006167650865625021,"25":-0.003164542611166827,"26":0.004685148213484473,"27":-0.00023751101705308034,"28":-0.023716579465117,"29":-0.0136794346403801,"30":-0.0024963250044727865,"31":-0.00030709258896730214,"32":0.08408135948757586,"33":0.007006268389442034,"34":-0.02315309536620311,"35":0.01655579142414827,"36":-0.01888217135709453,"37":0.04067562222028528,"38":-0.004936133769625615,"39":0.009786724223740802,"40":-0.052411886664027504,"41":0.0004849092848016914,"42":0.008495378929238885,"43":0.0033162916789652554,"44":-0.035013624014570456,"45":0.024059649371301173,"46":-0.009311544333665107,"47":0.03185345111659859,"48":0.010231611489310807,"49":-0.02378348736319,"50":0.027645206277231618,"51":0.00652074318699385,"52":0.009135849081115548,"53":0.022612362192993177,"54":0.014700861260339135,"55":-0.0015297501496959781,"56":-0.011853727885282982,"57":-0.030278124216934255,"58":0.011113934530448526,"59":0.019203511395139327,"60":0.028090501208932517,"61":-0.02121413849215132,"62":0.02033293108749459,"63":-0.02161285628555842,"64":-0.012591701537307074,"65":-0.025398384052859005,"66":0.007527529133131289,"67":0.005875306068629921,"68":-0.012894601086482828,"69":-0.014135347734974657,"70":0.02491535620102669,"71":-0.01623397620247843,"72":0.022982895872925308,"73":-0.025063200613441985,"74":-0.043863115982026274,"75":0.02140202409074123,"76":-0.0027671560051175117,"77":-0.008942849075872212,"78":-0.0059415129477305316,"79":0.002121531274679169,"80":0.020373866306308507,"81":0.03330094700370382,"82":0.005058019407125066,"83":-0.011846922393475899,"84":-0.042349377344297084,"85":0.015030758747054401,"86":0.003944167491612329,"87":-0.0022540587279031676,"88":0.037742352573087744,"89":-0.05275614582316478,"90":0.008300487229597756,"91":0.022127963223502002,"92":0.03270798405351831,"93":0.016652957343207438,"94":-0.03267133252249696,"95":0.0014438965142889349,"96":0.01043843135483643,"97":0.04304428151859723,"98":-0.012155070141319176,"99":-0.0203026875900843,"100":-0.004518810683306625,"101":-0.002613454763054717,"102":-0.01967214524463242,"103":0.04252262542364052,"104":-0.03750100319979347,"105":0.006890138273893872,"106":0.014984307405267506,"107":-0.015297428509801307,"108":0.011347716723780606,"109":0.05850320840159759,"110":0.030407567942953764,"111":0.0019318062914705236,"112":-0.005752095235310205,"113":-0.003761152455539966,"114":0.022913200808140143,"115":0.011136806405134564,"116":0.010676553531666922,"117":-0.033051987711314915,"118":0.005953198164653703,"119":0.004864434364197647,"120":0.013918509656765993,"121":0.011809311300304041,"122":-0.012945655901500522,"123":0.0010442672275454113,"124":-0.008224845967170798,"125":0.02121390735319819,"126":-0.037067847457043716,"127":-0.04249365504786625,"128":0.011074542747514153,"129":-0.009573327290095466,"130":-0.012518701935774373,"131":0.05166235759749259,"132":-0.0014890327709922216,"133":0.014398437077715183,"134":-0.007589086911929416,"135":0.004169276703037215,"136":0.01693800625632219,"137":0.07182387224811894,"138":0.025274553934642396,"139":0.015181347275775041,"140":0.008522837849684845,"141":-0.005395174641933158,"142":-0.0042682855708325645,"143":0.010305183488802324,"144":-0.01519342237311563,"145":-0.004615903670448597,"146":0.02460748019453168,"147":0.008905809056825021,"148":-0.01083345587924176,"149":-0.029874633489857777,"150":0.016003363986687204,"151":-0.024245493669920737,"152":-0.008021559192526386,"153":-0.02482455589242366,"154":-0.03350646348052167,"155":-0.011339573543182725,"156":-0.01884074350405898,"157":0.0072860965808150945,"158":0.008529595620006079,"159":-0.004539618294009637,"160":-0.003808302404845067,"161":0.017688929966972494,"162":-0.04748930492138236,"163":-0.000547980033458961,"164":0.010738507130968425,"165":0.05107551340166286,"166":-0.009013946348275716,"167":-0.007116999877775683,"168":0.02207644567275952,"169":0.06920894012594425,"170":-0.029151732072174676,"171":0.012276153779229025,"172":0.008565179368473676,"173":0.019927384619676757,"174":0.04215370493584316,"175":0.011247866834286175,"176":-0.044837717981014595,"177":0.013314323662192224,"178":-0.050241684755196823,"179":0.024742290862273957,"180":-0.011184828669757821,"181":-0.03937530910254046,"182":-0.029511674730980663,"183":0.017330339617789924,"184":-0.012469080267898036,"185":0.03167561088305878,"186":-0.019166075882515093,"187":0.02152189490279275,"188":-0.0065204726081969505,"189":0.04856216452825777,"190":0.0060059515365075145,"191":0.00700123097314668,"192":0.011125163521219656,"193":0.0017355760672153112,"194":0.0167445658026493,"195":-0.012665894558805717,"196":-0.0019025742998676266,"197":0.05333456419909512,"198":-0.0030220185130499103,"199":-0.006919592485771429,"200":0.059206886317110595,"201":0.008589047040705823,"202":0.010217257317549001,"203":0.010023826485375417,"204":-0.022256012717047646,"205":0.02583471408303442,"206":-0.03783348706536437,"207":-0.008641948499132081,"208":-0.012467010102425548,"209":-0.007489951183168255,"210":-0.03601083510843434,"211":0.0051098607186023945,"212":-0.015783400127408472,"213":0.0007754199260802001,"214":-0.013322913056310108,"215":0.004506388657384514,"216":0.013461179132601895,"217":-0.0009397558557990059,"218":-0.011142925460190904,"219":0.001358031331013725,"220":0.001835597003938007,"221":-0.012737573232988639,"222":0.027497999245826927,"223":-0.006333867703307402,"224":0.019036835376527325,"225":0.015277696581056452,"226":0.01861256383006428,"227":0.016056225216529694,"228":0.06770364088432253,"229":0.024773043049958886,"230":0.004521975523214467,"231":0.01456224657728393,"232":-0.001507598977588022,"233":0.005971043864992692,"234":-0.02190597503856799,"235":-0.01291682133901231,"236":-0.02976148507091001,"237":-0.018848068066928875,"238":-0.030914212835774876,"239":0.031058099067719554,"240":-0.046305549152323655,"241":0.00717655660879933,"242":-0.005900302658875743,"243":0.03738911981707045,"244":0.005426601141854294,"245":0.015194121082262205,"246":-0.006899785636853042,"247":-0.005648879370494707,"248":0.04486612450077115,"249":0.007607937663765619,"250":0.022902573132939703,"251":-0.018746473066509083,"252":-0.009957732004017925,"253":0.01960424744982559,"254":0.028023303279242597,"255":0.04995897479091167,"256":0.07433468326846536,"257":-0.03185996141872074,"258":0.008353168700317543,"259":-0.02630533079925633,"260":-0.003759337125775378,"261":0.016130131319543623,"262":0.007850578308780703,"263":0.020230917173748707,"264":0.022045395017840645,"265":0.005609593112326331,"266":0.04401321211200185,"267":-0.024546884868285802,"268":0.001818338516591046,"269":0.027485023221645533,"270":-0.0630796222635406,"271":0.011211247225016211,"272":-0.017391418934167784,"273":0.01789595236932871,"274":0.020633800040304982,"275":0.021488317273554713,"276":0.04707563790840052,"277":0.03712219273063376,"278":0.0009633369697086973,"279":-0.018709449800423737,"280":-0.03227537580759438,"281":0.005148891082587064,"282":0.03843825520896325,"283":0.16078746096253657,"284":0.06741681775646999,"285":-0.007132921143335203,"286":0.007922017251115809,"287":0.017605465779714762,"288":0.011233591832040025,"289":0.0063463169869255095,"290":0.19032840271253182,"291":0.047404564739456916,"292":-0.01858241638453657,"293":0.025174604510828664,"294":0.01916551463745562,"295":-0.040070308036049544,"296":0.06315771162076456,"297":0.3165550504407947,"298":0.06681424677470524,"299":-0.007454756457263114,"300":-0.027059136608247915,"301":0.00317146769630076,"302":-0.007429921247683971,"303":-0.013852323393107786,"304":0.38420810682515627,"305":-0.11394086068682692,"306":-0.03177880649972325,"307":-0.0055800628320378,"308":0.0056570107224729925,"309":0.0000823414483120942,"310":0.00807183581862034,"311":0.4016163710832256,"312":-0.1753387183214273,"313":0.01764466472430437,"314":-0.006424695372286901,"315":-0.02536809000153282,"316":-0.006142720532443017,"317":-0.01301681166234182,"318":0.35135959237629033,"319":-0.22088251873324705,"320":-0.02257928992412911,"321":0.00933840549712351,"322":-0.006666125126906534,"323":-0.02478441090251377,"324":-0.020846157548430312,"325":0.31994397909532,"326":-0.27667635419431696,"327":-0.03616596247305006,"328":0.004663499213309654,"329":-0.03353918473026562,"330":-0.009989675984859607,"331":0.04155467046822578,"332":0.14937206091123453,"333":-0.13938787395596972,"334":-0.06573575203851906,"335":-0.011031232742208527,"336":0.008212412202612375,"337":0.02184307449363209,"338":-0.007815945139164743,"339":-0.00024517249773767577,"340":-0.23114217781322602,"341":-0.013349019512359863,"342":0.01770275867038432,"343":0.009834822630459022,"344":-0.024249237004137378,"345":-0.06699182006700097,"346":0.00419044359747062,"347":-0.2504781116108505,"348":-0.017057336087103987,"349":0.006622113304604369,"350":0.002755598269976848,"351":-0.027356225033106755,"352":0.00897217554807841,"353":2.0247648569377232,"354":-0.23147035534533375,"355":-0.027878626248891484,"356":-0.002627383264987951,"357":0.008271633024402343,"358":0.003618376101525024,"359":-0.017082654288441766,"360":2.0961812472812125,"361":-0.15259759279700108,"362":-0.010441921547758517,"363":-0.0138204730635363,"364":0.006794467906453369,"365":0.04375833572024123,"366":-0.05116300077676193,"367":2.1292620261191972,"368":-0.23679884816674554,"369":-0.018407906968404282,"370":-0.019467003716014782,"371":0.0026184747434306443,"372":-0.00985378886900512,"373":-0.07274962203907989,"374":2.1970600753329257,"375":-0.4036236585059134,"376":-0.019348941021552515,"377":0.04208569724162215,"378":-0.059271073433057625,"379":-0.018924533487717568,"380":0.0163702812608488,"381":0.02648635431359851,"382":-0.08618758885629572,"383":0.03922053138978802,"384":0.021280017683179983,"385":0.021749089030722403,"386":0.026829224556053688,"387":-0.05355002977393353,"388":0.06348890449274155,"389":-0.06843885800311576,"390":0.010175605170228754,"391":-0.022137640175160574,"392":0.018348466182892303,"393":-0.017053947201050253,"394":0.006209425895147697,"395":-0.08259611157204279,"396":-0.044059455561541436,"397":0.011497822174999176,"398":-0.0019678356395687532,"399":0.04132551401799377,"400":-0.0006094651052886732,"401":0.0229173723346985,"402":0.05130962854141769,"403":0.1044151929100045,"404":0.003674213007353709,"405":0.01708233045427064,"406":-0.055831676487606424,"407":-0.023287669746510076,"408":0.008910021775765846,"409":0.04439912266091329,"410":-0.000641577565712315,"411":-0.003446231105491856,"412":0.031554131047143594,"413":0.017743046411801335,"414":0.025843304857142296,"415":0.00711436897400443,"416":-0.023969623990131764,"417":-0.012654742672268003,"418":0.015803969531639914,"419":-0.025326115829473823}},{"sx":1,"sy":1,"depth":420,"w":{"0":-0.10344676988008275,"1":0.006375089461955575,"2":0.0003016666113368501,"3":-0.05422800183640252,"4":-0.06408500347141377,"5":-0.03656515327323422,"6":0.011044703346460363,"7":-0.056296596699582556,"8":-0.04696626914232809,"9":-0.04611986685581862,"10":-0.06401172811185195,"11":-0.11841628452668958,"12":0.028732174132714165,"13":0.04388811832683102,"14":0.07974506543924158,"15":-0.05399382858715139,"16":0.055418255758426106,"17":-0.06558668345698734,"18":0.05615796566750964,"19":-0.046320949832132904,"20":-0.036738487882311856,"21":-0.038879965153854786,"22":0.027548804098265156,"23":-0.07592559148254431,"24":-0.04540793480021966,"25":0.021452429761012852,"26":0.0828890191380466,"27":-0.042545097104490726,"28":-0.062255929767264205,"29":-0.005025300366950373,"30":0.0260000647067687,"31":-0.0013225786806915739,"32":0.05031034048095573,"33":0.006956538291639504,"34":0.015162296962151767,"35":-0.0538004835154792,"36":0.022149738248684065,"37":-0.013430339314034796,"38":-0.0429314151139197,"39":-0.0017348460872894014,"40":-0.07696109043253384,"41":0.03606940912336021,"42":-0.07694236948988742,"43":-0.07113126080083289,"44":-0.01094697603578363,"45":-0.004835031352285805,"46":-0.04317535103853959,"47":-0.014346763427897265,"48":0.05654990774080395,"49":0.033235896153348043,"50":-0.02167412786698141,"51":-0.07699253620631606,"52":0.07545072037156916,"53":-0.005039009129264305,"54":0.03311822926533005,"55":-0.04693696093774254,"56":-0.04106429422492612,"57":0.010858773669728044,"58":-0.12064827319354829,"59":0.02073698444892166,"60":0.018199375397968003,"61":-0.006400589419981,"62":-0.10842178660299993,"63":-0.029103002843997437,"64":0.026269364633058023,"65":0.012932514473798127,"66":-0.04748775830627254,"67":0.07533641222630606,"68":-0.03960226780047564,"69":-0.02286815508641231,"70":0.06820955929220548,"71":-0.03827398573211999,"72":0.01599611581554773,"73":0.014136570817075847,"74":0.02744324052881775,"75":-0.05300175964233346,"76":0.02256265101871048,"77":-0.01572853012069479,"78":-0.043887844408846015,"79":-0.061952437274592105,"80":0.005948217481272842,"81":-0.001264176914283869,"82":-0.0239895548692488,"83":0.028068052423708464,"84":-0.06138826235471804,"85":-0.002456418498524341,"86":-0.0006681120236203124,"87":-0.03065738460938826,"88":-0.013392388771415933,"89":0.04659249957950296,"90":0.05221483666335445,"91":0.021406539211172724,"92":-0.04933594707885569,"93":-0.020418117176141466,"94":0.042963109963282266,"95":0.06153106691861141,"96":-0.008432391757893046,"97":-0.00835249142803846,"98":0.006609727827109129,"99":0.02699550537905417,"100":0.0269626099427496,"101":-0.044481863941794944,"102":-0.0014652141801573596,"103":0.02027915806013006,"104":-0.021843526725621946,"105":-0.04590032294659644,"106":0.03383458896989859,"107":0.002239732387922202,"108":-0.03221441889694755,"109":-0.056204537863719414,"110":0.017752967454815218,"111":0.03332856538633405,"112":-0.06682801991074541,"113":-0.04398591034877375,"114":-0.029032145585603075,"115":-0.040450583514464906,"116":-0.03442926052179197,"117":0.042485481861952605,"118":-0.022086456006550827,"119":-0.04582807485679387,"120":-0.06056608121251231,"121":-0.01069174144558301,"122":-0.0004019182013407795,"123":-0.029961535339127977,"124":0.019473916873459028,"125":0.026422628698202773,"126":-0.05525126392006986,"127":-0.010569279675982689,"128":0.042238720832444475,"129":-0.09806646717154836,"130":0.05336824851609401,"131":0.037866970109130225,"132":-0.004941388969924193,"133":-0.008805300008053277,"134":-0.02549871621145392,"135":-0.06359886499077967,"136":0.021730153951246868,"137":-0.029769873760101172,"138":0.022960745655607375,"139":0.032171475312569794,"140":0.014924918167396804,"141":0.02908745841657552,"142":0.021016657797880027,"143":-0.041492040884636504,"144":-0.053556369098147705,"145":-0.061743566331793454,"146":0.015613792395597815,"147":0.06159100019538456,"148":-0.06755687329704507,"149":-0.0057883687231389015,"150":0.014826286947378368,"151":-0.048671433774483595,"152":0.008308569465967272,"153":0.06065764997365018,"154":-0.08711861178611074,"155":-0.05024402357345284,"156":0.004826605685081365,"157":-0.07563061813550817,"158":0.059401832669216316,"159":-0.04385933645603948,"160":-0.02232069861146792,"161":0.00794681696645634,"162":-0.00847371780383371,"163":-0.03071555128743063,"164":-0.03405122464956051,"165":0.027831899546544445,"166":-0.005848750724638658,"167":-0.046592593003108376,"168":-0.043053958798796255,"169":-0.04846253151931131,"170":-0.05155609031253653,"171":0.05200601285065603,"172":0.03445173846534462,"173":-0.05003634700776941,"174":0.03711991931536149,"175":-0.030877501438860987,"176":-0.007556290977231277,"177":0.01111407045757638,"178":0.0033720416267759086,"179":-0.10446241746914778,"180":0.000408680401234428,"181":0.017640425958268546,"182":-0.047314808642883247,"183":-0.03842155130494983,"184":-0.06112687651045241,"185":-0.06435976580257231,"186":0.02986222140683429,"187":0.037328917145422,"188":0.0183029015819359,"189":0.03687937962532597,"190":-0.05157174782322276,"191":-0.01923183216064393,"192":-0.06986477485249007,"193":0.001567846912432988,"194":0.0006522049961061031,"195":-0.04577955867311113,"196":0.01973937378389369,"197":-0.060621771629107826,"198":-0.02830775925878762,"199":-0.006520192476739266,"200":0.058146924193625625,"201":0.014564177563762576,"202":0.01215596417331583,"203":-0.12457265381468122,"204":-0.014766002590242277,"205":0.015168528612631882,"206":0.0004735620110591498,"207":-0.08931892780079535,"208":-0.011304061640062054,"209":0.01808824357419757,"210":-0.019007724947272202,"211":0.024522360053591624,"212":-0.058246011162245426,"213":-0.026783799743478002,"214":-0.025183755136362375,"215":-0.01645364613763646,"216":0.03909519675266993,"217":-0.03813960912969769,"218":0.11685564769202451,"219":0.03563764869675722,"220":-0.03518887596238839,"221":-0.03498676670940579,"222":-0.013861595408334194,"223":-0.02841116853235914,"224":-0.126753503676346,"225":-0.007106624560064446,"226":-0.06058668139050876,"227":0.023593609492276027,"228":0.012170891485900582,"229":0.043551901294280645,"230":0.08516341357786372,"231":0.02396269468069471,"232":0.011014823455961038,"233":-0.014974054981439345,"234":-0.0028892022486980556,"235":-0.02837412494935765,"236":-0.045935652835546785,"237":-0.02259072796024201,"238":-0.11369339477281973,"239":0.021660249323636156,"240":-0.06725478299269098,"241":0.03473012932836613,"242":-0.007907024675069792,"243":0.0031632975522981705,"244":0.010486268657328476,"245":-0.01768395194684791,"246":0.06354524760821736,"247":0.015427887628204068,"248":0.06393942025848633,"249":0.01939665585912123,"250":-0.0012476938469594334,"251":0.03003101374991416,"252":0.012038169823102041,"253":-0.027118544055462362,"254":-0.014134045934753708,"255":0.01382705145881184,"256":0.03508400782862071,"257":-0.001821623902971471,"258":-0.038187179552234204,"259":-0.06240081431142263,"260":0.0931936117509982,"261":0.012814310396990542,"262":0.03839114967893975,"263":-0.04871605025965925,"264":0.03150086651206032,"265":-0.004001171293585801,"266":0.008522450860191485,"267":0.08372876649397376,"268":0.006913247277891252,"269":0.058530024290873936,"270":0.0516164665836329,"271":0.003506493507903004,"272":-0.052148342754570975,"273":-0.019227300252946458,"274":0.04151889583096159,"275":-0.032900081317411366,"276":0.1383650868746312,"277":0.15299995805255295,"278":-0.06135093721679155,"279":0.01337314396103463,"280":-0.01780921433892346,"281":-0.048029770446718086,"282":0.0704915325011594,"283":0.015146971546938276,"284":0.03068700483935966,"285":-0.06374446537094089,"286":-0.011882507061663808,"287":0.04120982542137798,"288":-0.01718828839269521,"289":0.02064203879523784,"290":0.13045588249520532,"291":0.0029404152690562365,"292":-0.005716155326305871,"293":0.0326381689518929,"294":-0.06764696867194218,"295":0.0057252004503153195,"296":0.017514192747659838,"297":0.1234168666984018,"298":0.1386718972025881,"299":0.007223320746829763,"300":-0.0784084217131941,"301":0.03682660211631382,"302":0.0026533592239404574,"303":-0.018539413332661892,"304":0.24636547859835956,"305":0.11103964480085891,"306":-0.051792047229061625,"307":-0.07927431819182451,"308":-0.015774976517274965,"309":-0.08571355852958042,"310":-0.022556231951062804,"311":0.23325644855393285,"312":0.12930517719079526,"313":-0.015140827213707717,"314":0.03925400022208787,"315":-0.027369911627397447,"316":-0.0777100868151197,"317":-0.02303379414989745,"318":0.2486262900736067,"319":0.08675021481921423,"320":0.02159440648022091,"321":0.06269608423473842,"322":-0.040027064128045464,"323":0.00805239110089697,"324":-0.051841772897647256,"325":0.18304006383731802,"326":0.025285142676392203,"327":-0.07310315609172711,"328":-0.0013216619238479472,"329":-0.10697388191109852,"330":-0.0021234609021176447,"331":-0.06179865324895845,"332":-0.03335672917970052,"333":0.1278971917659944,"334":-0.04204911563125525,"335":-0.010510537886974612,"336":0.01949138655269607,"337":-0.028813959139522807,"338":0.04215360759872172,"339":-0.07329056018933387,"340":0.09901238520460597,"341":-0.06767203277590145,"342":-0.03144071845614495,"343":-0.011800720869351076,"344":-0.07984343478893258,"345":-0.06817831196864892,"346":-0.02428132609787312,"347":0.11020453159042606,"348":-0.0023239005831104643,"349":-0.015718042099789234,"350":-0.026732863566107753,"351":0.02186311566434359,"352":-0.03327199202864821,"353":-0.127414218679753,"354":-0.0019391688833215344,"355":0.07621299708413361,"356":0.04097878260745734,"357":-0.03248172480285139,"358":0.02402748646121619,"359":-0.07146555072128957,"360":-0.0056936258624817725,"361":0.020568148110168133,"362":-0.11601915810663707,"363":0.049726455481365325,"364":0.003604631550038746,"365":-0.014181599153650226,"366":-0.08119311650107915,"367":-0.03314107026872674,"368":0.05508357225581933,"369":-0.12012672983887893,"370":-0.011365164733259837,"371":-0.0060181958220881775,"372":0.0038274434895815396,"373":0.006361144961469657,"374":-0.03703894054876302,"375":-0.006080055541589605,"376":0.09199578811353841,"377":0.046954274309522065,"378":-0.010674814308006908,"379":0.013406658658410342,"380":-0.044224299556554256,"381":-0.05906623340495096,"382":0.0579047634117274,"383":-0.05833760133845211,"384":-0.01829075618929736,"385":-0.05611392385658729,"386":0.009969933341920376,"387":-0.08595060151287393,"388":-0.03708235918481932,"389":0.04946885336198061,"390":0.025307442818519484,"391":-0.03321324437297236,"392":0.06573717086236361,"393":-0.0039053504371780808,"394":-0.03618460348497458,"395":-0.05737941384188886,"396":0.02424400163415506,"397":0.03992071709748768,"398":-0.02264810593400354,"399":-0.04677584700133865,"400":0.008257603167765786,"401":0.012186901915304216,"402":-0.036035727445957,"403":-0.009666916190386175,"404":0.03367365299394349,"405":-0.02400515252401624,"406":0.02191588147629543,"407":0.028899081176403496,"408":-0.040813353321935184,"409":0.026113060458600117,"410":0.06696281260579133,"411":-0.06474224704401206,"412":-0.042207127833318085,"413":-0.035489024440234496,"414":0.04045274939438034,"415":-0.07195475741142429,"416":0.01976260134221635,"417":-0.048380486937491314,"418":0.07833547852711073,"419":-0.023318797140229636}},{"sx":1,"sy":1,"depth":420,"w":{"0":0.0076080486138542375,"1":0.0309435354125003,"2":-0.0162952826729842,"3":-0.010144727252377922,"4":0.03168999508289272,"5":-0.020963004808346453,"6":-0.07464354895894675,"7":-0.030440634003794945,"8":0.04452434257048215,"9":0.04571289836039931,"10":-0.059708593863480965,"11":0.006958880299341093,"12":0.023854283204616248,"13":0.01987457495144766,"14":0.029791115439548585,"15":0.06711837700162868,"16":-0.018559102905621513,"17":0.06726695254648422,"18":-0.0018216505425082748,"19":-0.009280055241777935,"20":-0.0011773000179824736,"21":0.06524016519026399,"22":-0.0004333775602074613,"23":0.035303160223390403,"24":0.047252455998790646,"25":0.011150479545829319,"26":0.09468293620082897,"27":-0.051259330366722484,"28":-0.009536163817960852,"29":0.0133485271816975,"30":-0.028726722431712554,"31":0.04868544748704845,"32":0.0007326627586437548,"33":0.06123607706503821,"34":0.0040103476685072305,"35":0.07106129990773473,"36":0.07903885150351132,"37":0.016294548010474447,"38":-0.06311546020180811,"39":-0.04833489088832304,"40":0.04289833937527617,"41":0.0560062461054609,"42":0.01863314991536897,"43":-0.017387346676073202,"44":0.05620295846738575,"45":-0.05673043582672904,"46":-0.011282769161079875,"47":-0.0937415477994337,"48":0.014582097640658003,"49":0.011045232501648223,"50":0.05207386350682957,"51":-0.09568977143301503,"52":-0.043419731307563464,"53":-0.051043259150477804,"54":0.030629725923495162,"55":-0.016431250989985,"56":-0.04205762772307677,"57":0.033470253357931176,"58":0.014288232221823818,"59":-0.053141807368656285,"60":0.050726756192832984,"61":0.04228172613257887,"62":-0.05543867803068581,"63":0.0011260313156993772,"64":-0.005094266398965091,"65":0.0019831285556314924,"66":0.03332434564012355,"67":-0.006836610089856809,"68":-0.006157667692993961,"69":0.02691694001009877,"70":0.025795786214459264,"71":-0.0441847707669404,"72":0.041305410873640896,"73":0.019409715174425954,"74":-0.012133540545331048,"75":-0.061102824963462934,"76":0.06009473450369648,"77":0.05016947576025197,"78":-0.0014159287219679677,"79":0.023782846110799845,"80":0.019935712684387784,"81":-0.02168122703220649,"82":0.008710961792819879,"83":-0.01974433856086905,"84":-0.03402391347969193,"85":-0.027664585302708967,"86":0.0796009051898851,"87":0.0361088101185545,"88":0.08842702815610903,"89":0.019563895074159926,"90":-0.005281699640896224,"91":-0.07014685270409608,"92":0.09102958519477594,"93":0.04338096913547869,"94":-0.030864942317309928,"95":0.06920648783567745,"96":0.0540132641265773,"97":0.03820216529345191,"98":0.007216575612764202,"99":-0.00746878281667983,"100":0.07145219348525189,"101":-0.04081231685157692,"102":-0.1019045282893207,"103":-0.036818414898397794,"104":0.03198806240352329,"105":0.02093133787323007,"106":-0.04542746524799352,"107":0.009212884863311342,"108":-0.07021555876629204,"109":-0.00808024452836408,"110":0.03276886746897001,"111":-0.04388309047658168,"112":-0.018999422066290104,"113":0.02539949696581026,"114":-0.07928427292885741,"115":-0.025258632796355464,"116":-0.003114436225574465,"117":-0.05556077851085264,"118":0.049659039049689255,"119":0.045817457098031346,"120":0.01915122550073111,"121":-0.01587590582272458,"122":-0.014839977637295552,"123":0.007817923893387714,"124":-0.006872251535332033,"125":0.0163161571701891,"126":0.012748013558047094,"127":0.016017833555961748,"128":0.016985502894472777,"129":0.009295011214048228,"130":0.046240119798809556,"131":0.036367138379465404,"132":0.028299770351681502,"133":-0.02271943912055609,"134":0.05797293683415857,"135":-0.04140739438221665,"136":0.032174444171967014,"137":0.010730415628457399,"138":0.008910229582113252,"139":0.0608337740688438,"140":0.005632569933617361,"141":0.03990273005754854,"142":-0.027768060079689773,"143":0.011672477499696203,"144":-0.05567571427294029,"145":0.0215955612664654,"146":-0.08415750059740551,"147":0.05457790077229915,"148":-0.048084753364300015,"149":-0.020958086149656396,"150":-0.0006026529182882153,"151":-0.02336255425396765,"152":-0.0020290678705428347,"153":0.051878022138007275,"154":0.09041548951072954,"155":0.12250662419203288,"156":-0.034549205834228484,"157":-0.03031302380515589,"158":-0.005296348687184568,"159":-0.029645621749280107,"160":-0.019815410403443423,"161":0.001829526396687561,"162":0.016846819602672057,"163":0.012257423950594176,"164":-0.05931767080107679,"165":-0.0009460346958420961,"166":0.030243294990120833,"167":0.09431502809282499,"168":-0.01672037634261807,"169":0.0006632477494606249,"170":0.07110869863875721,"171":-0.052967073301585205,"172":-0.03443750507839161,"173":0.07077556558665797,"174":0.024260947199082714,"175":0.0000691628039710986,"176":-0.037353154360204886,"177":-0.04676318592024582,"178":-0.07570118704672898,"179":-0.019496385845239543,"180":0.11201788628687774,"181":0.03801129080895023,"182":-0.023124599843518855,"183":-0.036574867129626584,"184":-0.02637576321915784,"185":0.04973750760740377,"186":0.01300279038286632,"187":0.009433520839803427,"188":0.007404444942487983,"189":-0.04419329694176148,"190":-0.01791359605236804,"191":0.07293253711742412,"192":-0.0009912222831691335,"193":-0.03800004156914301,"194":-0.006994371781647192,"195":0.012490961105714956,"196":0.030941973663316337,"197":0.018199388127769802,"198":0.04417598536516541,"199":-0.048526486190879264,"200":0.04181939657250215,"201":-0.011439031016122222,"202":0.010123474162847116,"203":0.05527918265174514,"204":-0.022497387674061856,"205":0.011271269179867292,"206":-0.009360653597720009,"207":-0.017398705592856948,"208":-0.08510979866299993,"209":-0.05039571500910835,"210":0.05512986420202832,"211":0.06062238042618665,"212":-0.0010427003443296153,"213":-0.0005526057701835153,"214":0.013512976012468052,"215":-0.020277531082670004,"216":-0.03203933490242979,"217":-0.05897839587514163,"218":-0.04136959681773666,"219":-0.018160451946996933,"220":-0.04366829766491566,"221":-0.06477135611780163,"222":-0.035830773546669484,"223":-0.0034998856433229764,"224":0.04844001204675493,"225":0.015823273800446052,"226":-0.09228553047872098,"227":-0.0912539436980933,"228":0.007503195294972481,"229":0.03954210754773895,"230":-0.07703556067029652,"231":0.04847863173364579,"232":-0.005109911627928312,"233":0.035393123551330744,"234":-0.05247511248176556,"235":-0.04667197852510761,"236":-0.042776044190245374,"237":0.05014576484890292,"238":0.022192818235478945,"239":0.04684375710451973,"240":-0.07624945887634112,"241":-0.09551863501294372,"242":0.03759052016060311,"243":0.010135519709030637,"244":-0.08279275233093966,"245":-0.02585580869535321,"246":0.07564537765019273,"247":0.09961601969400086,"248":-0.05640373275859189,"249":0.03176274561826075,"250":-0.08397923591709396,"251":-0.13440977998546474,"252":0.0799713970262617,"253":-0.10834941958859604,"254":0.02471874317849055,"255":-0.06021211534936934,"256":-0.03961618428072463,"257":0.028835511601486657,"258":0.017971533355740487,"259":-0.023703389016678372,"260":0.06094358813822803,"261":0.002842851616611684,"262":0.03906057341180109,"263":0.003335992186940964,"264":0.010370867399850109,"265":-0.09430175391407956,"266":-0.0220953305763248,"267":-0.05516866609239554,"268":-0.07319980645401504,"269":-0.13303921037710803,"270":-0.042771674576331506,"271":0.027111271723346562,"272":-0.008381169728692585,"273":0.0065404114118214444,"274":0.028170001549525526,"275":-0.040297206500108804,"276":-0.09489299660856444,"277":0.038502170220357824,"278":-0.056157128834259475,"279":-0.023871680754101697,"280":-0.008580202106996424,"281":-0.000873016209462989,"282":0.08001947963503647,"283":-0.08939812296705693,"284":-0.005786356414336576,"285":0.08345557541794726,"286":0.09130335215288239,"287":0.007867259962316927,"288":-0.040760438160220736,"289":0.03253307001995456,"290":-0.033225907525256004,"291":0.05007573789720508,"292":0.01316534819814308,"293":0.06169169445646689,"294":0.03241473119347653,"295":-0.05060819335364859,"296":0.02721333139377836,"297":-0.03280756218010526,"298":0.04201932457976132,"299":-0.019376937848473982,"300":-0.03113092450074679,"301":0.017454017515102085,"302":-0.004855780696357247,"303":0.039668519605241835,"304":-0.01734050797919778,"305":-0.005815245919721428,"306":-0.015844489639775455,"307":0.0166366447205121,"308":-0.0832635043879723,"309":0.02115537712736147,"310":-0.05297265093469676,"311":-0.004108906102364041,"312":-0.17957246384223496,"313":0.07653693295269123,"314":0.05563330398684559,"315":0.008065204611561275,"316":-0.022203149184008817,"317":-0.015225184429915065,"318":-0.106698570577921,"319":-0.11235047890545945,"320":-0.06208735928342094,"321":0.0011229686686097117,"322":0.041166986991800894,"323":-0.011323031143127106,"324":-0.051862755891460756,"325":0.0796815409680207,"326":-0.1283659743611115,"327":0.03693745069538107,"328":0.0676729787167069,"329":0.01504059444778708,"330":-0.0325368328641819,"331":-0.018864080850172063,"332":0.12156449782540531,"333":-0.03405117857432046,"334":-0.005420077321956465,"335":0.008797508365386581,"336":0.01820377817498654,"337":-0.004786195496221033,"338":-0.07979077096334526,"339":0.19697256914783132,"340":-0.03726500242575616,"341":-0.03439208395026426,"342":-0.01713905207270907,"343":0.0024047331094423094,"344":-0.04069028426580182,"345":-0.128413864922975,"346":0.16889385260205542,"347":-0.03557009025748819,"348":-0.001216885187639554,"349":-0.025091238669973637,"350":-0.0046100302774879694,"351":0.0010118951707885542,"352":-0.04751988255072474,"353":-0.5002379940482159,"354":-0.04995915568950891,"355":0.042396853295730924,"356":-0.06311718080316252,"357":-0.004298300528695998,"358":-0.013864336489103785,"359":-0.059896844037917146,"360":-0.5093074928125506,"361":0.07843084243325028,"362":0.018547783326574047,"363":0.0050384990193509584,"364":0.06550264771172895,"365":0.02899657306784193,"366":0.05465013943642976,"367":-0.5660104579856924,"368":-0.014981838445648222,"369":-0.008767843773697917,"370":-0.05526931304743057,"371":-0.055945970573223605,"372":0.015032549444315353,"373":-0.021074867522681694,"374":-0.579274623788329,"375":-0.02419712925730167,"376":-0.07347699845112417,"377":0.04305323010878919,"378":-0.0256405547937864,"379":0.10770641760792096,"380":-0.09647193675224225,"381":0.20753270934160642,"382":-0.06716460751847536,"383":0.006291086866878027,"384":0.0074198892588744556,"385":0.002394214884883675,"386":0.037932638771830125,"387":-0.030098917556022627,"388":0.18218936221887025,"389":0.011776522383749734,"390":-0.06665766066626458,"391":-0.02158127591658389,"392":0.007003294534315104,"393":0.024355061138557205,"394":-0.04763270751291663,"395":0.13383456365092813,"396":-0.0068871607799643325,"397":0.018896726928062817,"398":-0.031023966991613788,"399":0.039475170130492024,"400":-0.052059844867810554,"401":0.005181771853838508,"402":0.1288342111560365,"403":0.01964869729118719,"404":0.015470349956692208,"405":0.004033216044366266,"406":-0.014125575225587104,"407":0.0005299854598474906,"408":0.014908631877699984,"409":0.05062369923860794,"410":-0.059053161091427345,"411":-0.035359068692251236,"412":0.038735952441428224,"413":-0.009547499338901512,"414":-0.037454077408311,"415":0.038141512599474584,"416":0.12223424300808897,"417":-0.027526212277206034,"418":0.053850633188861616,"419":0.017880300563882512}},{"sx":1,"sy":1,"depth":420,"w":{"0":-0.05432457300106856,"1":0.041250979453459354,"2":0.009251222748020052,"3":-0.029905709114905563,"4":-0.08507677165349994,"5":-0.032412837050010274,"6":-0.023991988656669728,"7":-0.003384775746308865,"8":0.02132055619025763,"9":-0.06589977152541909,"10":-0.07436568849941043,"11":0.016828092359027696,"12":0.026607104271462262,"13":0.05153854345688711,"14":-0.007443879429775959,"15":-0.005193146403512228,"16":-0.04086279733535413,"17":-0.02009649501068114,"18":0.014509411110299257,"19":-0.0390557565833693,"20":-0.0010029708099565883,"21":-0.0892210434024783,"22":-0.029313657466193754,"23":0.05597375237222833,"24":0.018051996545200844,"25":0.04263804560331998,"26":-0.06008938450256597,"27":0.0035343259257328615,"28":0.022869903243903863,"29":-0.02824393266299791,"30":-0.033837659556557466,"31":-0.10658338780370093,"32":-0.0012693671710962162,"33":-0.05920983015599583,"34":0.024499391778726166,"35":0.03244207771336386,"36":-0.05101003778102182,"37":-0.0034603344539781695,"38":0.044789711407704574,"39":0.08270829374622006,"40":0.019320708879024675,"41":-0.052902748087061004,"42":0.048335208440184255,"43":-0.043716615918075415,"44":0.06527535303704163,"45":0.009746028631993529,"46":0.02285167861147726,"47":-0.048074669808689574,"48":0.033598640135286455,"49":0.028458687404016112,"50":-0.0516737425969102,"51":-0.05825569401107581,"52":0.07015844990905867,"53":-0.008255659956186472,"54":0.12439610586879706,"55":0.0004879685453845054,"56":0.060335140712482575,"57":0.02178804007797,"58":-0.06697993836873527,"59":0.10725328984031626,"60":0.06045770556773871,"61":0.05442603358806855,"62":-0.03880414396232743,"63":0.07380513740286293,"64":0.052581353990701345,"65":-0.01583925333302536,"66":-0.06249487442534001,"67":-0.04565160863863523,"68":-0.15891290390294466,"69":0.0005982098134652257,"70":0.0379184348731638,"71":0.06398413114626081,"72":-0.10058164998645659,"73":-0.06730415271589651,"74":-0.024203717970938343,"75":0.01163273351027517,"76":-0.04071228786002337,"77":0.06631154567740298,"78":0.04836857486650659,"79":0.048810794968691944,"80":-0.012630873427123088,"81":-0.03597717766238685,"82":-0.0796068493597968,"83":-0.02598708585993992,"84":-0.008211470878980972,"85":0.031895263837699514,"86":-0.04407951179230604,"87":-0.04866105094376708,"88":0.01730097063007536,"89":0.0055104249623618646,"90":0.045965087972758806,"91":-0.0029557129493773776,"92":0.05399876405972483,"93":-0.12382182124423956,"94":0.05583500724286463,"95":0.059954149396878285,"96":0.02769693911799012,"97":0.0009882320784035778,"98":-0.026152127717702044,"99":0.056224352231940875,"100":-0.05607978525920005,"101":-0.09261204238992028,"102":0.01652753798605046,"103":0.0041486759211990494,"104":-0.03769019906616596,"105":0.04086539355207923,"106":-0.051046130436366285,"107":-0.01999461816123472,"108":0.023373400194116913,"109":0.07588599118372308,"110":0.054259659951739286,"111":-0.08578700874647906,"112":0.0008354336259455106,"113":0.03743709834475451,"114":0.01402360228690513,"115":-0.0467874639483757,"116":0.03910211086000075,"117":0.0037316152459761754,"118":0.05527538746379198,"119":0.007193133188105051,"120":0.01613535500122498,"121":-0.11424425003296826,"122":0.027509447255017968,"123":0.012631108034966435,"124":0.05669576171574592,"125":0.008559166933830492,"126":0.07107955525867207,"127":-0.04761524558690343,"128":0.0036090908853523944,"129":-0.0608237202108658,"130":-0.006851936476581729,"131":-0.0005239000545495013,"132":-0.013009074528744268,"133":-0.019483411459528036,"134":-0.05775068349638405,"135":-0.06650624680116847,"136":-0.05126707736154765,"137":-0.07008845256954792,"138":0.01320058285879973,"139":0.02121740223344373,"140":-0.04693574865869302,"141":-0.044031581731077296,"142":-0.018414070250804857,"143":0.02917224761708254,"144":0.03317592498926198,"145":-0.04938432418626517,"146":-0.040109937999838495,"147":0.005175398301479879,"148":-0.03902537026367173,"149":-0.09307467171750629,"150":-0.031235568488374464,"151":0.018516037712550584,"152":-0.02312473770986578,"153":0.03453848188811427,"154":0.01682764377039792,"155":-0.012966313869292066,"156":-0.035338667433647754,"157":-0.012653936765880527,"158":0.023345480660323274,"159":0.10540675058446462,"160":0.025506154975713947,"161":-0.018380668932279645,"162":-0.06395849790741388,"163":0.0029118014475422735,"164":0.048747719463939174,"165":0.12346551555495845,"166":0.0225393588355581,"167":0.06339424328155371,"168":-0.08613125152084204,"169":0.01818083678422732,"170":0.03261256725851531,"171":0.06864926296607635,"172":-0.022312770841075674,"173":0.0815073687120834,"174":-0.06592483452297739,"175":0.07330253496983016,"176":-0.06432187551660438,"177":-0.0599694040214337,"178":0.02753374299350989,"179":-0.03413911410687787,"180":0.016272064379566943,"181":0.07357581329781933,"182":0.017549092771664533,"183":-0.01777217779235709,"184":0.04154254342423255,"185":0.042420217024307094,"186":0.04941635855877365,"187":-0.015296195978349495,"188":0.12135322729623571,"189":0.04663315758250129,"190":0.13850373985332357,"191":-0.058910900128434154,"192":0.063159940554694,"193":0.0181160111527431,"194":0.02584351049354015,"195":-0.02375886799635717,"196":0.008928296191724793,"197":-0.05064618514811593,"198":0.006771501013513834,"199":0.01804883067618784,"200":0.03569624984106595,"201":0.033316072874621544,"202":0.024994142494540114,"203":-0.05406378258480063,"204":-0.014734708274839893,"205":0.023131605955079473,"206":0.05217066175969464,"207":0.0581536711350116,"208":-0.01585866265468094,"209":0.004069427841070285,"210":-0.0005213989458247728,"211":0.06012056137859025,"212":0.03769255603996247,"213":0.03393186380554807,"214":-0.04922231466119481,"215":-0.04675197207120011,"216":0.04288338292058514,"217":0.019129799709847378,"218":0.12463779642210675,"219":0.054501607283936826,"220":0.010298893948084612,"221":0.045780996941930586,"222":-0.01622005995889163,"223":-0.06268911998568308,"224":-0.005770812636066937,"225":0.03840279805743333,"226":0.042664892332392984,"227":0.07880187313649349,"228":-0.0029772159003904324,"229":-0.02052378207618366,"230":0.011106226771560947,"231":0.010361428937584884,"232":-0.0036541853220012385,"233":-0.08450461938368913,"234":-0.013348639710495465,"235":0.013205428071701667,"236":0.09045178602288462,"237":-0.040704855943919,"238":0.0021647037451325572,"239":-0.04778214749213792,"240":-0.06057280252702875,"241":0.020565796669744285,"242":-0.050970989766570614,"243":-0.05153062410827411,"244":0.015203092878677228,"245":-0.03904418238667958,"246":0.0075691730902052445,"247":0.05816240606449407,"248":0.013182184277784902,"249":0.07058652892268251,"250":0.013198449433978798,"251":0.03673369040639432,"252":-0.006325591589744889,"253":0.016959137741625507,"254":0.12123464359354222,"255":0.020043722526071284,"256":0.081446671953073,"257":-0.04031727934268833,"258":0.03168872086161421,"259":-0.016809046294896827,"260":-0.025588172315516754,"261":0.0263120719634534,"262":-0.027402151821695548,"263":0.0242174741315741,"264":0.0053633804760359555,"265":-0.023794697157281632,"266":-0.012382597459048388,"267":0.028140863608324396,"268":0.053579152827983,"269":-0.1274004615324905,"270":-0.06870892042550004,"271":-0.11514683903788195,"272":0.08771467897118342,"273":-0.016065712051493083,"274":-0.014210102566540017,"275":0.0713260606574615,"276":-0.07009772369446975,"277":0.03063920304095943,"278":0.07925624785666667,"279":-0.01593621023418072,"280":-0.0031670041914091136,"281":0.022195698773098665,"282":0.08724851377846057,"283":0.016909874418264918,"284":0.01883530119392128,"285":0.021374945501571194,"286":0.040649641876237215,"287":-0.05303457428780826,"288":-0.09849399599562195,"289":0.07135463568096916,"290":-0.06444792157749796,"291":0.0190488722336889,"292":0.041436578474480616,"293":0.03198982755558318,"294":0.08109885071133043,