
//<![CDATA[

// a few things don't have var in front of them - they update already existing variables the game needs
lanesSide = 3;
patchesAhead = 50;
patchesBehind = 10;
trainIterations = 400000;

// the number of other autonomous vehicles controlled by your network
otherAgents = 0; // max of 10

var num_inputs = (lanesSide * 2 + 1) * (patchesAhead + patchesBehind);
var num_actions = 5;
var temporal_window = 0;
var network_size = num_inputs * temporal_window + num_actions * temporal_window + num_inputs;

var layer_defs = [];
    layer_defs.push({
    type: 'input',
    out_sx: 1,
    out_sy: 1,
    out_depth: network_size
});
layer_defs.push({
    type: 'fc',
    num_neurons: 36,
    activation: 'relu'
});
layer_defs.push({
    type: 'fc',
    num_neurons: 24,
    activation: 'tanh'
});
layer_defs.push({
    type: 'fc',
    num_neurons: 24,
    activation: 'tanh'
});
layer_defs.push({
    type: 'fc',
    num_neurons: 24,
    activation: 'tanh'
});
layer_defs.push({
    type: 'regression',
    num_neurons: num_actions
});

var tdtrainer_options = {
    learning_rate: 0.001,
    momentum: 0.0,
    batch_size: 128,
    l2_decay: 0.01
};

var opt = {};
opt.temporal_window = temporal_window;
opt.experience_size = 400000;
opt.start_learn_threshold = 5000;
opt.gamma = 0.98;
opt.learning_steps_total = 10000;
opt.learning_steps_burnin = 1000;
opt.epsilon_min = 0.0;
opt.epsilon_test_time = 0.0;
opt.layer_defs = layer_defs;
opt.tdtrainer_options = tdtrainer_options;

brain = new deepqlearn.Brain(num_inputs, num_actions, opt);

learn = function (state, lastReward) {
brain.backward(lastReward);
var action = brain.forward(state);

draw_net();
draw_stats();

return action;
}

//]]>

/*###########*/
if (brain) {
brain.value_net.fromJSON({"layers":[{"out_depth":420,"out_sx":1,"out_sy":1,"layer_type":"input"},{"out_depth":36,"out_sx":1,"out_sy":1,"layer_type":"fc","num_inputs":420,"l1_decay_mul":0,"l2_decay_mul":1,"filters":[{"sx":1,"sy":1,"depth":420,"w":{"0":-0.059047439203696525,"1":0.08231797351458424,"2":0.03251736711891941,"3":-0.035617264888424933,"4":0.04565781464585002,"5":0.02814732291895645,"6":-0.006088487384094299,"7":-0.12397603114488392,"8":0.006116799866173921,"9":0.00855921379649558,"10":-0.038908273150341205,"11":-0.019629210779225637,"12":-0.030585135876808774,"13":0.07251620417260131,"14":0.0023139470782498174,"15":-0.07363734022662193,"16":0.0432174739585497,"17":0.015669408306797628,"18":0.0077226079693475305,"19":-0.06859379649969159,"20":-0.04513334880618545,"21":-0.0070937018612174055,"22":0.011846351785021424,"23":-0.016759726139305445,"24":-0.014807154030032478,"25":-0.03710074410201083,"26":-0.05820569621285081,"27":-0.07486558733761657,"28":-0.046986848492131535,"29":0.010287368536418049,"30":-0.01954427783473252,"31":-0.1416074523272329,"32":-0.11574516148923622,"33":0.07750922936752275,"34":0.036714910872059636,"35":0.0015895209649658601,"36":0.006502409295059992,"37":-0.04354883333516941,"38":-0.03879394273013425,"39":-0.07837452747848433,"40":0.047283580714381865,"41":0.12203081683418388,"42":0.013769442875202705,"43":0.0014366041616299308,"44":-0.015717601480180893,"45":0.008445121728803384,"46":-0.026516716720539693,"47":0.03417269710156239,"48":0.004468688555327643,"49":-0.03527698985798245,"50":0.01034222676838562,"51":0.0393730414512783,"52":0.04974866119323866,"53":-0.05748787984180441,"54":-0.04537604366289824,"55":0.13458165115490064,"56":-0.06500064554846956,"57":-0.055371437839898625,"58":0.02041940345653327,"59":-0.02405300900467752,"60":-0.08626103328636515,"61":-0.02482484792084224,"62":0.05637385161913907,"63":-0.027766647974430833,"64":-0.021612608144194415,"65":-0.029622105631907637,"66":0.04093763835651467,"67":0.05276447835935235,"68":0.0035650972162727156,"69":-0.0075236915387052105,"70":0.09860211979715738,"71":-0.0822715915155849,"72":0.00336222616308729,"73":-0.00336948426741607,"74":-0.020428632486870723,"75":0.034520501374060104,"76":0.00440291042916123,"77":0.004324641391672218,"78":-0.0471271958686779,"79":-0.04200453123685573,"80":-0.031077834549583305,"81":-0.010484508689975292,"82":-0.04780603481842293,"83":0.011004508528395499,"84":0.008386847676291656,"85":-0.03378169506679109,"86":0.03681865739774266,"87":0.01672564090422963,"88":-0.012019221822529928,"89":0.04002268898990342,"90":0.016063764739220984,"91":-0.0032782598295561663,"92":0.017929874608491086,"93":0.0078003020913664615,"94":0.011522216749385129,"95":0.07101092844425602,"96":-0.0505603358498999,"97":0.030448410161978134,"98":0.012040686288122557,"99":-0.002728792849833448,"100":-0.022595218898216064,"101":0.047455013383803944,"102":-0.0029074482820304424,"103":-0.05024866188112428,"104":-0.02317316178753582,"105":-0.059985730467221554,"106":0.02703362658538003,"107":-0.06218039001728164,"108":-0.0013193208525068615,"109":0.02346497316820436,"110":-0.03573775917521993,"111":-0.05158887148254754,"112":-0.058271118723239895,"113":-0.11303766638728571,"114":0.11971709219429681,"115":0.046226433658068805,"116":-0.051634010289904456,"117":0.057913455563655715,"118":0.05617094206977857,"119":-0.04445060278887639,"120":-0.01078902218969786,"121":0.012300113985213088,"122":0.024475109404027827,"123":0.026388147527351604,"124":0.010654345645856213,"125":-0.014604392032010846,"126":-0.003382136383869874,"127":0.09940203459938347,"128":-0.03739656478134657,"129":0.059374216074877174,"130":-0.013984547741239604,"131":0.07991442990783289,"132":0.02100325565834532,"133":0.15356458863935973,"134":-0.013166179570591874,"135":0.0032548237188277773,"136":-0.044188274161772484,"137":-0.010712861429801124,"138":-0.055000098417958644,"139":-0.005726879054195235,"140":-0.015036330586005968,"141":0.08716131923920141,"142":-0.00629056557393991,"143":0.030865991176052862,"144":0.034613553833632835,"145":0.007788194231202103,"146":-0.06381448654805601,"147":-0.06457164208777504,"148":-0.011970115455828463,"149":0.07524459823892633,"150":-0.015078262425903764,"151":0.033454759796494704,"152":-0.0801486116779439,"153":0.08338730268068179,"154":0.002935301358272093,"155":0.02660326494942749,"156":-0.020556589448607672,"157":-0.006744818427724653,"158":0.009067642671295173,"159":-0.02502811073874245,"160":-0.04146612265866873,"161":0.034209114141396615,"162":0.03875023930959306,"163":-0.07174046226053708,"164":-0.005386720390359338,"165":0.010067737188159101,"166":-0.03960597449900824,"167":-0.01585095572967797,"168":-0.05983116631133414,"169":0.05391041148866503,"170":0.01295949681462329,"171":-0.0506907460367638,"172":-0.01759000607875898,"173":0.016288481968950982,"174":-0.006615932556198924,"175":-0.06984302838701002,"176":0.00935682269138416,"177":0.08875191117839851,"178":0.003189073913277115,"179":-0.01217776717245403,"180":0.002676780789727205,"181":-0.052628095635010606,"182":0.010020261109951117,"183":-0.009365937321004552,"184":-0.010176546757402368,"185":0.06230133311478417,"186":-0.1621684552955809,"187":-0.06251763458186912,"188":-0.06714581698651827,"189":0.0032068067359306666,"190":0.06035277069485436,"191":0.018263929575366253,"192":-0.08154508001693994,"193":-0.009894698413008838,"194":-0.05237388312770461,"195":-0.04038070773958235,"196":-0.03807452627998327,"197":-0.11896214952030737,"198":-0.03125833761866638,"199":-0.07432542092155539,"200":-0.1220369454464378,"201":0.017860271110281906,"202":-0.031183926717274088,"203":0.05655675863802644,"204":0.03674370750893333,"205":-0.09631166854276661,"206":-0.05490078360348484,"207":-0.07313911442476459,"208":0.000052042730742927696,"209":-0.0014896809458951105,"210":-0.07765318466170215,"211":0.011917404100297924,"212":-0.04335460099668368,"213":0.009678370376499261,"214":-0.02685615846813598,"215":-0.06173837950764652,"216":-0.1394874364326092,"217":0.004367921201762569,"218":0.0497499163555428,"219":0.05238056060102974,"220":-0.019874175166096988,"221":-0.0013539367113938217,"222":0.06402947596920824,"223":0.0821344880049033,"224":-0.019798676707363842,"225":0.06569834910481312,"226":-0.003430256356937646,"227":-0.08523546453050265,"228":-0.008302825908550561,"229":0.00904016221653775,"230":0.05263483879163861,"231":-0.0006457667482324454,"232":0.05324508198258747,"233":-0.021944691234719923,"234":-0.043295748881574475,"235":0.0041721444650291845,"236":-0.005361309055987126,"237":0.01172139651224548,"238":0.02426766492388488,"239":-0.028011873226026218,"240":-0.0033464806592771617,"241":-0.05253115960281688,"242":-0.048991995795684695,"243":-0.06396892332863584,"244":0.10126014565542366,"245":0.036848892974608624,"246":0.0031087132283856627,"247":-0.0017352596703992726,"248":-0.05377705112907637,"249":0.013942218557457465,"250":0.04393431471478001,"251":-0.006408835488050878,"252":-0.024121892638650836,"253":-0.0358679763185194,"254":0.03404590450196329,"255":-0.022897035360437096,"256":0.05879761492077498,"257":-0.05515807723063799,"258":-0.09860330859376541,"259":-0.056896724463338724,"260":-0.081085445165919,"261":-0.02268616344747958,"262":0.04279009043788606,"263":-0.024910707353568047,"264":0.012846631248014148,"265":-0.008092257858612763,"266":0.016605959581411266,"267":-0.011951908929523655,"268":0.010786278868134175,"269":-0.04588425062642813,"270":0.11670768075014162,"271":0.038204727165986496,"272":-0.036822600804885565,"273":-0.03861975857418327,"274":-0.021159943685433273,"275":-0.03671641500421859,"276":0.03698186687216909,"277":0.03387112522254052,"278":0.012354655874662253,"279":0.07796324039113553,"280":0.016121440465146172,"281":-0.05207651971140827,"282":-0.02710946450163419,"283":0.05673493769735714,"284":0.03786804810680198,"285":-0.03344346577165502,"286":0.01483049959966907,"287":0.07716402225055267,"288":0.04030699277711248,"289":0.024146984991584467,"290":-0.067325441563814,"291":-0.06130188497984404,"292":0.07214182402524713,"293":-0.06055945410377709,"294":-0.051811578502810034,"295":0.007821683841964328,"296":-0.055036147260867384,"297":-0.07700993309960164,"298":0.04775771203249922,"299":0.005701893492507806,"300":0.03159293761968293,"301":-0.008390426818658795,"302":0.0019837055158360953,"303":0.05187880271578553,"304":-0.09330029035116978,"305":0.02967950204267543,"306":0.048839025804631626,"307":0.011492938206689812,"308":0.028457256046161627,"309":0.04434426838437062,"310":-0.05172589306294674,"311":0.036079515391973765,"312":-0.04367974229612612,"313":0.03789265985094386,"314":-0.02587553880038136,"315":-0.03282974308190458,"316":-0.024239798732043197,"317":-0.023962069413738286,"318":-0.05218176016801533,"319":-0.030832898000416522,"320":0.0036687612987700204,"321":-0.050168425255289875,"322":-0.047430675040324825,"323":0.0515313122125057,"324":-0.0227217294041419,"325":0.033230344760030464,"326":-0.011335726073070842,"327":-0.053104905285408364,"328":0.055740743655897006,"329":0.051755199349800406,"330":-0.024438918251611635,"331":-0.007867751984198302,"332":-0.0028072778974074287,"333":0.009693399622570488,"334":-0.011034355589176089,"335":0.023793494847596502,"336":-0.004776994756689248,"337":0.04890778804058422,"338":0.0019453656663704563,"339":0.042925658257114314,"340":0.07308636374252414,"341":-0.020649972718978,"342":0.04259977372837939,"343":-0.027255762088146368,"344":0.002234025411276645,"345":0.07984379176131655,"346":-0.003605106294333557,"347":-0.05381047883402658,"348":-0.01860093894106992,"349":0.0069146932251051745,"350":-0.05425675848431671,"351":-0.04093702577778108,"352":0.04417987648032273,"353":-0.043442330584837846,"354":0.07689397341925305,"355":0.04894369366776699,"356":0.024375468809049092,"357":-0.07143942151477699,"358":-0.06102287818397807,"359":0.011048285590026942,"360":-0.006724117835784634,"361":-0.047445509567190874,"362":-0.0224006873891085,"363":-0.05008234839975211,"364":-0.037048463495598656,"365":0.041798041890226914,"366":0.0756542900816692,"367":-0.025364784683585245,"368":0.0014404885554953712,"369":0.022291158971812032,"370":-0.010220400209415156,"371":-0.13405152918022822,"372":0.017596416135511172,"373":-0.03999563348719509,"374":0.03597493385623892,"375":-0.02696230755785845,"376":0.009710911504624399,"377":-0.042896316457166156,"378":0.04449763415539673,"379":-0.05335676292607188,"380":-0.02035764701212867,"381":-0.02010251730519879,"382":-0.03991520489623835,"383":-0.09692699619787512,"384":-0.04954236665595913,"385":0.053390571038257596,"386":-0.047729192720747216,"387":-0.009309504086587076,"388":0.006525100382691504,"389":-0.007210869475313063,"390":-0.09293695693531064,"391":0.0162162668252103,"392":0.0013073284314787915,"393":0.0045918891288643515,"394":0.04922489208877226,"395":0.017912764811207897,"396":0.04836994603355281,"397":-0.03771422995100435,"398":0.01136275043375552,"399":-0.07079761380658674,"400":-0.005112118041951073,"401":-0.009713698711441955,"402":0.03790971852157662,"403":0.015987496458350344,"404":0.022236597750426943,"405":-0.06465365525358958,"406":-0.009778472335488543,"407":-0.04706217387386078,"408":0.0073447621173049395,"409":0.08111700533074784,"410":0.05017660291957473,"411":0.0399244472938018,"412":-0.04143363805468825,"413":0.0032134718395670607,"414":-0.019103519278895132,"415":-0.09647413745874238,"416":0.04661349329687906,"417":0.06073574433262325,"418":-0.02359534789740383,"419":0.012138439247788511}},{"sx":1,"sy":1,"depth":420,"w":{"0":0.052033295928326305,"1":0.08261063571249357,"2":0.029460199395152556,"3":-0.09855381318576228,"4":-0.07668194955488447,"5":0.07037021105167454,"6":-0.05503293928820489,"7":0.004264661574811285,"8":0.025799683015733734,"9":0.0014436557151780306,"10":-0.01164340752542564,"11":0.0702569377902371,"12":0.03447028814344856,"13":0.025738050310874092,"14":-0.06299851705492644,"15":0.044414486468563025,"16":0.08537416510883312,"17":-0.060164676877655074,"18":-0.01472460050314985,"19":-0.016210968364556162,"20":-0.02338193722673388,"21":0.10935075355043186,"22":-0.019023448373261132,"23":0.028582607659026496,"24":-0.04993344321865459,"25":-0.010637196856466946,"26":0.011917517458158682,"27":-0.011035643025121788,"28":0.04973323398857907,"29":0.03537594545367696,"30":0.058520338978025714,"31":-0.0276816497751487,"32":-0.0707502884343796,"33":0.04732951464610403,"34":-0.008222497461761596,"35":-0.034046407739835256,"36":0.03320278475659525,"37":-0.004311599249999128,"38":0.01867280001084691,"39":-0.04816746681874492,"40":-0.007769101694734723,"41":-0.009507781577216828,"42":0.03279157990041631,"43":0.029436716122261265,"44":-0.0011467439566013164,"45":0.024099517054626655,"46":0.005751961136276184,"47":0.0052847547476298625,"48":0.04215710937857521,"49":0.08804232832038099,"50":-0.024016676740968305,"51":0.01114234498337205,"52":0.0298036985319406,"53":-0.004417859898746144,"54":-0.043147326829274316,"55":-0.025899257214684706,"56":0.03983883383585029,"57":0.0018804192528595251,"58":-0.0008270259729635088,"59":-0.0700169805407528,"60":-0.09474895040595795,"61":0.014580994092326882,"62":0.012937857461264692,"63":0.018859479763876655,"64":-0.029306427170135953,"65":-0.04754585376605092,"66":-0.07975014060211168,"67":-0.026334538790803767,"68":0.013726093024472747,"69":0.006537532050691038,"70":0.0238416465303663,"71":-0.03044932272088462,"72":-0.017069192539998855,"73":-0.04344727527916018,"74":-0.05175532835243729,"75":-0.006461045745007289,"76":-0.08480650705443424,"77":0.015899189437596176,"78":-0.04972042510439461,"79":-0.02338844418419687,"80":-0.09381273554523341,"81":-0.04429640589894214,"82":-0.017953951741640214,"83":0.0393475483679959,"84":0.01884718400790282,"85":-0.023155957030857936,"86":-0.012417710077309635,"87":-0.0066925164283197355,"88":-0.14126253559421445,"89":0.03784471098780718,"90":-0.014304723104067442,"91":0.10854798749982446,"92":0.00888193466911632,"93":-0.027268416399770755,"94":-0.0496872813097769,"95":0.009600245558479022,"96":0.041170712658045124,"97":0.017265833331412055,"98":-0.008668031907861341,"99":0.011210213786781461,"100":0.010711141993566453,"101":-0.13885801700650996,"102":-0.01777529282004073,"103":-0.04195668264547917,"104":-0.05584886883803691,"105":0.06899318733252019,"106":-0.03453061546699726,"107":0.006802685449360576,"108":-0.14303664597098809,"109":-0.01679638812863598,"110":-0.041676148137030834,"111":-0.0020601987276825454,"112":-0.004357168270259908,"113":0.036123546441937625,"114":-0.0352438298925401,"115":-0.016302246542175915,"116":-0.038996403208102805,"117":-0.04406647792545955,"118":-0.09419324816845406,"119":-0.033728449986171846,"120":-0.015148939365184865,"121":-0.01049262403725486,"122":-0.058087123821203214,"123":0.028168741029245825,"124":-0.011718793179293098,"125":-0.05165711820941213,"126":0.05692662426708755,"127":0.049578629590807215,"128":-0.03963401852815799,"129":-0.07877037298822884,"130":-0.02082039700541157,"131":-0.06751212337101212,"132":0.06462685709263222,"133":0.08986699240319433,"134":-0.013921290090458324,"135":0.06769312999016398,"136":-0.08688663540936148,"137":0.03481441131865059,"138":-0.012619437058847669,"139":0.004487936600698954,"140":0.06971818651001649,"141":-0.005424221782338037,"142":0.010304333040404103,"143":-0.0748124438155137,"144":0.043145993917392746,"145":-0.014433319889443422,"146":0.006471204360122212,"147":0.03299609174980979,"148":0.00015403641124930867,"149":0.005374340694656971,"150":-0.15203400745458864,"151":-0.07820784421115393,"152":-0.01627950568321848,"153":-0.06670903026173658,"154":-0.025033690242062263,"155":0.0004127941298438944,"156":0.041069640440641764,"157":-0.06551663757421534,"158":0.0375880385048702,"159":0.02660031119850274,"160":0.016659218003191412,"161":0.07661278989123747,"162":0.013325925383108755,"163":0.0570636446023514,"164":-0.10873694821182293,"165":-0.020250918319925298,"166":-0.07116327347198,"167":-0.06960466321013961,"168":0.016435459769031147,"169":0.020191989652810917,"170":0.03152914752203742,"171":-0.047467143458729676,"172":0.031668481619436854,"173":-0.05769821119389817,"174":0.02827294001553021,"175":0.0591387587634545,"176":0.06792832914628465,"177":0.027945392087602883,"178":-0.12957296148291542,"179":-0.030559677301403035,"180":0.086507690592668,"181":-0.010015136198810634,"182":-0.011302750736310006,"183":0.021744977800886144,"184":0.02245713952149257,"185":-0.16155486542408345,"186":0.06521959518730958,"187":0.008501995832336535,"188":-0.049150055051844645,"189":-0.02555680725974604,"190":0.08062827817916919,"191":0.08018965156156237,"192":-0.18856439954884247,"193":0.013088927836784902,"194":-0.025322317948944913,"195":0.06279028119526982,"196":0.06448161191820971,"197":-0.02488699890413599,"198":0.011229726950186042,"199":-0.05208906337686756,"200":0.05262753188956831,"201":0.04144747992553586,"202":-0.10020397423869902,"203":-0.0034077727836432235,"204":0.0861537766035458,"205":0.11380580340149998,"206":-0.12417159625275791,"207":0.08281325456386525,"208":0.007366044953029956,"209":0.005907028351829701,"210":0.018687787407946212,"211":-0.01229825253732687,"212":0.1028005126913021,"213":-0.12647485071151526,"214":-0.00788649611391681,"215":0.05543329977903901,"216":-0.005183382894462454,"217":0.033707657569599564,"218":0.019810341174403754,"219":0.09592599325189871,"220":-0.14320630137487259,"221":0.06929219125446569,"222":-0.07057189509541793,"223":-0.04187757558760586,"224":0.09784557831740372,"225":-0.021983420458539998,"226":-0.006305752436567023,"227":-0.047478728569356886,"228":0.009627270818892057,"229":0.0691166475455856,"230":-0.07667912338261353,"231":0.019144688710831036,"232":0.07644650690850686,"233":0.11037513133178593,"234":-0.12802874121036986,"235":0.09248098097872154,"236":-0.009016692016646722,"237":-0.034685121338078814,"238":0.017495348905928906,"239":0.048610646697464566,"240":0.17080184194588144,"241":-0.14262158417462503,"242":0.09712398600956139,"243":-0.034082975795150385,"244":0.046365313607743694,"245":-0.02088924150657948,"246":0.04382760256965196,"247":0.03149002429918941,"248":-0.08741209770551502,"249":0.1078457130722071,"250":-0.03484767774731792,"251":-0.10209199972236377,"252":0.06649740257697376,"253":-0.04225893872526019,"254":-0.013450174042126875,"255":-0.08553683138314731,"256":0.0072808186872883075,"257":0.018748049252817343,"258":0.000984273206974157,"259":0.0070342592522574365,"260":-0.012769010195612433,"261":0.11949244694852806,"262":-0.03903697388524865,"263":-0.004298364621814213,"264":-0.031565008059811564,"265":-0.014536625841181683,"266":0.013207896724159972,"267":0.043514388060939005,"268":-0.016293994538126844,"269":0.006081636055312125,"270":0.05396029307284051,"271":-0.054453112068214155,"272":0.02779394390664161,"273":-0.024920797129695912,"274":-0.038650515676610854,"275":0.07917540876501204,"276":-0.06809937368510467,"277":0.05663631740465382,"278":0.03042291290495315,"279":-0.003020459754072501,"280":-0.014286134403056755,"281":0.02072872127218405,"282":0.11576543950134223,"283":-0.05975275201272453,"284":0.1252054587440517,"285":-0.018431240978202743,"286":-0.06166116606030672,"287":0.011010194100077518,"288":0.006171824688357435,"289":0.10933596122386186,"290":-0.09185906395640664,"291":0.12014602910209025,"292":-0.0302266745800746,"293":-0.001727214331285852,"294":0.04039356048774868,"295":0.005134366003546559,"296":0.012708772196763394,"297":-0.06605503493450832,"298":-0.012737048573587437,"299":0.0010796381238059182,"300":-0.03210591796143276,"301":-0.04711131939190973,"302":0.0016822108386398448,"303":0.31666748235067593,"304":0.07601197656780988,"305":0.030724988408565298,"306":0.002874458402413195,"307":0.011798197369224087,"308":0.043954872824361814,"309":0.05684632426918972,"310":0.2842945829061352,"311":-0.00746910375916012,"312":-0.024811280707711113,"313":-0.021973067937997044,"314":0.0465128621200433,"315":0.022636170072790382,"316":-0.04817318057904498,"317":0.2977926229937908,"318":0.07592227005281538,"319":0.04091858758854461,"320":0.04374218264428109,"321":0.02297565212071109,"322":-0.06275668876867453,"323":-0.012496640086724641,"324":0.3432312547360761,"325":0.019021764331202565,"326":-0.10380338424100442,"327":0.004172420575350793,"328":0.023358208267408663,"329":0.043205148107650464,"330":-0.03466461418529287,"331":-0.0019357517626492932,"332":-0.14666357639960628,"333":-0.0666364062547615,"334":-0.02835076783232499,"335":-0.061814674827488474,"336":0.019047972306924312,"337":0.10314010488132422,"338":0.21478339684130754,"339":-0.1090488624669083,"340":-0.03687764998220381,"341":0.02879081208510442,"342":0.009906857600950916,"343":0.053898390400218946,"344":-0.09271128800034241,"345":0.31877899487388733,"346":-0.027121679228830155,"347":-0.009868906552830814,"348":0.04122142561101101,"349":-0.054462379893097414,"350":0.06689279536577394,"351":-0.011335064331104776,"352":0.21178495246109022,"353":-0.03969168904307679,"354":-0.05383636002980431,"355":0.038507862710269285,"356":-0.034248190716374916,"357":0.0715926830197216,"358":-0.004575211844933362,"359":0.11148149011027127,"360":-0.04453128001066476,"361":-0.06913311306529998,"362":-0.007605714902678725,"363":-0.005918448849364724,"364":0.07830008857916007,"365":-0.05095296794710686,"366":0.19727384953467475,"367":-0.009380713371684288,"368":-0.03363181867840408,"369":0.0026306113520904203,"370":-0.04484173141683048,"371":-0.003300700275155739,"372":-0.08906206181211468,"373":0.0857435601577038,"374":0.03549370924436641,"375":0.00242203672784417,"376":0.010986878945602711,"377":0.023987539221481582,"378":0.11172125988080535,"379":-0.01200144998250918,"380":0.00018004180942079784,"381":0.12237227083736957,"382":-0.09377813500461693,"383":0.0174935065575919,"384":-0.06266153718785625,"385":-0.0277867379290624,"386":0.06553550440206196,"387":0.041327077521182386,"388":0.0807663052956333,"389":0.05699912971394008,"390":-0.0433048972874541,"391":-0.048205140874126036,"392":0.04406407871992581,"393":0.02294882837416571,"394":0.06663175273454647,"395":0.10829496453150524,"396":0.010153248245073033,"397":-0.0092089304134883,"398":0.00016113053493915493,"399":-0.004879931183117067,"400":0.050947117690243515,"401":0.013480660991790782,"402":-0.04771338363396192,"403":-0.07944392512618782,"404":0.010626894198430114,"405":-0.01620491237349013,"406":-0.05115857091000231,"407":-0.013476198800805968,"408":0.016495187800197722,"409":0.04916209691434838,"410":0.013179497399556584,"411":0.014427120661523579,"412":0.02759776522315622,"413":0.02936559005554192,"414":-0.006661548571912333,"415":0.02410935268101732,"416":0.1557828269495156,"417":-0.04814899987320891,"418":0.019439610083040654,"419":-0.005051086475473991}},{"sx":1,"sy":1,"depth":420,"w":{"0":0.015264467418899912,"1":0.037171459954498956,"2":0.09085389049018246,"3":-0.08347757969106862,"4":-0.061626738582852274,"5":-0.030860368464355373,"6":-0.04883277416153961,"7":0.08027624284674861,"8":0.05904205369354486,"9":-0.010828559524551399,"10":-0.0038181768862230606,"11":0.023099817345923555,"12":0.08119788609808638,"13":0.03584989757210844,"14":0.0328980817652484,"15":0.0035020445144810747,"16":0.03926919234263898,"17":0.061968210627695725,"18":0.005091301224974267,"19":0.0351357499479166,"20":-0.027100610421252738,"21":0.012857451135721313,"22":0.007208976113991788,"23":-0.013600507608727497,"24":0.03506431500188982,"25":-0.03387603722179127,"26":0.04123221233732383,"27":0.022589127855210517,"28":0.09923670475619262,"29":0.034039642811509035,"30":0.04890359373583692,"31":0.03749451138790335,"32":-0.07157611686925731,"33":-0.009056424244213403,"34":-0.006547826490234071,"35":-0.041061596893651554,"36":0.00047067895339630714,"37":0.03872809435020725,"38":-0.1130577867354247,"39":0.004727888533652812,"40":-0.0017676984792594685,"41":-0.08101982547385561,"42":-0.009882379691082023,"43":0.14101798633648815,"44":-0.007659673199942747,"45":-0.013128063633425715,"46":0.008899302100668104,"47":0.011312240670929282,"48":-0.1445727181879647,"49":-0.06024291416213687,"50":0.0833240032816235,"51":0.05704814553445179,"52":0.006466148416632517,"53":-0.005080650458682139,"54":-0.07036757086894001,"55":-0.08812315634962704,"56":0.009474722626479451,"57":-0.002690558477264931,"58":-0.012380253433306813,"59":-0.016427169153206543,"60":0.014888879166718463,"61":-0.05639267861890854,"62":0.08315381710789511,"63":0.07160611623202259,"64":-0.0098711523889577,"65":0.07023006774334023,"66":-0.03441493616216898,"67":-0.004759617816288456,"68":-0.05506239861012663,"69":0.01287063703653394,"70":0.05444963705369437,"71":0.08275427138123868,"72":-0.02436237218031094,"73":0.024007189981053417,"74":0.07732012753158927,"75":0.010278225999547284,"76":-0.020337748283318146,"77":0.08533473282435967,"78":0.024335483234200404,"79":-0.026414370436026114,"80":-0.006635648039241275,"81":0.06244193727399776,"82":-0.11066533431035976,"83":0.014094973660743157,"84":0.12525448839396597,"85":0.029708358930900732,"86":0.06683387333587555,"87":0.05647343975183531,"88":0.0004116354075732397,"89":-0.05738994072624382,"90":0.06908673391469985,"91":0.07280002535694487,"92":0.08898575220348116,"93":0.05172878450801798,"94":-0.055012551515957804,"95":0.058367131758382,"96":0.051581534277993744,"97":-0.029953501681324508,"98":0.09182639431181995,"99":0.039709734465665204,"100":0.023802152469815464,"101":-0.03083464456246338,"102":-0.026856364873110734,"103":0.021437652248972778,"104":-0.032971436105498166,"105":0.03606162395140848,"106":0.0776990136199138,"107":0.02754798375536735,"108":-0.03896467135499444,"109":-0.05309541053720686,"110":0.05903317565704607,"111":-0.04935960839119358,"112":0.06301897357822141,"113":0.08956507662782903,"114":-0.07477591999632496,"115":-0.039020352225071435,"116":-0.012303658200609162,"117":-0.002701753119752731,"118":-0.09542190836987023,"119":-0.01137289673830774,"120":0.059341163458867335,"121":0.031986346714314065,"122":-0.0004471949830815332,"123":0.06397989075758558,"124":0.07755866252303126,"125":0.01685970162310127,"126":-0.027879240916011162,"127":0.11776019088899202,"128":0.1291734917090227,"129":-0.028369693713876855,"130":-0.005240588275139957,"131":0.1378205248365331,"132":-0.02674235636063618,"133":0.020978585449984457,"134":0.026318819579895895,"135":0.05989628067742143,"136":0.023657781164027062,"137":-0.039988004437128154,"138":-0.10669951258185743,"139":0.014395859592508504,"140":0.0017483432486262878,"141":0.0520852532712551,"142":0.0032474172098320674,"143":-0.07066811118723762,"144":0.010534423806142635,"145":-0.04297698064007312,"146":-0.045289673238005555,"147":-0.05864448071107588,"148":0.048669666854108756,"149":0.033887644926300836,"150":0.00910573724016756,"151":0.013696395009566776,"152":0.008414716570194542,"153":-0.04026032060547824,"154":-0.015965888047993353,"155":0.0021924714532476,"156":0.0002625877747794804,"157":0.001786573124875639,"158":-0.013618930770529373,"159":-0.03713771493489819,"160":-0.042006592745699324,"161":0.02576332264458086,"162":-0.08533544021004046,"163":-0.07440190498693706,"164":-0.11652888234444074,"165":0.020817097296686054,"166":0.02621063458563726,"167":0.02644691911763771,"168":-0.03221763237705709,"169":0.07365449606916061,"170":-0.05645389606639287,"171":-0.12913807296955443,"172":-0.05334726626563646,"173":0.03246959058646048,"174":0.01100719064010019,"175":-0.03462937141516521,"176":0.0460089603897564,"177":-0.03607203594285806,"178":-0.1081544448929856,"179":-0.013752943291467881,"180":-0.004364971848269444,"181":-0.06541317069544841,"182":0.0267393204197392,"183":-0.04206096159798745,"184":-0.04261001039168302,"185":-0.022476549420159444,"186":-0.08821497078504685,"187":0.09565332917977448,"188":-0.01558595388383653,"189":0.10306836395370277,"190":-0.015964976629657176,"191":-0.06428798296884118,"192":-0.021376969625981197,"193":-0.07266670160060323,"194":-0.04451130913609603,"195":-0.0016807908786235371,"196":0.042465205857205,"197":0.019400381335371242,"198":-0.003670678383080502,"199":0.006137395697135908,"200":-0.004617225119221586,"201":-0.04158493137103274,"202":-0.02847823844273345,"203":0.08334945133711699,"204":0.06764827123068841,"205":-0.04064144487171084,"206":-0.12730652408403054,"207":-0.0651745100566761,"208":-0.03070116988804342,"209":-0.05629311416766205,"210":0.041477469948126414,"211":0.06789739962054864,"212":-0.09004288568624598,"213":-0.04040072937045992,"214":-0.05207428753544909,"215":0.015263360321121909,"216":-0.046907820041355824,"217":-0.0051891791897372384,"218":-0.021936760721773314,"219":0.0059568770563348415,"220":-0.12606135352951456,"221":-0.05353576312002051,"222":-0.06211387760041532,"223":-0.1075126995247173,"224":0.01769075057935188,"225":-0.00538673036972667,"226":0.05822555816803493,"227":-0.10297988469082256,"228":-0.06448374006750511,"229":0.09854949062890861,"230":-0.05094370230738386,"231":0.055054869468293605,"232":0.03508998304088188,"233":0.13999023359493104,"234":-0.12840812612062458,"235":0.03682399133074269,"236":0.004241008546319938,"237":-0.024903320052759994,"238":-0.0045678158757619025,"239":0.017601161982559593,"240":-0.027806275177458217,"241":-0.01832320157761156,"242":-0.055266264655952975,"243":-0.01516856782546818,"244":-0.014375720683265867,"245":0.07404080686261283,"246":0.09166995181538655,"247":-0.012136801726596053,"248":-0.036830028986109674,"249":-0.04771574822742661,"250":-0.06468014565681603,"251":-0.09415347861565634,"252":0.08641800482293396,"253":0.0030800559731784744,"254":-0.06295927498723267,"255":-0.0771788891779536,"256":-0.16307163410025693,"257":-0.015460876972524237,"258":-0.12238570790563817,"259":0.09446364118367077,"260":0.01352899890904822,"261":-0.05286939789389996,"262":-0.11230647959946297,"263":-0.09352594859609854,"264":0.013038057597690554,"265":-0.02415565827579148,"266":0.07325114018708115,"267":-0.0628616709274831,"268":-0.13113979019145539,"269":-0.0854961973933759,"270":-0.0746569680822981,"271":-0.13354047677854172,"272":-0.050147579028754316,"273":0.041655819165700846,"274":-0.011706479781343399,"275":-0.058086207747067714,"276":0.004486338882064589,"277":-0.11953130740541001,"278":-0.0807989684389163,"279":-0.030738392506723364,"280":-0.003561149534794728,"281":-0.026230036381328422,"282":0.03541993546229037,"283":-0.11318743279631577,"284":-0.0007423696994300312,"285":-0.0821022590944912,"286":-0.05956813188544971,"287":0.013046173283113244,"288":-0.03613102125509427,"289":0.03346454982996565,"290":-0.127870076173285,"291":0.07350184912283034,"292":0.04663921189533704,"293":0.07609509695132817,"294":0.04479489895410148,"295":-0.009284590328256268,"296":0.017886347514528254,"297":-0.13730500800327722,"298":-0.04126325209440857,"299":-0.1102962900307448,"300":-0.038994903336136345,"301":0.05265452441631838,"302":0.09067871593461482,"303":0.11812753178230581,"304":0.022532665608004276,"305":0.10991903454115283,"306":-0.057070130937852084,"307":0.058390218791292685,"308":-0.006146390474918494,"309":-0.050004540687622404,"310":-0.004838584369581945,"311":-0.010928418365801138,"312":-0.01992784937206658,"313":0.0340670621018771,"314":-0.047567683782424645,"315":0.04255314979907813,"316":0.0006082388484141001,"317":0.020216253157149634,"318":0.06905340788738314,"319":0.044062128971601194,"320":0.0626302595980044,"321":-0.11149425592790062,"322":0.05400544788125064,"323":0.07889779007842723,"324":0.008321041992919663,"325":0.036296778382406025,"326":-0.006799792007517645,"327":0.029984591860346767,"328":-0.0259528287199093,"329":0.07576903607477782,"330":0.04621826220720733,"331":0.003991178113002767,"332":-0.004453948883082974,"333":0.013643599354492178,"334":0.1257474765846389,"335":-0.0825443648365777,"336":0.016264000299720152,"337":0.07935603903826524,"338":-0.07655279046852141,"339":0.051283887826302006,"340":-0.043692522684237435,"341":0.060775160636789054,"342":0.07048890057432654,"343":-0.0036692916833301423,"344":0.02803354634554359,"345":0.07200187257219254,"346":0.10056351958369082,"347":0.03127213964817491,"348":-0.016295399879066735,"349":-0.01419821928780748,"350":-0.008678552224108092,"351":-0.0038487331591218386,"352":0.0825684898976945,"353":-0.11205334102201829,"354":-0.005003101106755963,"355":0.036410335456420105,"356":-0.02100059908186107,"357":-0.024313483449592388,"358":0.06874588613947917,"359":0.08208722868310654,"360":0.028360582611887127,"361":-0.0735604695390591,"362":-0.054812245999468136,"363":-0.04713383387281988,"364":0.021675519989719942,"365":0.019576347713516674,"366":-0.004796123258230424,"367":0.0012198917420453567,"368":-0.02921755155603092,"369":-0.029847330423473133,"370":0.09240869897398042,"371":-0.09360549532832928,"372":0.022975997887305775,"373":-0.03348388594546765,"374":-0.020984348163777894,"375":0.05067745584392292,"376":0.00462175998630975,"377":-0.03105910589781011,"378":0.11137758653255433,"379":0.10158125308135973,"380":-0.06400446518777902,"381":0.1489121044086232,"382":0.08644645742326339,"383":-0.007526885733945357,"384":-0.04355376801775403,"385":-0.08079521272474594,"386":0.03318484030448538,"387":0.11291075775983397,"388":0.14027094331896675,"389":0.0590308848393032,"390":-0.03474665599175081,"391":-0.05306615938290058,"392":0.0009326932038566456,"393":-0.00937391653393695,"394":-0.015809872017821167,"395":0.08743570840565076,"396":0.1013612878968463,"397":-0.09879106038169089,"398":-0.0767390114815617,"399":0.03268286389187612,"400":0.09666073340238304,"401":-0.09605375580522735,"402":0.09129782278634088,"403":0.0653492053659894,"404":0.01185105048681393,"405":-0.007079343796808903,"406":-0.07362657460249125,"407":-0.031737056909780376,"408":0.008293250951258001,"409":0.05693456899873231,"410":-0.05474056841474553,"411":0.0012356100232187902,"412":0.013570920835577337,"413":-0.035434127947968456,"414":-0.07301574314772008,"415":0.027075463889538832,"416":0.04964511215133685,"417":0.024719832295853398,"418":-0.003856496020447992,"419":0.03535738552236398}},{"sx":1,"sy":1,"depth":420,"w":{"0":0.023119375952685595,"1":-0.0090841410278999,"2":0.015994032911504377,"3":-0.11446615264288205,"4":0.0007647825478363082,"5":0.024238667859273217,"6":0.10637190788349848,"7":0.010915561315744378,"8":0.0038541340919691965,"9":-0.021667488209661016,"10":-0.04931449098221364,"11":-0.00634412162221945,"12":0.02760978808967867,"13":0.0827990078904466,"14":-0.007583808308691983,"15":-0.030622286062095008,"16":-0.027175602847795396,"17":-0.1159966809086679,"18":-0.017537973108959493,"19":0.07385149848133991,"20":0.1114665083656612,"21":0.04743471028666978,"22":-0.06919904935967544,"23":-0.09343937584590976,"24":-0.07175178016453551,"25":-0.04434638430981539,"26":-0.018116570250019975,"27":0.005574871559247833,"28":-0.018837861316130525,"29":0.051238646572216655,"30":-0.03225349216374804,"31":-0.008591717213624834,"32":-0.00037092699980724794,"33":0.1527468518219132,"34":0.06908999399569622,"35":0.09630185339221939,"36":0.06224773818391913,"37":0.03664285152938207,"38":-0.07972873668215096,"39":-0.059402189136897265,"40":0.02637074388999314,"41":0.08844607325377882,"42":0.010964015610621483,"43":-0.012756567782459444,"44":-0.014778985999818006,"45":-0.14666254670028944,"46":0.006429600807923664,"47":0.00795452350580268,"48":0.0588162191218229,"49":0.010193463155813662,"50":-0.06253086589841737,"51":-0.059155939019482656,"52":-0.12022382108120186,"53":0.017318058862712534,"54":0.043081542444155595,"55":0.05327464332083895,"56":-0.004420480108399621,"57":-0.0021713738281773217,"58":-0.041152441451756706,"59":-0.11295974358454632,"60":0.05530526379331566,"61":0.06189357372174732,"62":0.06491126404437245,"63":0.10635988598217494,"64":-0.03899199379508793,"65":0.03662248390639685,"66":-0.12608266332009488,"67":0.02680878292887238,"68":0.021431937970861948,"69":0.06706828359572115,"70":-0.015581819700506252,"71":-0.0022743122027508497,"72":0.007876728390145499,"73":-0.107400516494144,"74":-0.05348843636615852,"75":0.09941556846179064,"76":0.07080953148404111,"77":0.038796152346279277,"78":0.06290154576992957,"79":0.022837836645785994,"80":-0.10754048796478675,"81":-0.0061793054657181675,"82":0.07541048385458697,"83":0.022906957612073713,"84":0.012788869271551966,"85":0.01385869827950859,"86":-0.05128101771347224,"87":-0.23569510401502186,"88":0.003948141987888362,"89":0.01808932124328671,"90":0.054674648676454066,"91":-0.06017997569447049,"92":0.01867623770546538,"93":0.0796604675350001,"94":-0.07504344949632236,"95":0.061046555376407775,"96":0.09891114443508954,"97":0.1296935348542639,"98":-0.012005455527514787,"99":-0.006977428396537876,"100":-0.04859890160143495,"101":-0.1421912569407776,"102":0.012025357872717574,"103":-0.0045539266735804326,"104":0.12466239054216977,"105":0.008291949673707307,"106":0.03482803570151744,"107":0.01417366880889983,"108":-0.07557463587593602,"109":-0.05337576030444637,"110":0.09157856626721785,"111":0.07071069716387542,"112":0.04483640094949504,"113":0.026767071364991214,"114":-0.06382414812064674,"115":-0.14804512951516802,"116":0.027970390440769977,"117":0.11917614928160575,"118":0.06516730146625882,"119":0.024543715424316583,"120":-0.01111858013192284,"121":0.027777507783452123,"122":-0.16690259623722017,"123":0.0002469708161504014,"124":0.04679387408342164,"125":0.16033952702654602,"126":0.04225874507999193,"127":-0.004113829858597987,"128":-0.007859267155070333,"129":-0.15712913338697995,"130":-0.02610240704450855,"131":-0.057522061316735755,"132":0.08378189095891676,"133":-0.018227131463944366,"134":0.04778035436520854,"135":0.009656020891922678,"136":-0.06576890559634528,"137":0.014872703721925092,"138":0.05214668827724454,"139":0.045811453533343545,"140":0.02893285763454368,"141":0.030901272502143116,"142":-0.0262125605389939,"143":-0.23022247938566584,"144":0.034878106004558096,"145":0.060712778555508974,"146":-0.0008031204179487552,"147":0.03981900700489634,"148":-0.04440469934039852,"149":0.05641016024711624,"150":-0.12008120108531171,"151":-0.017589730422075584,"152":0.02214705274021481,"153":0.08029844021160976,"154":-0.00899513001174309,"155":-0.016113596836929096,"156":-0.00644030194308047,"157":-0.19206700755404657,"158":0.0004596434961309379,"159":0.037079125489180895,"160":0.10713607575219423,"161":0.02500075253255562,"162":-0.05445716840272725,"163":-0.01369300878119481,"164":-0.17012451358970787,"165":-0.010573255630691747,"166":0.003955669627503722,"167":0.016938093022508108,"168":0.008581518104425185,"169":0.02595207489174242,"170":0.02386800427137523,"171":-0.17310573418336708,"172":0.0738852195254628,"173":0.032399993368214176,"174":0.0661538518870129,"175":0.01642275887065229,"176":-0.03591538610727182,"177":-0.055608131726133436,"178":-0.14420470544637712,"179":0.034697256917451215,"180":0.024948102625751093,"181":0.08865736753910289,"182":0.018790020312238247,"183":-0.017883468968266435,"184":0.008251972845115805,"185":-0.193958388706755,"186":0.02665817380357476,"187":0.05954664820788605,"188":0.023229064808143865,"189":-0.004545244661113763,"190":-0.013727139715232331,"191":-0.01016918342001031,"192":-0.19409277153949767,"193":-0.06728162121802789,"194":0.032052942978870694,"195":0.09223631476874261,"196":0.0049133881974146535,"197":-0.0075944625178365486,"198":-0.040187100017986095,"199":-0.17708430961380522,"200":0.02250709576081341,"201":0.005738639130952525,"202":0.093181543087998,"203":0.045966115385499676,"204":-0.04980501355439682,"205":-0.05555430276780096,"206":-0.09577828214110513,"207":0.026423125989837728,"208":0.07529402225618351,"209":0.09147112453045302,"210":0.03909075621226812,"211":-0.008143623891255015,"212":0.04676476679515845,"213":-0.18985968218374671,"214":0.01804538048693707,"215":0.06328946091991339,"216":0.08887482614260303,"217":-0.06320524899355558,"218":0.010937383974767541,"219":0.0008106589332085145,"220":-0.19078495978722293,"221":-0.008873735430372013,"222":0.02905453661646912,"223":0.07733843864578793,"224":0.038666033817619204,"225":-0.06372940401524976,"226":-0.06705940813741017,"227":-0.15431502919478884,"228":0.008117479655802335,"229":0.025355260646220262,"230":0.016167093131736417,"231":0.025986020751553457,"232":-0.0522832331771024,"233":-0.053072836915000206,"234":-0.20440491600678895,"235":-0.04476289929463421,"236":0.07017784094466756,"237":0.13744986365601647,"238":0.06196950524221888,"239":-0.024138666042580133,"240":0.025354920740275545,"241":-0.24722917051072785,"242":-0.050924413046867324,"243":0.0009011075900545226,"244":0.08364010492751141,"245":-0.0044772310697048295,"246":0.0037112437783921987,"247":0.05106423452131501,"248":-0.24475345787112346,"249":0.04078815865237368,"250":0.0029317531417216193,"251":0.013838452734774536,"252":0.012346668856087777,"253":0.0347006496706012,"254":0.10269677318544951,"255":-0.20744810738045866,"256":0.0053317694548056065,"257":0.11594063004057102,"258":0.08071673152445742,"259":0.01879559394932557,"260":-0.032739997986300055,"261":0.023565206401354566,"262":-0.34944434192440516,"263":-0.010466324292430502,"264":-0.03501927689699956,"265":0.007514300845871195,"266":-0.009945596286754704,"267":0.03917022473517424,"268":-0.06198520480181424,"269":-0.2602275327480555,"270":-0.09165790594420385,"271":0.04730153144551421,"272":-0.011583272356435456,"273":-0.005872654162298624,"274":-0.0707017246683314,"275":0.1326668171859454,"276":-0.2438662748904976,"277":0.055426637477381704,"278":0.0045402543253024626,"279":0.13077575082638265,"280":0.0014755367869720198,"281":-0.011369868323477944,"282":0.15316082187381772,"283":-0.2754700016371611,"284":-0.051375493930479174,"285":0.021441273193620197,"286":0.04174764628852378,"287":-0.06920723571885698,"288":-0.008552608885120749,"289":0.051676825750333985,"290":-0.21864459069880016,"291":-0.008526050196341126,"292":-0.020369677376724772,"293":0.13729283521330451,"294":0.07609280201922217,"295":0.008355381711207671,"296":-0.12378545286831771,"297":-0.20185560400882577,"298":-0.14663223754818086,"299":0.06964006704606907,"300":0.0818412518929267,"301":-0.038761593635607515,"302":0.00888429597276677,"303":0.13381339603775078,"304":-0.07739694350075935,"305":0.17116029065433602,"306":0.01593419261588101,"307":0.07690625113500354,"308":0.006162447024650692,"309":0.11117712499158662,"310":0.11851400672238029,"311":-0.09829265590940883,"312":0.14142224694665728,"313":0.05763211975359549,"314":0.0883240002216103,"315":0.021911234669888105,"316":-0.016340159790569117,"317":0.058402473986642396,"318":-0.03697088973423092,"319":0.15429316146697275,"320":0.005848613749913467,"321":0.08442250850474595,"322":-0.08915657278875687,"323":-0.023344868786385253,"324":0.11087878096399714,"325":-0.11787582459768726,"326":0.28258983181217046,"327":0.0474225017301872,"328":0.08441924024452852,"329":-0.020368936601140843,"330":-0.04569272230572873,"331":-0.13643799066470394,"332":-0.2346684258084172,"333":-0.010045227089648407,"334":0.0859550423713751,"335":0.0915956054315859,"336":-0.021863694271102106,"337":0.04344632406426671,"338":-0.13155199225763858,"339":-0.07832218303912997,"340":0.21106922339469691,"341":0.0035400686808175134,"342":-0.02010572058710027,"343":-0.01074966407216031,"344":0.03480484410297018,"345":0.012000125124337669,"346":0.08999427718816559,"347":0.20789455290090275,"348":0.026326263407341517,"349":0.12089527246154225,"350":0.009866883380069113,"351":0.008355991068048576,"352":0.02544570619234032,"353":0.008424871804140158,"354":0.2573106718768224,"355":0.01588907505547551,"356":0.08366216033309676,"357":-0.018934083962509292,"358":-0.0014764696983693422,"359":-0.09594511545152425,"360":-0.056632488078664195,"361":0.08925543203370492,"362":0.05283194180963309,"363":0.10690860265385677,"364":-0.05890123889001582,"365":0.046505664296645426,"366":-0.015766801989154044,"367":-0.06711143470513521,"368":0.0497948626817437,"369":0.07047520745811586,"370":-0.02504022927483528,"371":-0.01810627829138661,"372":-0.009781681277847499,"373":-0.1029556174090514,"374":-0.04148581757270934,"375":0.11080863597541257,"376":0.002334377551655353,"377":0.13764227186469308,"378":0.0672189967465297,"379":0.0003753189171799518,"380":-0.05142100199844967,"381":0.41410641502205137,"382":0.07596466706629383,"383":0.0420501236435069,"384":0.055443208067332314,"385":0.0391954929535298,"386":-0.009509590151827313,"387":0.04341499936788183,"388":0.3900434142816604,"389":0.006154520849755311,"390":0.004817219556330859,"391":0.13837273482833054,"392":-0.04283074295296796,"393":0.014354018175798377,"394":-0.050114154516883135,"395":0.2999756706456567,"396":0.04834761334751007,"397":0.04457154870627838,"398":0.02390724275248297,"399":0.019347047422237168,"400":0.06699495415457302,"401":-0.02842510477860224,"402":0.06595767034147992,"403":-0.045329541154252785,"404":-0.02097091965135547,"405":0.033483238086032985,"406":0.004495184907547056,"407":-0.032849853504548936,"408":-0.07265532712550858,"409":-0.03820521992096071,"410":0.05590516070282761,"411":-0.035072334639432545,"412":0.10483157076868951,"413":0.016496177281410864,"414":-0.031591320874243295,"415":-0.014609590062573822,"416":0.03477575480233927,"417":0.02540700599726487,"418":0.04943910974070974,"419":0.12241104291327473}},{"sx":1,"sy":1,"depth":420,"w":{"0":0.0033151846101723715,"1":-0.0028022450150987,"2":0.034523280517598676,"3":-0.05025252620513564,"4":0.05347398633242524,"5":-0.030471626251419925,"6":-0.03553607651602684,"7":-0.15118073760096987,"8":-0.025736616916704445,"9":0.046061870463910706,"10":0.0032460917156132887,"11":-0.08667638497960753,"12":0.011521398788967432,"13":0.0953301227140125,"14":-0.06819682603418047,"15":0.06058842041858918,"16":-0.003990854062719064,"17":0.07183394389491544,"18":0.002618892843950275,"19":0.041235283288807836,"20":-0.05854584755141833,"21":-0.033871924789228916,"22":-0.05909658655709528,"23":0.04480483218713141,"24":0.08771868998202782,"25":-0.022653249046856862,"26":-0.0635804251552433,"27":-0.04011774068974407,"28":-0.09582012693854129,"29":0.008338606187136423,"30":-0.01829514735624082,"31":-0.04253641138258027,"32":0.021183631615668917,"33":0.010605305923485391,"34":-0.0701869119824038,"35":-0.11252621259794854,"36":0.019038308818298343,"37":-0.06446366224455753,"38":0.0839626176953942,"39":0.057618804278718724,"40":0.0034952528832915353,"41":-0.01380927005603929,"42":-0.02354309382814373,"43":-0.012318572530454737,"44":0.07034723127132234,"45":0.08527162428217346,"46":-0.07492639270424473,"47":-0.003383805653297363,"48":-0.014243365543201854,"49":0.003912187981130496,"50":0.0012554880898822574,"51":0.02473932385929814,"52":0.007096547335658951,"53":-0.02530039452747409,"54":0.02458038303425549,"55":0.08979870520185175,"56":-0.05502495741343317,"57":0.005341157579244285,"58":-0.004523014673216024,"59":-0.08863165462988126,"60":0.04900150273760755,"61":-0.0503375194646074,"62":0.0170678945480594,"63":-0.043840280384039775,"64":-0.02427236440503859,"65":-0.02812165622093113,"66":0.037038852943890456,"67":0.00021639967501269587,"68":0.009341209893970581,"69":0.042669155553678347,"70":-0.034994888770599246,"71":-0.016852895600905762,"72":-0.014604561159084994,"73":0.00586870194425587,"74":-0.005880002464467996,"75":-0.06454621959400346,"76":0.022990810288190916,"77":-0.043962080750732845,"78":0.038008677413806646,"79":0.04162277195300991,"80":0.021987936453439588,"81":-0.006395490072951326,"82":0.05746700906182636,"83":0.006174998842605561,"84":-0.07695521016033657,"85":0.055882109651429056,"86":0.03816807217453088,"87":-0.08141139657743712,"88":-0.022371934936464284,"89":-0.029277416446181734,"90":0.057394563906980556,"91":-0.03901913346985014,"92":0.030031896103898868,"93":0.03272044686730932,"94":-0.013622727955354352,"95":0.003222550279220379,"96":-0.03737287767266406,"97":-0.048166295485477205,"98":-0.13723424778211385,"99":-0.0018250134280343281,"100":-0.005078856637404766,"101":0.01491379833510037,"102":-0.006563650559553118,"103":-0.03418173983313554,"104":0.014132142424635372,"105":-0.11309471515520536,"106":-0.0033262658347472745,"107":-0.03261682447995627,"108":-0.002561025041997621,"109":0.04434396989275384,"110":-0.0165507045062449,"111":0.012163061369610963,"112":-0.046391104095697314,"113":-0.03974087172274438,"114":0.05513060736002135,"115":0.04602067493934593,"116":-0.0836123958930826,"117":-0.08929303862248646,"118":0.04561976215920471,"119":0.0016420482633065713,"120":-0.04272475567886329,"121":0.027168655829303674,"122":0.047818888025433236,"123":-0.03244780376861581,"124":0.018572131492479167,"125":0.05452196275098872,"126":-0.11089729623322106,"127":-0.025057724575151,"128":0.01921091197268947,"129":-0.09047354567666151,"130":-0.014624032638456654,"131":-0.10579094618402081,"132":0.023799866178043975,"133":-0.11790945770001443,"134":-0.012073087355593558,"135":0.10153656175866105,"136":-0.0555543658458482,"137":0.07559350777152066,"138":0.012050352586634892,"139":0.06837043170128518,"140":-0.05490223957771565,"141":-0.004540127649579091,"142":0.016034141641572384,"143":0.007983194808064706,"144":0.0316087232499112,"145":0.03382138689853136,"146":-0.039588263100393484,"147":-0.010574564301424713,"148":0.016982590386925473,"149":-0.05722608828254766,"150":-0.03185649147887609,"151":-0.04638163844520078,"152":-0.07709608577985949,"153":0.019266498981476015,"154":0.023476722869564513,"155":-0.018956842457117262,"156":-0.03047074127287438,"157":-0.031126735287194954,"158":0.055617859288122254,"159":-0.017830318273108648,"160":-0.021341194909292194,"161":-0.03448994062918204,"162":0.01762260401711611,"163":-0.06029043605679825,"164":-0.07209717347430283,"165":-0.01662505254803218,"166":0.02773841590897901,"167":0.09623821718803864,"168":-0.08720511887410276,"169":-0.08129267579834622,"170":0.09968769782781073,"171":0.021136246306281588,"172":0.0749021621924963,"173":0.020336861394129446,"174":-0.012273959353623676,"175":-0.04496590667774601,"176":0.07419972828100857,"177":-0.06705472289337411,"178":-0.014125770713138395,"179":-0.03433004799263607,"180":-0.004445419132159605,"181":0.0038266500964627558,"182":-0.055320252202160386,"183":-0.012086742988512993,"184":-0.06562573214145591,"185":-0.035726982102593056,"186":-0.05361346751402194,"187":-0.06822649560074592,"188":-0.018464148340498983,"189":-0.021000834205031002,"190":0.014898345015168396,"191":0.053207963610179036,"192":-0.0169114305266398,"193":0.06553227854747755,"194":-0.012701231908198414,"195":0.0007400201346416958,"196":-0.07567985265725147,"197":-0.02381751226360538,"198":0.0026717464587432253,"199":-0.019482687082990804,"200":-0.06441938080798044,"201":-0.010597656417429702,"202":0.009974686836144572,"203":-0.08245035316838473,"204":-0.008749974200645378,"205":-0.07426300312386223,"206":-0.09824676789947852,"207":0.053520538453176225,"208":-0.04557256217269373,"209":-0.0019660466275564195,"210":-0.06408697199097893,"211":-0.006281838054193098,"212":-0.0067226177840049185,"213":-0.08891010791300766,"214":-0.027640669876107676,"215":-0.011667591910404193,"216":0.000604955519711271,"217":-0.10448365134761062,"218":-0.04469708516484785,"219":-0.06551493525837694,"220":-0.044734383025295026,"221":-0.017711544916113167,"222":-0.007083718391680833,"223":-0.05692693242591785,"224":-0.0767090479047339,"225":-0.04620349308683324,"226":0.02855437514470209,"227":-0.08029841806628071,"228":-0.012508945442289908,"229":-0.0426931641412061,"230":-0.0380423888294762,"231":-0.0979930086644234,"232":-0.0062717634341551455,"233":0.035750554785797944,"234":-0.03108676318386519,"235":0.036423236303640326,"236":-0.05158039314063499,"237":0.031683294190440095,"238":-0.06174515822618202,"239":-0.10942237770404648,"240":-0.055904995440587475,"241":-0.06279985158590924,"242":-0.03233899428211558,"243":0.017199286124606743,"244":0.010729364513939738,"245":-0.04692339963989773,"246":-0.001205096636939499,"247":0.07029527076868435,"248":-0.030937854398426175,"249":0.039336515023114305,"250":0.08515950316843934,"251":0.0859442612903652,"252":-0.011159102828511921,"253":0.005149717940933162,"254":0.07345268763790139,"255":0.04680411032642001,"256":0.05482679170211004,"257":-0.01037209352966777,"258":-0.059648983201858866,"259":-0.042597456621749887,"260":-0.04688224054064066,"261":0.007929911484693037,"262":-0.09628457192609267,"263":0.044705943776296796,"264":-0.05369585307403193,"265":-0.04085281915450938,"266":-0.053582465454689275,"267":-0.03193345391667095,"268":-0.07269307485285134,"269":0.039965773078109244,"270":0.03498470882332302,"271":0.004181481550899943,"272":0.08055456079269258,"273":0.02667845394259534,"274":-0.002204123433121922,"275":0.004130388603549628,"276":-0.09761826024366661,"277":-0.0359571641068377,"278":0.033948320502404435,"279":-0.0029709854524222405,"280":-0.029226470956722844,"281":0.0049422203404863654,"282":0.04741142442644662,"283":-0.02815819193097305,"284":0.012037991850421719,"285":0.03731144127888341,"286":-0.05363394989226068,"287":-0.1600010677838277,"288":0.024356346934803683,"289":-0.06281393383060357,"290":0.00939787365936383,"291":-0.03879324461320555,"292":-0.030460072569154964,"293":0.05648527416105547,"294":-0.06356717518871464,"295":0.09434647483254972,"296":0.06737229232771466,"297":-0.008008423854338318,"298":0.006614779203833445,"299":-0.06592625013279661,"300":-0.011231906007922033,"301":-0.11142783058834095,"302":-0.030013497971851048,"303":-0.08240382925453649,"304":-0.01769670682497579,"305":0.06668545479547347,"306":-0.04234945195268337,"307":-0.028563884262081514,"308":-0.03700269952897753,"309":0.059480667628390625,"310":0.022661211972000092,"311":-0.07866895112575541,"312":-0.01628878134154667,"313":0.064365866226571,"314":-0.07077627227622321,"315":-0.1075692179564084,"316":0.024398182347718237,"317":0.04566882221588863,"318":-0.11681878921980354,"319":0.03843008209570429,"320":-0.012543425372088352,"321":0.011381966583112035,"322":-0.07941221225376582,"323":0.04920061194335894,"324":-0.04310122171604267,"325":0.015831159315893996,"326":0.045338229634128244,"327":0.006703921383409369,"328":-0.03230842289512447,"329":-0.05489825762012895,"330":-0.07907738300093167,"331":-0.05672372690233359,"332":-0.013112051987517184,"333":0.003006890014978435,"334":-0.06491275734741254,"335":-0.006436029590900639,"336":0.039567364507916786,"337":-0.03719960087319484,"338":0.013177704998454944,"339":0.005298143687765617,"340":0.036465528440118015,"341":0.08855985423091205,"342":0.03954929774248075,"343":-0.03576149536332012,"344":-0.026876117935718646,"345":0.017010340326488682,"346":-0.053918407977971324,"347":0.07696878927886266,"348":-0.04366921211982407,"349":-0.01064657991805782,"350":-0.07225795556178273,"351":0.011733581066136147,"352":0.04023555630423153,"353":-0.04127065667026011,"354":0.019352037041876217,"355":-0.0751651316263095,"356":-0.020779963645499562,"357":-0.10965547953288318,"358":0.005928478241402164,"359":-0.054564514385519576,"360":0.07905248904929471,"361":0.024991491396899244,"362":-0.05989566222620704,"363":0.03638557964245974,"364":-0.10551060154165239,"365":0.02524733140272185,"366":-0.03826174413344251,"367":0.014870689033257917,"368":-0.051282920777612456,"369":-0.09219535569992734,"370":0.010955417692904545,"371":-0.05849015111841776,"372":-0.01225384520627762,"373":-0.02741418429323633,"374":0.009115046086831002,"375":0.018482404890122928,"376":-0.015216494692072528,"377":-0.0021549868336102284,"378":-0.09543953542059222,"379":-0.10500325560844402,"380":-0.023079403075349093,"381":-0.045797364072271786,"382":-0.07600241762197052,"383":0.02019668704398311,"384":-0.06318812567516317,"385":-0.11225927378313347,"386":-0.01704598311433864,"387":-0.06804362290229483,"388":-0.004285763420419947,"389":-0.04164921573484649,"390":0.08096311500314633,"391":0.002100578415901457,"392":-0.06216086454933345,"393":-0.05619874026327777,"394":-0.05292697819913993,"395":0.014127839779763604,"396":-0.011440634758456749,"397":0.017969345177863565,"398":0.06524114430283195,"399":-0.026655384128751566,"400":0.01346489640818671,"401":-0.0018434633204669657,"402":0.004039912611010209,"403":0.050266167854710074,"404":0.025533347581893948,"405":0.005423717931965024,"406":-0.08766663422843614,"407":-0.0176290236613424,"408":0.061499844024239546,"409":-0.05891848390959276,"410":0.09190541579999625,"411":-0.03312484715239972,"412":-0.031011059303000372,"413":-0.029024725438056287,"414":-0.024600082450285894,"415":-0.023803035196015804,"416":-0.017732067760845675,"417":0.013926775002592972,"418":-0.017523088436961102,"419":-0.06884174745705214}},{"sx":1,"sy":1,"depth":420,"w":{"0":-0.016963713370852066,"1":0.017106617594002765,"2":0.10490586468986841,"3":0.11162086530342132,"4":0.07182720426749736,"5":0.01755570991313788,"6":-0.00799427921785624,"7":-0.02509822590201847,"8":0.0743463518949551,"9":0.030881627161588886,"10":0.07832701303577448,"11":-0.040162198236805405,"12":-0.07104728462622292,"13":-0.06439962850366977,"14":-0.0675313711466474,"15":-0.04527522003165824,"16":0.03727205115994623,"17":-0.0319314631264661,"18":-0.006662328467052772,"19":-0.048910698847714505,"20":0.004904368720464661,"21":-0.0006139332732549631,"22":-0.001974218349332238,"23":0.02639865861165013,"24":0.013490989447382239,"25":-0.01844886513175391,"26":0.0019193261480241952,"27":0.015389912430012809,"28":-0.0537419010701665,"29":-0.05200309961729313,"30":0.09024539282544072,"31":0.09756947213004463,"32":0.049740692719164904,"33":0.016350778355895882,"34":-0.009258110723444167,"35":-0.10904238746325833,"36":0.039187667159413145,"37":0.025835695772393828,"38":0.06884013115153398,"39":0.06661737376215049,"40":0.026573354460966953,"41":0.004567401737653858,"42":-0.035375504656263844,"43":-0.051006095346046845,"44":-0.04569658972297464,"45":0.08966238015739768,"46":0.0190612481037356,"47":0.014048832533607758,"48":0.06744149821037052,"49":0.01914963427019756,"50":-0.044807179396742926,"51":0.000680899144303277,"52":0.003259925580299315,"53":0.02453049961738237,"54":-0.025823954153319763,"55":-0.040499283707511165,"56":0.07435713861033469,"57":0.02344077196073502,"58":0.01655066934737506,"59":0.02615796455193749,"60":-0.04484202389358183,"61":-0.0406450159575035,"62":0.02723335250057972,"63":-0.04408202064366914,"64":-0.06576335465913463,"65":0.047793970095813036,"66":0.015219494527885732,"67":-0.028477155087560716,"68":-0.06484668312236948,"69":0.015521581444038464,"70":-0.1296305220105686,"71":-0.012594748337014652,"72":0.020015999064891075,"73":0.08111888289272229,"74":0.0646324215237706,"75":0.028046320042268938,"76":0.031780623328818376,"77":-0.015503503037893992,"78":-0.03505234788353575,"79":-0.01693209738529963,"80":0.04480224626962937,"81":0.027445884976022274,"82":0.05330437778050945,"83":-0.028841812207566066,"84":0.03055484310305998,"85":0.03614592465078424,"86":0.023023686755776398,"87":0.021305142858228373,"88":0.027142121493294178,"89":0.04629894750783564,"90":0.05245719634512795,"91":-0.02843558356153638,"92":0.023421050500868238,"93":-0.004239600788884535,"94":0.13031543376863441,"95":0.03575691763987649,"96":-0.056688595122859814,"97":-0.013019176417766164,"98":0.030663848097266615,"99":0.012399064281179773,"100":0.01889832975453393,"101":0.04093013909514051,"102":0.00981959380270785,"103":-0.01243459125083053,"104":-0.031136811529032155,"105":-0.03685856757950295,"106":0.0455380482824854,"107":0.11094910365487783,"108":0.02406533502101337,"109":-0.07089781113809467,"110":0.04565244638819093,"111":0.018535801195315317,"112":-0.0023780132808528163,"113":0.00909147113025475,"114":0.03739650384600138,"115":0.01475134457236915,"116":-0.0279476946257926,"117":0.012284185534038872,"118":0.058312112118056286,"119":-0.06580448815236442,"120":-0.0031517471055425715,"121":0.01153228585872949,"122":-0.035103541522099865,"123":0.006179760896981365,"124":-0.015931493292445607,"125":0.01212598755857052,"126":0.03259581397788462,"127":0.007601120888177629,"128":-0.010062162211775942,"129":0.014696561759147046,"130":0.03174628489503292,"131":0.01758538619087922,"132":0.08933218106038206,"133":0.026109660587771987,"134":0.02323459040939653,"135":-0.1425030351090667,"136":0.013618879323898334,"137":-0.04688540879965714,"138":0.04327935171361124,"139":-0.11025778569433599,"140":-0.06870304853469553,"141":-0.03307826841491717,"142":0.0035223295365937922,"143":-0.050655102266857564,"144":0.05385031016628848,"145":0.022241284698618448,"146":-0.00016835582088368955,"147":-0.13390427840302374,"148":0.0010790075230298962,"149":-0.05779344001840507,"150":0.12289977027612693,"151":0.029201330019417653,"152":-0.008846423613075253,"153":-0.008907501846243155,"154":-0.0816453426126837,"155":0.013290457097411031,"156":0.029102681038407324,"157":0.016244331867449033,"158":0.001004996391062504,"159":0.003842004540228152,"160":0.019467148002953117,"161":-0.018809253717594576,"162":0.03387214781436286,"163":-0.015721714589173614,"164":0.09053364087463592,"165":-0.043636657706360646,"166":0.01377378199670682,"167":-0.03366354869324022,"168":-0.05200812968617516,"169":-0.10702481950515237,"170":-0.008992076279191066,"171":0.04554992756394326,"172":0.023766270085617578,"173":0.02760581566942936,"174":0.1121112370303028,"175":-0.0190358044485997,"176":0.057640676551893116,"177":0.001269290892002379,"178":-0.02597515068414088,"179":-0.0180481320439083,"180":0.06075678504464358,"181":-0.01624632951689094,"182":0.0022744908905083573,"183":0.0625657039149042,"184":-0.08481588689609709,"185":0.051075842007145295,"186":0.03680893815571871,"187":0.03258889065074425,"188":-0.05484387242051041,"189":-0.07714675349441223,"190":0.022764360115330146,"191":0.00024330112229994894,"192":-0.02596253168431103,"193":0.04485996000371839,"194":0.05982653320286653,"195":0.0424374556886467,"196":0.06267160033700257,"197":0.01597346548535118,"198":-0.03489633869899233,"199":0.01676498202250878,"200":-0.02545688823333399,"201":0.030725188415776053,"202":0.054763438943111885,"203":-0.10890913707305215,"204":0.07469960316682484,"205":0.0013381529085633081,"206":-0.044098431659650696,"207":-0.00213622787125912,"208":0.03871306962995806,"209":0.0008662955389779664,"210":-0.04803497729245362,"211":0.0188232060452729,"212":0.156504018679876,"213":0.008433715095022732,"214":0.002800852578230571,"215":0.02595043341933354,"216":-0.020917314604659572,"217":-0.1235801488335908,"218":-0.00939676658103167,"219":-0.04733472102363606,"220":-0.018443058736312325,"221":0.04603392565552165,"222":-0.022057712933366013,"223":-0.005622525716186471,"224":-0.04646273727794089,"225":0.01873289458587656,"226":-0.13048537128866056,"227":0.04300143970689081,"228":0.00473987210002675,"229":0.00795239274084359,"230":-0.03498859124781524,"231":-0.09442576531892118,"232":-0.0022932662838473544,"233":-0.09246434857474319,"234":-0.041955162264634444,"235":0.03136483343948734,"236":0.0016448007993612834,"237":-0.04396592099777928,"238":-0.09274212195393908,"239":0.0203776151349939,"240":0.014762895385281348,"241":0.059802455980872374,"242":-0.07893192789856332,"243":0.03645636013463477,"244":-0.03318210620631488,"245":-0.026436858259903048,"246":0.017265565156978253,"247":-0.07238256282575131,"248":-0.013648169587270097,"249":0.0012618948011736653,"250":0.0026625178635865843,"251":0.01936964547553808,"252":-0.017264075008648804,"253":0.0025884675765339496,"254":-0.02211783091697919,"255":-0.035103270694607315,"256":-0.08988914722940286,"257":0.04591212637550817,"258":-0.06479027791194202,"259":-0.0064348103095631624,"260":-0.06797656935813082,"261":-0.03224569601258622,"262":-0.04608783138350396,"263":-0.12649098891568444,"264":-0.05201196714185443,"265":-0.1054916420950326,"266":-0.06645401101110862,"267":0.07051180070890752,"268":-0.07184259519396619,"269":-0.09583550411345523,"270":-0.055185116892751206,"271":-0.03531203926616481,"272":0.015243283773051097,"273":-0.06226640802313195,"274":-0.045529451964159695,"275":0.03703191768937732,"276":-0.09169171822303222,"277":-0.05169696135450028,"278":-0.009973794509789961,"279":0.018352341854396204,"280":-0.011972992814343953,"281":-0.026244735028289598,"282":-0.10932676573318678,"283":0.007756513978940503,"284":-0.016571131978438357,"285":-0.05496893089501947,"286":0.054294451472156814,"287":-0.019801695391937935,"288":-0.01496653422052067,"289":-0.0006282289540086118,"290":-0.01359227358007032,"291":0.01671834486430062,"292":-0.05551992504612495,"293":0.010170030006047813,"294":-0.026918970455103546,"295":0.006064834646121841,"296":-0.02287578597130204,"297":0.019104547424028395,"298":-0.020662359385134554,"299":0.021976309183048534,"300":-0.032226245883423855,"301":-0.016192615501714906,"302":0.030978218474437286,"303":-0.08310621711413516,"304":0.011409506456564078,"305":-0.07445885292423185,"306":-0.053016417576475086,"307":0.06393008918506048,"308":-0.09085295352497481,"309":-0.022241443912873072,"310":0.06046898303797069,"311":0.07606193063751633,"312":-0.13868708967643903,"313":0.0015520106342603813,"314":0.020966689399254362,"315":-0.07472661396550669,"316":0.04269691248696157,"317":-0.11810364472093918,"318":0.08843471760405822,"319":-0.20272570388892774,"320":0.002248367363456963,"321":0.056467158862200904,"322":-0.12125039901720533,"323":0.0015848998907607565,"324":0.03665142106618142,"325":-0.03549439740474501,"326":-0.20024008315356334,"327":0.06627396136032208,"328":0.010759321170903955,"329":0.10213059010698396,"330":0.02090357767088832,"331":-0.07624995407550512,"332":0.12525153067451725,"333":-0.11015417461655103,"334":0.07011928891484957,"335":0.038143856056764,"336":-0.017680872384120108,"337":0.0014199400810817513,"338":-0.08595318125652197,"339":0.01369583825830501,"340":-0.17677622040911026,"341":-0.04745145321008149,"342":-0.05305964768118206,"343":-0.036550852522144794,"344":0.04184217925105824,"345":0.042459342342343546,"346":0.10403237602203802,"347":-0.1657038610482246,"348":-0.029211612891286445,"349":0.027750242446646173,"350":-0.02875659155723133,"351":-0.012363442641740378,"352":0.052452996068961456,"353":0.006695681498544894,"354":-0.0837820299640044,"355":0.04473143665760211,"356":0.024945993402963437,"357":-0.04655364274238281,"358":-0.040682797795160874,"359":0.012793760373070121,"360":0.01769561348420139,"361":-0.14950331355873095,"362":0.07187871042328796,"363":0.022247760553692462,"364":-0.1070204065594668,"365":0.09739638404948496,"366":-0.07336162224846356,"367":0.036474683222074436,"368":-0.13248855745352175,"369":0.0660666072278306,"370":0.07367897703837235,"371":-0.037972989367808935,"372":0.032883728779324974,"373":-0.015398952338311296,"374":-0.05329406932215508,"375":-0.12349323222952453,"376":0.07750285406314657,"377":0.007291095182597963,"378":-0.05561349003999523,"379":-0.016908649889724726,"380":0.025374063459355757,"381":0.037253890705176596,"382":-0.0183251511164694,"383":0.09361937795618383,"384":0.061469970637893036,"385":-0.12360242245823687,"386":0.025064499135726285,"387":0.12848676364988693,"388":0.10010306216873893,"389":0.13202392515990888,"390":0.029918115025924848,"391":0.04473418939054575,"392":-0.05207659207558437,"393":-0.08232309703133543,"394":0.08872241902304963,"395":0.12268443739289689,"396":-0.018767973493267164,"397":-0.01666851025550585,"398":0.02206180308570974,"399":-0.004109195917860506,"400":0.06609416262102122,"401":0.03339173081038544,"402":0.06570876781844455,"403":0.06830572938566463,"404":0.0021871821038865584,"405":0.023315064719300112,"406":-0.12252411269094361,"407":-0.08257037207215734,"408":-0.114999643201688,"409":-0.004092095251258649,"410":-0.008760834169139229,"411":0.0050923799525161234,"412":0.012225818508968495,"413":-0.07744751457702334,"414":-0.03584889341831702,"415":0.08264057298162815,"416":-0.0491693798540325,"417":0.009599032917430302,"418":0.075658952897858,"419":-0.018466733795990238}},{"sx":1,"sy":1,"depth":420,"w":{"0":0.09130036342497864,"1":0.16934148881740604,"2":0.03509070676464198,"3":-0.010679295828371573,"4":0.02734420027914872,"5":0.004748825674751032,"6":0.0319556615447703,"7":0.040224648116799246,"8":-0.04163766220170185,"9":0.028670281590813432,"10":-0.01879886410912329,"11":0.015054006703393786,"12":0.04109873403821436,"13":0.06691796337057146,"14":0.021913829396713463,"15":0.05468215634798504,"16":-0.035260751708424604,"17":0.04585291867139108,"18":0.11052962468524213,"19":0.03265050343162825,"20":-0.034320419162717185,"21":0.10223487593900334,"22":0.05085128856464213,"23":-0.014725823181556595,"24":-0.020659609399164395,"25":0.013128231880299924,"26":-0.0407967803350391,"27":-0.0492962429212608,"28":0.0772900032568481,"29":0.03477224217446244,"30":0.050915499646142955,"31":0.0352843909471797,"32":-0.01086921993401571,"33":-0.047704313366892404,"34":0.01953406746546789,"35":0.04178174106267386,"36":-0.04750824231779343,"37":0.011126385666598192,"38":0.02166227311975929,"39":0.011830619410240434,"40":0.027546148461583656,"41":0.06952398339528078,"42":0.13822277008283676,"43":-0.033186983438241995,"44":-0.0283109870041695,"45":0.06481770300306526,"46":0.035394676292414946,"47":-0.003594314304324579,"48":-0.037437338053211165,"49":0.012365283020942017,"50":0.06594379061317202,"51":0.10854133398145156,"52":0.02247060224619384,"53":0.07961641541671494,"54":0.027337871454558387,"55":-0.08470318298969651,"56":0.04533106726870951,"57":-0.03607146534653233,"58":0.00748359768077398,"59":0.010105630487442983,"60":0.025822813583349806,"61":-0.0026833895512889255,"62":-0.020523376190382855,"63":-0.039513818460233864,"64":-0.009049980006504437,"65":-0.0015097685520490034,"66":-0.012104953363480343,"67":-0.002009958071113319,"68":-0.05276111778285301,"69":0.012367154933437199,"70":0.08982347957841486,"71":-0.03864953714239825,"72":0.013324861834165161,"73":0.03008529935968069,"74":-0.050374172645645955,"75":0.07183450622952563,"76":-0.03578120002525895,"77":0.008346940913636861,"78":-0.04370479767302549,"79":0.054190902466445444,"80":0.018129353134697043,"81":-0.0374710470097109,"82":0.12042248309665389,"83":0.008929973115853534,"84":0.02297124307935728,"85":0.03836198356483175,"86":0.00018265743121030246,"87":-0.060023276017002664,"88":-0.06641961148692724,"89":0.023118976693319807,"90":-0.049016888504640935,"91":0.09526670140143234,"92":0.1169914159634515,"93":0.016251102982785454,"94":0.03246504729572118,"95":0.04289896467713477,"96":-0.08219454893367263,"97":-0.0035208752341205365,"98":0.03947069035551563,"99":-0.026536422017578797,"100":0.01842383886728585,"101":0.09002770416253789,"102":0.03133155733040124,"103":-0.021306494930590572,"104":-0.07005289514690866,"105":0.007932345191185233,"106":0.04957421282021763,"107":0.0761662714739448,"108":0.030515240358686385,"109":0.02113380183173821,"110":-0.1132569475990903,"111":-0.01441405716629327,"112":0.02286569346789257,"113":0.04854339432322892,"114":0.028886476916207174,"115":-0.07344528806908213,"116":0.04458582420980298,"117":0.02977489286612569,"118":0.06591621678782729,"119":-0.005992751633904364,"120":-0.02466094188477386,"121":0.0050565666631967755,"122":-0.014870486437368583,"123":0.01785605990119743,"124":-0.06802129954456469,"125":0.00753798844346993,"126":-0.005966362096218124,"127":-0.03341203124419003,"128":-0.026094184899074866,"129":0.04662740994507388,"130":-0.01671005621918489,"131":-0.04048049945851684,"132":0.09590714829779987,"133":0.042053570492536815,"134":0.049966776385836346,"135":0.050377273774731335,"136":-0.001921292043592752,"137":0.05100063671514699,"138":0.06745737330762909,"139":-0.008604169000975057,"140":0.01168810038737488,"141":0.023231416914093295,"142":0.033407728159313095,"143":-0.046239710946465395,"144":0.07159313748043818,"145":0.03671304270241001,"146":0.10236556902991625,"147":-0.027272454928154874,"148":0.08332871279032748,"149":0.05091902093723896,"150":0.005329007451351619,"151":0.05829795879010246,"152":0.09807456578790973,"153":0.029570947590477056,"154":0.053652978820797184,"155":0.0221681970156699,"156":-0.004138575494469159,"157":-0.023482451565798215,"158":0.023385766693085706,"159":0.029210567780717414,"160":-0.033267710593254535,"161":0.08757671184594874,"162":0.053550381045860004,"163":0.051842801707642085,"164":0.054325785143265456,"165":0.005518332532398992,"166":-0.010519716633338966,"167":-0.0630998886484603,"168":0.01332548022996332,"169":-0.004079186997561327,"170":0.07447541581782358,"171":-0.00682413733151335,"172":0.008746640249870074,"173":-0.010039920175488461,"174":-0.053788170523452736,"175":0.09806918590065043,"176":0.05539438277975165,"177":0.017270225992650243,"178":-0.01080672925427109,"179":0.0047160114540690115,"180":0.05917304923268569,"181":0.016988788182165156,"182":-0.028501951453724993,"183":0.044940838688627624,"184":0.03549076604060675,"185":-0.018943088429553043,"186":0.07000512603610821,"187":-0.0011468349229568555,"188":0.009923987354437192,"189":0.03546745423911427,"190":0.026179418024036324,"191":0.06822543748514419,"192":-0.04860906777400445,"193":0.0026932011707436415,"194":0.03246804209839659,"195":0.05562259932038345,"196":0.05655302172570721,"197":0.016481836338759798,"198":0.05079873069953536,"199":0.01672668816043866,"200":-0.011944307553697334,"201":0.002671051038882374,"202":-0.032115096951502956,"203":0.009369693563135524,"204":-0.02776508743825692,"205":0.06674445660357545,"206":0.13263604343370447,"207":0.04154967712695745,"208":0.04092385369834331,"209":-0.044197320996513065,"210":-0.020394262673947894,"211":-0.008552586218724635,"212":-0.047188920460062185,"213":0.001660981965336645,"214":0.016875941176961586,"215":-0.06538120284392727,"216":-0.04141947597406445,"217":0.05433814349039244,"218":-0.019859081596769308,"219":0.00007242615732227842,"220":-0.027337705528373633,"221":0.14394417633013143,"222":-0.005022132746484323,"223":-0.02503428789040754,"224":0.07397642340734041,"225":-0.022465109771066534,"226":-0.012440325645982327,"227":-0.030820177729094973,"228":-0.0027846134352359484,"229":0.006232619942569404,"230":0.04252195138317401,"231":0.04099658802764228,"232":-0.003057511419261422,"233":-0.0015769772393957686,"234":0.0037676542433077555,"235":0.04778800995241449,"236":0.009016083306665168,"237":0.001309931907142319,"238":0.010428102569949584,"239":-0.05440792276060537,"240":0.08117138634017086,"241":0.06143249839850965,"242":-0.027647826493776947,"243":-0.017376245655067804,"244":-0.029637722545964446,"245":-0.017517882281568992,"246":-0.04653787231137682,"247":0.04498496324678762,"248":-0.11369377845416323,"249":-0.03767816090383996,"250":0.02455798601986884,"251":0.014285448392118793,"252":-0.014918066577015596,"253":0.05129654265112682,"254":-0.1274504385658403,"255":-0.06165587779446864,"256":-0.1479368452917724,"257":-0.01901811031042873,"258":-0.023978054508031792,"259":0.0024733648945951653,"260":-0.08794459961310751,"261":-0.06578316162914805,"262":-0.017203410766691428,"263":-0.08219464368400117,"264":-0.03283833458942602,"265":0.020884535744647444,"266":0.027733363095933744,"267":-0.018223051365233035,"268":-0.12042474177140536,"269":-0.039795528031934375,"270":-0.09982982449989594,"271":0.00657024014343065,"272":0.05874008805369452,"273":-0.031535598456300454,"274":0.005649267143135805,"275":0.020274886501050644,"276":-0.11564550974267773,"277":0.04618380087039378,"278":-0.01360758441561639,"279":-0.020827128709551616,"280":-0.04810154156921973,"281":-0.0038093750620624557,"282":0.04819414790958175,"283":-0.20410097247983294,"284":0.01479679997468554,"285":-0.02563374511455545,"286":-0.08824995228566705,"287":-0.05470687516882651,"288":-0.04712867926874488,"289":0.0513808032888455,"290":-0.2117335994583657,"291":0.06599079738957077,"292":0.03061027865083719,"293":-0.03753965304153434,"294":-0.023054869137946826,"295":-0.00005747049159179718,"296":-0.0365312188010435,"297":-0.2586294734577113,"298":-0.11276310537579126,"299":-0.017879738458494217,"300":-0.013515597789105821,"301":0.006024609959836498,"302":-0.044628646830716545,"303":0.059258828076675096,"304":-0.269324455599829,"305":0.035960091478715164,"306":0.03187006935902066,"307":0.02827426649442797,"308":0.01790265877867539,"309":0.0764431311629237,"310":-0.13806688906488077,"311":-0.24449120178818806,"312":0.02460608992644729,"313":-0.12212513269008073,"314":0.03189586668692858,"315":-0.022053937112826844,"316":-0.011009246265024347,"317":-0.1162637549856671,"318":-0.15689303556289938,"319":-0.0006472920218157643,"320":0.02250402416312152,"321":-0.03913941676717159,"322":-0.05119881471378542,"323":-0.06444162872139335,"324":-0.15054090555400332,"325":-0.23114499089628457,"326":0.021835219007145648,"327":-0.06213249842679045,"328":0.05775141705249328,"329":0.030795856339512907,"330":0.0347402310466528,"331":-0.2139769743151905,"332":-0.05248547480149339,"333":-0.16554431582968768,"334":-0.05739655865284821,"335":0.0455806308969174,"336":0.07637290090571015,"337":-0.026516375218832544,"338":-0.30461815160079264,"339":-0.03767670818696089,"340":0.010281665186658587,"341":-0.06231443132540798,"342":-0.0069545437583535845,"343":-0.03973164587844772,"344":0.02130226253232765,"345":-0.289352121043488,"346":0.022194741158360867,"347":0.12159363896938022,"348":0.031079213478698957,"349":-0.020490211157286012,"350":0.003931734047150723,"351":-0.002769227047886648,"352":-0.09623369856100494,"353":0.012884936086442802,"354":0.11580488227520498,"355":-0.041764784420304464,"356":0.01852699231479233,"357":0.1081839876175235,"358":0.02992858988629682,"359":-0.2534220510076722,"360":-0.07881105013284732,"361":-0.110131535316038,"362":0.01667883918105383,"363":-0.023680868462435885,"364":0.02523200568991621,"365":-0.04892816487499732,"366":-0.21022620544951798,"367":0.05812513081425552,"368":-0.01807148274723165,"369":0.005014759627594638,"370":0.030061247065419783,"371":0.015900906283176666,"372":-0.03780342670256733,"373":-0.24780440761724737,"374":-0.003243119757160394,"375":-0.06997058108002634,"376":0.07460042211903498,"377":-0.00015144460171012737,"378":-0.02988842276168841,"379":-0.050367543564925295,"380":-0.021690710070169657,"381":0.12399830788746932,"382":0.006740879812591735,"383":0.014407958728104098,"384":-0.009339559462973362,"385":0.049812745359045195,"386":0.011134578764567415,"387":0.004899190449496045,"388":0.13323325202461989,"389":-0.027535519693683855,"390":0.047129909935197306,"391":0.007914943241154207,"392":0.10633783096924201,"393":0.038580747484436705,"394":0.05106366446631821,"395":0.1261153369913539,"396":0.04625962722789296,"397":0.02049979664051991,"398":0.018869214010662428,"399":0.032287692925321916,"400":0.03211226232732193,"401":0.034818954305448936,"402":0.025638877375398914,"403":0.028846179588709497,"404":-0.015524211658559484,"405":-0.04171127512325479,"406":-0.05119805736370544,"407":0.022183402290483503,"408":-0.044694699650837104,"409":0.07305585608251948,"410":0.006789001704440784,"411":-0.040020876490630436,"412":-0.026370254173753875,"413":0.020061731614664666,"414":0.05588679587041935,"415":0.05619171666121807,"416":0.027606664707592567,"417":0.038881992543017024,"418":-0.006333581837722767,"419":0.02111132226660781}},{"sx":1,"sy":1,"depth":420,"w":{"0":0.0265519138425742,"1":0.01968665481190067,"2":0.04460393470188654,"3":0.0513160033569586,"4":-0.01538680633231774,"5":0.021965882112828378,"6":0.040845452756562456,"7":-0.03646000579748727,"8":0.016316015659123457,"9":0.028828707835035747,"10":0.07468641046346786,"11":-0.037593085222687506,"12":-0.07052545753606623,"13":-0.015077214471292958,"14":-0.06867206853394084,"15":0.11180924624053012,"16":0.024521550906224036,"17":0.04568494849283229,"18":0.04801561020694773,"19":-0.06793951327545635,"20":-0.02020425989268754,"21":0.02707153293663095,"22":0.012851400576825411,"23":-0.021003270306071534,"24":0.04749100221840461,"25":-0.016112860530039394,"26":-0.027141068244156963,"27":-0.022461160768634605,"28":-0.03417600603376108,"29":0.011590466550028574,"30":0.050671649697960036,"31":0.043308267724841705,"32":0.04999241270874239,"33":-0.024050335714191396,"34":-0.04515980881677067,"35":-0.014047781384611586,"36":0.09856632850503583,"37":-0.004511182675303074,"38":0.04172683490344143,"39":0.07389570172107951,"40":0.008433904348886467,"41":0.0340234009646734,"42":0.05589190062729338,"43":0.0018547974489631037,"44":0.023177675120978958,"45":-0.007963439873488336,"46":0.04697264494559056,"47":-0.0010749605092396238,"48":0.0696679573412092,"49":-0.008935013019888811,"50":0.10085278878340685,"51":0.039163151528579035,"52":-0.03236643675649225,"53":0.03293107479541884,"54":-0.029974619157793893,"55":0.007047822837350481,"56":0.07651926564204158,"57":0.0772550702084709,"58":-0.017337569227125545,"59":-0.030844148495685696,"60":0.011394268104102582,"61":0.0666460431143901,"62":-0.0384229684412359,"63":0.015833374236021755,"64":-0.0413621393042072,"65":-0.037144369913031265,"66":0.013359314855989173,"67":0.029778617559118724,"68":0.017052067623228046,"69":0.009739502417126839,"70":-0.026328975491157355,"71":0.027279566596215825,"72":0.021856950628025413,"73":-0.030051389506387343,"74":-0.05191329702904479,"75":-0.03591758568283372,"76":-0.0008940534480166296,"77":-0.018645981346591036,"78":-0.03895772530186253,"79":-0.03599038289303339,"80":0.03048274229969916,"81":0.022785112831932047,"82":0.026990566603308563,"83":-0.0060549546749187584,"84":-0.027373584483185092,"85":-0.0300333459929839,"86":-0.07144339037874849,"87":0.09983597939348475,"88":-0.04813423204653246,"89":0.0038305730428222357,"90":-0.07694910962472483,"91":0.07236656133192021,"92":-0.03692737207293944,"93":-0.018216479545948603,"94":0.1069847230237669,"95":-0.03997879182968952,"96":-0.024777473372323652,"97":-0.02906892855526203,"98":-0.06900561243486374,"99":0.028049053738526758,"100":0.05354113644453353,"101":0.05335440022316924,"102":-0.0443982144026925,"103":-0.05835601883155824,"104":-0.07728052466847973,"105":0.017156157269641193,"106":0.013936891780330288,"107":0.04758932338126139,"108":-0.030083559813857987,"109":-0.037347867795996664,"110":-0.09464587764040515,"111":-0.09647228310984442,"112":-0.003633476949691142,"113":0.03013509811301077,"114":0.0001856904521977496,"115":-0.054984330985429423,"116":-0.020435681616821303,"117":-0.07520980764602983,"118":0.0036105351056906505,"119":0.010599976086612187,"120":0.04113683494217573,"121":0.05838853084526946,"122":0.028855839092222665,"123":0.03591146789438047,"124":0.0005766455308138582,"125":-0.06289392938144407,"126":-0.00529695707721629,"127":-0.01610643692458957,"128":0.10335650475734907,"129":0.08737108281158952,"130":-0.020977677258217604,"131":-0.014822477587975093,"132":-0.053245975940485545,"133":-0.06282617719299138,"134":0.023406266557017035,"135":0.06520933019854276,"136":0.06207544689465463,"137":0.039443875822146174,"138":-0.037695673612690654,"139":0.03237531228388515,"140":0.006165534834382502,"141":0.03587520529838405,"142":0.10146440373822521,"143":-0.02010320038737934,"144":-0.013703106185381116,"145":-0.017420729054344643,"146":0.008101384123085462,"147":0.024531900496681934,"148":0.008234721107931687,"149":-0.011999208038194034,"150":-0.029759811720819224,"151":0.026576239760764845,"152":-0.025544823837949596,"153":0.09905667341635829,"154":-0.029717573327327648,"155":0.04984243156174249,"156":0.04910865034125625,"157":0.015176420961424417,"158":-0.0036770031443980975,"159":-0.011454295219866217,"160":0.01708181505488136,"161":0.0018189956844599888,"162":-0.015425097518170713,"163":0.06885557495803962,"164":0.06922271145747394,"165":-0.047791082267470496,"166":0.010277951745050865,"167":0.034937290470666606,"168":-0.03769059458612669,"169":0.02392566393657567,"170":0.12202485268057614,"171":0.02108162999495135,"172":0.016795340013715142,"173":0.02936024698255561,"174":-0.058334064212282516,"175":-0.00023367011087528858,"176":0.0551031354841552,"177":-0.008372610421287173,"178":0.012430721055275167,"179":0.04413416120703095,"180":-0.013490154895663254,"181":0.10762008910806661,"182":0.01041947494394518,"183":0.055438130439800996,"184":-0.06521912585838947,"185":0.04154598280834617,"186":0.045786828773038385,"187":0.05142878573498481,"188":0.04818514371166836,"189":-0.047260371759360466,"190":0.03917271622163761,"191":0.06579256772274286,"192":0.004689991523437628,"193":0.03224530357232546,"194":0.1253195772596336,"195":0.022773695678842257,"196":-0.013764329172697274,"197":0.12375186445447864,"198":0.04226967923309841,"199":0.024281577829127442,"200":0.02981925057662236,"201":-0.015108404840798041,"202":-0.022233638755046466,"203":0.002062506793223294,"204":0.005919713382784876,"205":0.02619164686768682,"206":0.009104070178634613,"207":0.037211764402724154,"208":0.021089819598532393,"209":-0.012662106548090515,"210":-0.04540112997600967,"211":0.01778511545878091,"212":0.009773663958447943,"213":0.06996447742473769,"214":0.0067167368477860905,"215":-0.04819991602086716,"216":0.023740837197580453,"217":0.06867320278755307,"218":0.09962257395954213,"219":-0.03662511933203951,"220":0.023078801881830174,"221":0.1263795991983165,"222":0.06445695715624493,"223":0.0048358597645716565,"224":-0.05053473389099377,"225":0.023896332494947266,"226":0.03829085681518977,"227":0.12112416506863596,"228":0.013118652041121467,"229":0.04348167795534596,"230":-0.026863053910193,"231":0.05958789928652682,"232":-0.01236377606925461,"233":-0.06271926920643979,"234":0.058964004153591015,"235":-0.004997733088754406,"236":-0.0012698689242998664,"237":-0.01043689332720098,"238":-0.006337490676890938,"239":-0.007768955562430801,"240":-0.013588561835106653,"241":0.045697822148646296,"242":0.034637624759817916,"243":0.04357506394705211,"244":-0.007905912672329776,"245":-0.020905878797650417,"246":-0.047863074277560695,"247":0.004698838434809266,"248":0.039616196659557394,"249":0.11226870126014886,"250":0.021554765922081345,"251":0.04115416425187758,"252":-0.030503297841206926,"253":-0.06335243446139843,"254":0.014709612368507681,"255":-0.11221497087690625,"256":0.11998946491855579,"257":-0.022036619480975652,"258":0.0624201843164426,"259":-0.07680675988180602,"260":-0.012318456588124197,"261":-0.06593665882801063,"262":-0.07680350923658762,"263":-0.06611482547543912,"264":0.0192444905425208,"265":0.05974101315374091,"266":-0.04159070652764338,"267":0.007071577351791917,"268":-0.20217725302002654,"269":-0.2405753896090625,"270":-0.17303972044752441,"271":-0.03732632628119587,"272":-0.027646728926640923,"273":0.020895220792829988,"274":-0.055924034770732434,"275":-0.06233395554720836,"276":0.018391231673688845,"277":-0.06332684249158767,"278":0.02263927578722888,"279":0.062401520465037025,"280":-0.0003605859436744636,"281":-0.04997202188593492,"282":-0.1458791372562619,"283":0.1491602615636723,"284":-0.06924212291871218,"285":0.0287266726554834,"286":0.020711164732403736,"287":-0.009714802182327311,"288":-0.010542620250419391,"289":-0.1562006639968115,"290":0.13832994298725618,"291":-0.27000467071620055,"292":0.04799303476582995,"293":-0.006464041330842653,"294":-0.02644727696029299,"295":-0.01788855819311645,"296":-0.22176929470001266,"297":-0.0599587016197104,"298":-0.2695541151993282,"299":-0.046483986607232526,"300":0.03164799529875713,"301":0.0005123845971474088,"302":0.045678932051440635,"303":0.09331360462575426,"304":-0.2579169243121361,"305":0.06246203255669387,"306":-0.01284118657084865,"307":-0.040346269216502195,"308":-0.015598945611468835,"309":-0.06919493242448366,"310":0.04339999840728668,"311":-0.2384370127343568,"312":0.10998686218953461,"313":-0.003316511539374271,"314":0.0006059115660448137,"315":0.026070415543642873,"316":0.07021771088211513,"317":0.2278380902626475,"318":-0.34035663592836796,"319":0.20785083598536794,"320":-0.009797535562956781,"321":-0.054332066211721666,"322":-0.08550410135120033,"323":0.017846858311102196,"324":0.2853691568293593,"325":-0.441535920817793,"326":0.18741561936406392,"327":-0.039354320268101387,"328":0.0021645246024484662,"329":0.06901287210996246,"330":0.0032186217738554286,"331":-0.10957455451920606,"332":-0.23063370843910308,"333":-0.20512451286158986,"334":-0.06954100050298495,"335":-0.039050789595666664,"336":-0.00684159600596464,"337":0.028302409732976368,"338":-0.09303368432052149,"339":-0.08945509800114988,"340":-0.05941590714316271,"341":-0.1106013986836599,"342":0.05261798631044331,"343":0.015362326785334918,"344":-0.0360796137026275,"345":-0.09063996760775597,"346":-0.09392799067652984,"347":0.016967789025511756,"348":-0.037897118383733906,"349":0.022857389271428063,"350":-0.02133695933630095,"351":-0.0037403516317671796,"352":0.07049928817317379,"353":0.02695715458045112,"354":0.17190313990181327,"355":0.00014147497157949909,"356":0.08149880803182918,"357":0.0046142840746058855,"358":0.05416378287736375,"359":-0.08507846831061197,"360":-0.17818753458507966,"361":0.007016296043358839,"362":-0.06214723593523579,"363":-0.013851561901333112,"364":-0.03872549628252304,"365":-0.023863243369795867,"366":-0.0888447684005855,"367":-0.09601955168225271,"368":-0.06147035653365692,"369":0.01132784316501817,"370":-0.03359544881268188,"371":0.015096887242812194,"372":-0.01466937983608033,"373":-0.114335350060827,"374":-0.02437525981706373,"375":-0.04075396384270627,"376":-0.02292458683900008,"377":0.0461740115008856,"378":0.016159105307870188,"379":0.035255998056056545,"380":0.09394734577065797,"381":0.031955989109526906,"382":-0.013802756993506214,"383":0.0903311820388441,"384":0.07628139574605748,"385":0.007894618058330482,"386":-0.06279213944128909,"387":0.10102879122549212,"388":-0.010110643618855105,"389":-0.020215209307389258,"390":-0.028119619388575736,"391":0.008727772203465257,"392":-0.01972185624408015,"393":-0.03649607795732501,"394":-0.022197479993078636,"395":-0.05760846269597363,"396":-0.02972674498471674,"397":0.04019579147017441,"398":0.02243441704660349,"399":-0.03617059934524836,"400":-0.006969372725389738,"401":0.11250281133342234,"402":-0.228458004544486,"403":-0.0340257529356384,"404":-0.09838941878566004,"405":0.016124761213629525,"406":0.05743934800395855,"407":-0.046390431772542096,"408":0.0480506141802668,"409":-0.23749248702729597,"410":0.08796359709115611,"411":0.031640420465661005,"412":0.017434927281281175,"413":0.020229581660593948,"414":0.007669869689594107,"415":0.03954388912730302,"416":-0.24762130588093934,"417":-0.022602608076347733,"418":0.047313286764575795,"419":0.010066965088660626}},{"sx":1,"sy":1,"depth":420,"w":{"0":-0.020746558182723626,"1":0.08116303940824926,"2":0.0361073707261915,"3":0.01221487198230571,"4":0.019445666491356102,"5":-0.03366361027801686,"6":0.015201973198198823,"7":0.020013016778844032,"8":-0.03697418148462096,"9":-0.008926012793541781,"10":-0.0009557251455503047,"11":0.01115198020549981,"12":-0.0676651381174974,"13":-0.04547768642165997,"14":0.013327558404111544,"15":0.09798639317009275,"16":0.024976384950185147,"17":-0.04759008554261244,"18":0.03889175328136584,"19":0.039729518707436656,"20":-0.04620357954597371,"21":-0.06908412277514202,"22":-0.019151336746973186,"23":-0.055700607176130845,"24":0.08967932106838152,"25":0.01863915936571197,"26":0.04136194949454327,"27":-0.010777656376871402,"28":0.0311370755810683,"29":-0.0741233414599095,"30":-0.022078957489514585,"31":-0.0023750471177910364,"32":-0.040651484111072785,"33":-0.019251925841666642,"34":-0.06304261537107372,"35":-0.015848977623072302,"36":-0.03028681020898308,"37":0.02079952386341267,"38":0.04821508752288098,"39":-0.000554184207808192,"40":0.060886150555878676,"41":-0.04694924292177553,"42":0.004765612390441942,"43":0.01483721735549751,"44":0.03622909438104379,"45":-0.009174493914734579,"46":0.04237852752271855,"47":0.018638870898031037,"48":0.07694203645681778,"49":-0.07519326016197372,"50":-0.022452333269034515,"51":0.015935766681829718,"52":0.025797072147309977,"53":0.05327344675462114,"54":0.002458433921691696,"55":-0.05786273745852746,"56":0.10180278070715455,"57":-0.08128351188984304,"58":0.02939479790635526,"59":-0.041030976982928485,"60":-0.07130670828373466,"61":-0.03350453392591138,"62":-0.01659308812250037,"63":-0.023444762517951724,"64":0.010410274203477024,"65":-0.09796251997481625,"66":-0.004909919371706346,"67":0.004642818050636994,"68":0.06673064617477206,"69":0.0066356897427939255,"70":-0.08302894433168398,"71":-0.02532189260111569,"72":0.007598446363328588,"73":0.010451934969957352,"74":-0.0619070996110738,"75":0.06721424133119891,"76":-0.04331138381996016,"77":-0.007707305794179593,"78":-0.05741077248326678,"79":0.06637307893419929,"80":0.0060764557989695135,"81":0.000757759708643459,"82":0.07875159551679026,"83":-0.04076968486602895,"84":-0.02865477856841863,"85":0.018335548371448684,"86":0.012868165501594593,"87":-0.014310435950693715,"88":-0.054645390747729394,"89":-0.07747486077092806,"90":0.08232826278271148,"91":-0.08244020206520467,"92":-0.023986959579422113,"93":-0.008608008080598159,"94":-0.005994247341236787,"95":-0.040012062015048734,"96":0.013520133441663177,"97":-0.014571538845881742,"98":-0.00991803030794544,"99":-0.03487202655262156,"100":0.07395650564400716,"101":0.0727449791538721,"102":0.048900673093138364,"103":-0.05263452136983202,"104":-0.06052752358719707,"105":0.011729798072487424,"106":-0.017337397401765913,"107":-0.02113677849511331,"108":0.01208645897607562,"109":0.03224683183641535,"110":-0.02261280640327383,"111":-0.035486780415315576,"112":-0.0842478009111946,"113":0.05315496190330155,"114":-0.0006077644511251312,"115":0.12088460392707631,"116":0.01911433842937127,"117":0.023538746113856267,"118":0.007671412099034246,"119":0.02830958602181256,"120":0.03762209213028875,"121":0.010256541623056298,"122":0.01502232120916914,"123":0.03369255275467089,"124":0.07331715205026415,"125":-0.10453019141634182,"126":0.009647389165831336,"127":-0.03210193610424064,"128":-0.02027950303953369,"129":0.004531322061996936,"130":-0.01685759553412772,"131":0.019457990552583602,"132":-0.11211410436777462,"133":-0.021503615531859782,"134":-0.08072693799459994,"135":0.017904888966698545,"136":0.07378535187646948,"137":0.08647874539417284,"138":0.02911583189869983,"139":-0.056953583816072545,"140":0.0005851281820146644,"141":-0.026030716320625386,"142":0.06713893987063052,"143":-0.03246933052270966,"144":0.0015841753320666788,"145":0.05540018395489439,"146":-0.022284535178333467,"147":-0.021191549789503973,"148":0.026182922899180828,"149":0.04342824655353153,"150":0.015060610767019022,"151":-0.04744644124311229,"152":-0.006308622862703281,"153":-0.042097495418145156,"154":0.000009185685415820998,"155":-0.034363441928256015,"156":0.046106269934994164,"157":-0.005846849674914292,"158":-0.02270383497333919,"159":-0.10327468993591955,"160":0.11380481146276498,"161":0.002134071095693021,"162":0.011430626796145484,"163":0.024305031628413434,"164":0.024001225586506976,"165":0.06150121121733345,"166":0.07097117514020908,"167":-0.12386019042115878,"168":-0.0026070419792540893,"169":0.021481232847067107,"170":-0.052726313802216394,"171":0.05478675143607999,"172":-0.08819090927642664,"173":-0.0731643319998704,"174":-0.018373526870192038,"175":-0.03856270478084784,"176":-0.03732525094667409,"177":0.003308709215379284,"178":-0.07671961194522461,"179":-0.042094777701164175,"180":0.015794545310656705,"181":-0.05918815602277391,"182":-0.05061654252448951,"183":-0.024196102900884763,"184":0.0028770855662537914,"185":0.03141492658564748,"186":-0.014074197618263937,"187":0.04917177037684988,"188":-0.10794126116951251,"189":0.0000987704187108788,"190":-0.04885228260596711,"191":-0.01460963386488803,"192":-0.05413191631993128,"193":0.006921797240953106,"194":-0.01652154879362279,"195":0.055236257855281745,"196":-0.059375017560120084,"197":-0.010120743163795744,"198":-0.001952942325813477,"199":0.08430116604821797,"200":-0.021323856826813672,"201":-0.07594141873248979,"202":-0.029987504750872515,"203":0.03187380058172667,"204":-0.010709799885638319,"205":-0.049166640802218324,"206":0.04438306203548183,"207":0.003443983785008923,"208":0.046236879630999046,"209":-0.006439487767375755,"210":-0.08015070628431584,"211":-0.03435369676661847,"212":0.016083587598145998,"213":0.026217195487117862,"214":-0.01606901386189365,"215":-0.0642993242281263,"216":0.029734503731882946,"217":-0.038608534815466826,"218":0.005279954417511681,"219":-0.03668962268828972,"220":-0.02871264033460884,"221":-0.019850535304235698,"222":0.010131609763710395,"223":-0.01405539956461481,"224":-0.028860085534192895,"225":-0.029562450667817288,"226":0.06611128823272193,"227":-0.01750536807091516,"228":-0.0813988742001364,"229":-0.07363876846975771,"230":0.04828411642803463,"231":0.014130377745786538,"232":0.007143382666143452,"233":-0.014561809641483186,"234":0.03458407175667575,"235":-0.07224720337046082,"236":0.04969252947349387,"237":-0.06512751217830043,"238":0.015008414487282582,"239":-0.01797921590686965,"240":-0.06231636608767177,"241":0.012462337009606425,"242":0.000726341026966435,"243":-0.019569675367622316,"244":-0.08732598259822755,"245":-0.01857245865065538,"246":-0.01214086489333575,"247":-0.016831233419919045,"248":0.0649168804759995,"249":0.06700992474339887,"250":0.011025897835223451,"251":-0.018448665718280185,"252":-0.07876596554258923,"253":-0.0009608431911536882,"254":-0.09167888177904446,"255":0.021399286987326738,"256":-0.029255640707205374,"257":-0.06182774423161372,"258":0.012167757210788362,"259":0.049093336082511096,"260":-0.04762938667651642,"261":-0.0422571833050514,"262":-0.07933846444995353,"263":0.0026717863919380152,"264":-0.015264213365609108,"265":-0.030000697771357412,"266":0.027757277719208235,"267":-0.03065289590720285,"268":0.014223604199217829,"269":0.09810594602412019,"270":0.015046606767484406,"271":0.04854907076187026,"272":-0.08382045631985398,"273":-0.022640741060799753,"274":-0.11124546435289534,"275":-0.011744210304247724,"276":-0.03882617984079415,"277":0.08674921064138735,"278":-0.006108942838510928,"279":0.023465209101650987,"280":0.01990508569051793,"281":-0.004228757539942033,"282":-0.02688149592939515,"283":0.024879176043755964,"284":0.008217226143104,"285":-0.050054897578662015,"286":-0.1082564018991894,"287":-0.06943396230825576,"288":-0.04039720201304781,"289":0.015105844242925694,"290":0.08879381774992308,"291":0.05900863570305691,"292":0.101954842992525,"293":0.00008243033980190558,"294":0.003482640895648443,"295":-0.017273089745606686,"296":-0.1239017916085747,"297":-0.08349724656589114,"298":0.07966853038403493,"299":0.055549431827926966,"300":0.008393849332003867,"301":-0.001358701181337743,"302":0.009738242556132308,"303":0.007418034368318441,"304":-0.09043952023857352,"305":-0.029814306892516778,"306":0.025143780250640017,"307":-0.023110792703431065,"308":0.000179666175785424,