
//<![CDATA[

// a few things don't have var in front of them - they update already existing variables the game needs
lanesSide = 3;
patchesAhead = 54;
patchesBehind = 12;
trainIterations = 600000;

// the number of other autonomous vehicles controlled by your network
otherAgents = 0; // max of 10

var num_inputs = (lanesSide * 2 + 1) * (patchesAhead + patchesBehind);
var num_actions = 5;
var temporal_window = 0;
var network_size = num_inputs * temporal_window + num_actions * temporal_window + num_inputs;

var layer_defs = [];
    layer_defs.push({
    type: 'input',
    out_sx: 1,
    out_sy: 1,
    out_depth: network_size
});
layer_defs.push({
    type: 'fc',
    num_neurons: 24,
    activation: 'relu'
});
layer_defs.push({
    type: 'fc',
    num_neurons: 36,
    activation: 'tanh'
});
layer_defs.push({
    type: 'fc',
    num_neurons: 36,
    activation: 'tanh'
});
layer_defs.push({
    type: 'fc',
    num_neurons: 24,
    activation: 'relu'
});
layer_defs.push({
    type: 'regression',
    num_neurons: num_actions
});

var tdtrainer_options = {
    learning_rate: 0.001,
    momentum: 0.0,
    batch_size: 128,
    l2_decay: 0.01
};

var opt = {};
opt.temporal_window = temporal_window;
opt.experience_size = 100000;
opt.start_learn_threshold = 6000;
opt.gamma = 0.98;
opt.learning_steps_total = 600000;
opt.learning_steps_burnin = 1000;
opt.epsilon_min = 0.0;
opt.epsilon_test_time = 0.0;
opt.layer_defs = layer_defs;
opt.tdtrainer_options = tdtrainer_options;

brain = new deepqlearn.Brain(num_inputs, num_actions, opt);

learn = function (state, lastReward) {
brain.backward(lastReward);
var action = brain.forward(state);

draw_net();
draw_stats();

return action;
}

//]]>

/*###########*/
if (brain) {
brain.value_net.fromJSON({"layers":[{"out_depth":462,"out_sx":1,"out_sy":1,"layer_type":"input"},{"out_depth":24,"out_sx":1,"out_sy":1,"layer_type":"fc","num_inputs":462,"l1_decay_mul":0,"l2_decay_mul":1,"filters":[{"sx":1,"sy":1,"depth":462,"w":{"0":0.03342885906688368,"1":0.0549928847771664,"2":-0.05522394896389714,"3":0.0388193963783753,"4":0.006170849084004015,"5":-0.024242537257848643,"6":0.04024537625398651,"7":-0.017765638334879118,"8":-0.055790909527530325,"9":-0.05335307755342557,"10":-0.022533986873787337,"11":-0.06420159262145415,"12":0.004781520738512241,"13":-0.046148000922052866,"14":0.028448012878097496,"15":0.26385845559911364,"16":0.17121855566815308,"17":0.07312681134802156,"18":-0.03650477532168585,"19":0.014491822213713194,"20":0.010119556798746909,"21":-0.14955291821923125,"22":0.3677321181238164,"23":0.17123047359867025,"24":0.11638845738844944,"25":0.12482983125450914,"26":0.06301467586708064,"27":0.023354080478828476,"28":-0.0639054566084097,"29":0.05004771559662787,"30":-0.014357182266469874,"31":0.0014277277539507505,"32":-0.06254825916474606,"33":0.002253713204438412,"34":-0.006937988563342161,"35":0.08159665608957065,"36":0.119559386869868,"37":0.11131350725977832,"38":-0.06577707185410879,"39":-0.1877836019107523,"40":0.11629126551409733,"41":-0.035350608507955524,"42":-0.20935277417925255,"43":-0.02785652916130653,"44":0.11096204203844973,"45":-0.11062435761005324,"46":-0.05823881317207924,"47":0.09777131362260376,"48":0.030022924010005538,"49":-0.21044873919182439,"50":0.22233591527466878,"51":-0.14357858573813456,"52":-0.01865768479031849,"53":-0.07437580900562117,"54":0.04756059201353498,"55":0.042847716826655134,"56":-0.35130864303467196,"57":-0.011607496990668924,"58":-0.11991057261334989,"59":-0.1565981367136571,"60":-0.009767912654250003,"61":-0.005996590483242855,"62":-0.00924477038969758,"63":-0.19470500053304188,"64":0.02778665454167441,"65":-0.1111502345100904,"66":0.08594696594309174,"67":0.16046843190275276,"68":0.022449849441015614,"69":-0.051660440386322844,"70":0.021653599656705144,"71":0.04003529377803256,"72":-0.18501541426864387,"73":-0.23165569484549436,"74":0.15270542143744933,"75":-0.10946639360238881,"76":-0.02100397306481006,"77":-0.02263204829458618,"78":-0.04912952030596662,"79":-0.1679894225937747,"80":-0.11184895721466881,"81":0.14463879722005804,"82":-0.09752504898498465,"83":0.08977386698089633,"84":0.07446838359989054,"85":0.11702543793427317,"86":0.023410714435392832,"87":-0.13486415534774962,"88":0.18127877937847772,"89":-0.06464039164202201,"90":0.015116647513496761,"91":0.11392485042763487,"92":0.11414802564373196,"93":-0.01427770195273358,"94":-0.05393134420821988,"95":-0.0026989080685222164,"96":-0.1323929453598566,"97":-0.007805624110062445,"98":0.10114916772913417,"99":0.11217828714854794,"100":-0.10124669875155583,"101":-0.15715357908670552,"102":-0.06974860608235288,"103":-0.17509974811821888,"104":0.07323032790685527,"105":0.132526875553964,"106":-0.028240012665529186,"107":-0.16319217988139423,"108":-0.32987766150768794,"109":0.09299579700651296,"110":-0.18428815113431768,"111":-0.008991381489529748,"112":-0.04666687843486759,"113":0.10496486316514968,"114":0.02288988115937336,"115":-0.37764235493542325,"116":0.04656639771419284,"117":-0.20846500074077076,"118":-0.12098281490686033,"119":-0.09272021032803515,"120":0.1585539161636016,"121":0.017563650323394502,"122":-0.11553406870999272,"123":0.2217715716912338,"124":-0.256406455098706,"125":0.021933196781791578,"126":-0.09606966911658717,"127":0.04355683675892408,"128":0.2093408497908136,"129":0.04991108339042637,"130":0.1548867011663022,"131":-0.08822258964339427,"132":-0.09950738784823919,"133":-0.042035564031811884,"134":0.1188392161294299,"135":0.04522372501466422,"136":-0.049501969489891134,"137":0.10196359210789073,"138":-0.08012933154833535,"139":-0.016144263233162377,"140":0.05608971846272115,"141":0.27427652768380256,"142":-0.14192892469637083,"143":0.22558171891539155,"144":0.08002008374697889,"145":-0.04373236276266782,"146":0.09689874930223467,"147":0.007721645196459707,"148":0.09185057645200287,"149":0.10023277343458811,"150":-0.11682131431593096,"151":-0.003870340328021653,"152":0.019706637461081766,"153":-0.03682629096640857,"154":-0.019105970656063245,"155":0.04963922318742256,"156":-0.009765457029908902,"157":-0.28739572855289786,"158":0.0895417314349799,"159":-0.009142629432397435,"160":0.040566076611780535,"161":0.03178691572401137,"162":0.029496510897258986,"163":0.07781821392803898,"164":-0.07859454078671825,"165":-0.08428893582732283,"166":0.0961990768432359,"167":-0.02791777956556817,"168":-0.0032672095557593145,"169":0.23524610768950183,"170":0.1918716553029301,"171":-0.02073223598950475,"172":0.18747988113547467,"173":-0.020235139974129564,"174":-0.04808722286542789,"175":-0.05555704074283111,"176":0.17582561921321144,"177":-0.004562892543282394,"178":0.05045473920646284,"179":-0.0778651092474511,"180":-0.08649157832162975,"181":0.006218107405676348,"182":0.14673059154976306,"183":0.06553027782969692,"184":0.20388313415435216,"185":-0.04369493559042397,"186":-0.2328138394202895,"187":-0.01086105163232172,"188":-0.04738408193518089,"189":-0.053831567301025375,"190":0.1799695988409772,"191":0.12940077240321893,"192":-0.015243549060049023,"193":0.00921449479120666,"194":-0.02335025713075361,"195":-0.04727653283436012,"196":-0.00716780982274583,"197":0.032514563682749485,"198":-0.08628667693761097,"199":-0.07179472596450844,"200":-0.25227078012757653,"201":0.09987480616950327,"202":0.02932023074160255,"203":0.023516586095821534,"204":-0.15027896405599084,"205":0.045338210831653514,"206":-0.046407904721460815,"207":-0.15143668240292274,"208":0.0428492998023685,"209":0.06122865890156557,"210":-0.16040541615744203,"211":0.10446161985573818,"212":-0.013408588795100323,"213":-0.22056425654223685,"214":-0.05965747153304059,"215":0.03261682846886651,"216":0.10137791127829472,"217":-0.18642156400512663,"218":0.04191070798082781,"219":0.032120223426804144,"220":-0.1534790851914431,"221":-0.24540804978313507,"222":0.07045861694451509,"223":0.11665190950199776,"224":-0.04403753784870946,"225":-0.03867523456780438,"226":-0.16260723821749942,"227":-0.1263360367787711,"228":-0.09422147348578198,"229":-0.12689797279577927,"230":0.0883109627315095,"231":-0.14839099349817134,"232":-0.11281124844715956,"233":-0.22868498831749348,"234":-0.3132769083278107,"235":0.05182579656145533,"236":-0.13313931288143663,"237":0.04961136421394173,"238":-0.026016711236051596,"239":0.2882276626396401,"240":0.009516209226924626,"241":-0.41031060156720195,"242":-0.11413224515250595,"243":-0.1657776720782247,"244":0.010165961909595608,"245":-0.045164808296431415,"246":0.059779489657384624,"247":-0.05498340792426142,"248":-0.35279880714656175,"249":0.19916152558373798,"250":-0.07614305518984522,"251":0.024179248902813158,"252":-0.1543245385930167,"253":0.17598863161083309,"254":-0.14137973325957903,"255":-0.3453714910666716,"256":0.019733503632650442,"257":-0.06638588581522016,"258":-0.15173952900087728,"259":-0.03838133708431861,"260":0.06272921323699454,"261":-0.02592143205677645,"262":-0.2601130946227648,"263":-0.06675631779685955,"264":0.13346692947376324,"265":-0.09957213863163247,"266":-0.12998585822067812,"267":0.16046489539438083,"268":-0.20289462849373266,"269":-0.08815360703235788,"270":0.08372230611731858,"271":0.08587294197752596,"272":-0.008205066632754141,"273":-0.023100447891039207,"274":0.268268782607291,"275":-0.0809524517170089,"276":-0.18277917564464569,"277":0.14998856903104268,"278":-0.001332883604166028,"279":-0.2073867521785663,"280":-0.09836254666865593,"281":0.3322126726885909,"282":-0.009321081627313274,"283":-0.16213688545695254,"284":0.15182153676941723,"285":-0.053345201387791814,"286":-0.06081066495937433,"287":-0.03622557267955425,"288":0.3229081111416567,"289":0.15309174922754032,"290":-0.019012209089012595,"291":0.14251105238757555,"292":-0.0009326945885684015,"293":0.01417583809674849,"294":-0.08344949448363238,"295":0.07191577073193853,"296":-0.010745658771431696,"297":-0.19207839002168045,"298":0.08218124930314362,"299":-0.019010367857658823,"300":0.0029236742301526233,"301":0.16516728984177664,"302":0.36124677639926045,"303":-0.046927110459420614,"304":-0.008485936619709747,"305":-0.054420042217321045,"306":-0.08471113954743263,"307":-0.02027849115646668,"308":0.22526980245248215,"309":0.3496487122077058,"310":-0.151777544779871,"311":0.01650694176975012,"312":-0.07631115203715665,"313":-0.038767568498207186,"314":-0.06518125855441333,"315":0.2966371165808789,"316":0.42575470748780386,"317":-0.06707928908265197,"318":-0.09243803145780861,"319":-0.1923251785521355,"320":-0.07766878287035704,"321":-0.10734429513012515,"322":0.21032343923379557,"323":0.2803347725105056,"324":-0.02703781697398659,"325":-0.034021216692102486,"326":0.020190502081266132,"327":-0.14999908029275977,"328":-0.1724888167039087,"329":0.015875411974609056,"330":0.08345438250055895,"331":0.021349722555174887,"332":0.054270965389668684,"333":-0.3822399078829652,"334":0.011692699832017393,"335":0.025827374755502907,"336":0.12231978109654434,"337":0.07384669647769146,"338":0.23443113260137774,"339":-0.4899719618012409,"340":-0.4471889823027825,"341":-0.12529925005746465,"342":-0.12060760542983055,"343":0.05620438635303678,"344":0.15068690519407593,"345":0.2681487620530426,"346":-0.4151956364426094,"347":-0.18060515127982094,"348":-0.10578383562464316,"349":-0.08547867675070324,"350":0.12018273846899685,"351":0.2792564555800935,"352":0.541542657672755,"353":-0.3262589682161626,"354":-0.35205305846652185,"355":-0.10190447372348739,"356":-0.029708475979505374,"357":0.18757632679679517,"358":0.2648521512838475,"359":0.5186453378716053,"360":-0.2088660324562102,"361":-0.01778484983558703,"362":-0.03329631405275033,"363":-0.1410218650611663,"364":0.21333372020365834,"365":-0.01647675692853616,"366":0.36873750416278017,"367":-0.16424743399627845,"368":-0.0687439614373037,"369":0.03676550906081725,"370":-0.06333469142828595,"371":0.033070611120121,"372":0.1431413291550797,"373":0.23464155414782312,"374":-0.20914126652903187,"375":-0.14794793705903078,"376":0.17159276118923864,"377":-0.06810464638890418,"378":0.027855741160648196,"379":0.1252848965132719,"380":0.34906787102610864,"381":-0.03474321832083685,"382":-0.39519186813050045,"383":0.11011337864839843,"384":-0.11419728608397753,"385":-0.03832567909183535,"386":0.2763963665906681,"387":0.07372157917871663,"388":-0.05290343938468092,"389":-0.18037496877221654,"390":0.016851019290473866,"391":-0.01692945198209337,"392":0.18022754292502938,"393":0.14427190986929692,"394":0.034914326647666846,"395":-0.025916122824290642,"396":-0.1316481149369574,"397":-0.008310581822300605,"398":-0.053165403471236654,"399":0.1040871206269058,"400":0.07147306824205812,"401":0.13009407430634287,"402":0.07772896898482763,"403":-0.06863518806564582,"404":-0.14907244544184858,"405":-0.02912650615002509,"406":0.04395121533856915,"407":0.24026630405670285,"408":0.008918797465107006,"409":-0.25537833076359356,"410":-0.024558061681750242,"411":0.002010973494872425,"412":0.05140838353412833,"413":-0.15613125796712196,"414":0.07025144086718041,"415":0.11641451395251821,"416":-0.1389328464310384,"417":-0.14396282791184525,"418":-0.004410231486157619,"419":-0.050570329007363156,"420":-0.19248260457887906,"421":0.10430937016882026,"422":0.005625565831538075,"423":-0.2460747516178073,"424":-0.06995444549870826,"425":0.01644710182303858,"426":-0.01254530321723979,"427":-0.0838617396514114,"428":0.08389739721155168,"429":-0.01944602297619116,"430":0.19410871494513257,"431":0.058715813031440876,"432":-0.002501752491204992,"433":-0.060858535268299596,"434":-0.0900757102992718,"435":0.12820764300795,"436":-0.014842116493895099,"437":-0.25783572953877615,"438":0.20149505959208927,"439":0.06370359969861468,"440":-0.08165627581591466,"441":-0.2752997276648583,"442":-0.07201520879896933,"443":0.1903215109010628,"444":-0.1692754543535048,"445":-0.01537687251036474,"446":0.12790476057594774,"447":-0.15855519969699983,"448":0.05039655307109785,"449":-0.03300244086830718,"450":0.1756510107436028,"451":0.028250047659016852,"452":-0.06450519565323436,"453":0.0418193146738483,"454":0.00440264651720385,"455":0.027371495797023526,"456":0.09978973088321959,"457":0.04085857545677342,"458":-0.046293366492273905,"459":0.019210497853662953,"460":0.009786433440554134,"461":-0.09675426302672199}},{"sx":1,"sy":1,"depth":462,"w":{"0":0.03275438901106505,"1":-0.013632800826590376,"2":0.04314478441054374,"3":0.003619181245428071,"4":0.05310884543999977,"5":0.09478719554725101,"6":0.018640634866096906,"7":0.02234798824371597,"8":0.03843409954273886,"9":-0.03125666127721183,"10":-0.07252030761646812,"11":0.0009225283294063901,"12":-0.07492425475520793,"13":-0.07434733096840679,"14":0.002451767597645678,"15":0.10179106481691418,"16":0.10198761341342528,"17":0.07695577075523542,"18":0.11515690202917306,"19":-0.19906976538541402,"20":0.08813892790541651,"21":-0.03780883416755411,"22":-0.130919843249514,"23":-0.01848335127212463,"24":-0.06179167320095509,"25":0.07287234810311617,"26":-0.11279541431528425,"27":-0.07371918429684582,"28":-0.031456744364150045,"29":-0.09886014152099823,"30":0.14669902532047926,"31":0.01652710543595664,"32":0.013234340588599333,"33":0.04066626829843867,"34":-0.3018664250641365,"35":-0.12486871483178791,"36":0.04315441166956489,"37":0.010913225909841732,"38":-0.09529950656075252,"39":-0.0030166516660893095,"40":-0.12582835432729536,"41":-0.049998669601784694,"42":-0.05420909505430662,"43":-0.04433434143933244,"44":-0.10645887415777386,"45":-0.14675708716672878,"46":0.029033078541029662,"47":-0.016931866036240334,"48":0.1373191536296017,"49":-0.040236880592090775,"50":0.03560780763946908,"51":0.021538378382240445,"52":0.13992727126228205,"53":-0.00023249731050622514,"54":0.0821237187140063,"55":0.1257363949738952,"56":-0.04867823789835579,"57":-0.1529525626194152,"58":0.038063041555145345,"59":0.0611749497706786,"60":-0.05152056937325837,"61":-0.020896179777215716,"62":0.0021175655075308143,"63":0.017655080658099915,"64":0.02004286590108125,"65":-0.08713723471979921,"66":-0.001571370369074016,"67":-0.03937173971778315,"68":-0.1888275551945497,"69":0.030632485094800068,"70":-0.08589791640064633,"71":-0.05346272631221369,"72":0.035086066859015476,"73":-0.014144519957846503,"74":0.018526383432778848,"75":-0.03056441081003523,"76":0.09929470665944262,"77":-0.21230012749408303,"78":-0.15403181511092465,"79":0.08156412924486171,"80":-0.00622611556167064,"81":0.013059654249842489,"82":-0.04630895376513634,"83":0.01194394159087192,"84":-0.026100314839398668,"85":0.07714945393550837,"86":0.009255235454456228,"87":-0.1931769778504637,"88":0.010735691754597713,"89":-0.11305424794583202,"90":0.20263947433857665,"91":0.15689082474486943,"92":0.11892025843646631,"93":-0.10728313815407695,"94":-0.15266187748790835,"95":-0.038536183200300125,"96":-0.03019567740237891,"97":-0.004233210563990675,"98":-0.15700937135100157,"99":-0.17851887574780723,"100":-0.054028924523940786,"101":-0.04198215675551845,"102":0.015495202865993119,"103":0.03322578792632478,"104":-0.11900443270465072,"105":-0.33512616122482203,"106":0.021745652605503603,"107":-0.11324547721924294,"108":0.1411189000355636,"109":-0.12967734853254914,"110":-0.05179325287335806,"111":-0.09043824842738812,"112":-0.2156267797755241,"113":0.018136208492822298,"114":0.0717489563886209,"115":0.041294536472240184,"116":-0.14636712962808393,"117":0.0313731593326003,"118":0.006810836929959471,"119":-0.15981746499034774,"120":-0.09507374298268209,"121":0.0419573423051045,"122":-0.07001385295041805,"123":0.13766117356714444,"124":-0.09217152741321435,"125":0.018824229733835084,"126":-0.1416377057933148,"127":-0.20478602111870023,"128":-0.01619056839030615,"129":0.004291554168678451,"130":0.0513125513155104,"131":-0.16471604980763063,"132":0.06122671211377827,"133":0.1106501548580237,"134":-0.11269956616775757,"135":-0.08723297202433897,"136":0.10570230497809135,"137":-0.07807877558840891,"138":0.07463439043499784,"139":-0.0642903913564489,"140":0.11303887228272394,"141":0.027019856919015865,"142":-0.03389700835842314,"143":-0.22364745191658367,"144":-0.1890607852368315,"145":-0.06811984170923979,"146":-0.03554495935995689,"147":0.055815865995736964,"148":-0.0920823909748889,"149":-0.040607721288597305,"150":-0.008936912255872263,"151":0.08645659165715353,"152":-0.0873592896246046,"153":0.008006201954833415,"154":0.08771047313780664,"155":0.02294719430713437,"156":0.18692042862092292,"157":-0.04787557384176075,"158":0.03110123433308125,"159":0.23641451071720263,"160":-0.08764746434931835,"161":-0.13674739795011595,"162":-0.0224561846459059,"163":0.17380027468851883,"164":-0.09895091879789603,"165":-0.010356538371611516,"166":0.21197745612897928,"167":0.13754444099796231,"168":0.18624513087319752,"169":0.015428378026761027,"170":-0.07638022708881306,"171":0.27147889308453715,"172":0.035987041569852496,"173":-0.0021592259659938646,"174":-0.03854975560529724,"175":0.16689979603665211,"176":-0.14217881039510566,"177":0.168734804854792,"178":-0.01965858394901033,"179":-0.11943196707329759,"180":-0.10638517858421216,"181":0.08294801454064732,"182":0.14312255259723525,"183":-0.10701374392472725,"184":-0.10014092579012997,"185":-0.14834173768709127,"186":0.01945845128819209,"187":0.05688801927817784,"188":0.022832139556647542,"189":0.15188449661617587,"190":-0.021915477961205434,"191":0.05866965460701761,"192":-0.10290889942008687,"193":0.016932400470629726,"194":-0.10101961256675385,"195":0.0970589282026304,"196":-0.12491703442380657,"197":-0.1699247380509373,"198":0.07302532999540506,"199":-0.059017737701034745,"200":0.03504851024314643,"201":-0.1277551652479239,"202":-0.14118849949980244,"203":-0.05609745689707603,"204":0.006669848641965963,"205":0.2695422204252402,"206":-0.005727463385670959,"207":-0.07193637880578083,"208":0.017645366075160457,"209":-0.09788564550873897,"210":0.03581884671283534,"211":0.04570430719824839,"212":0.06961505722329084,"213":-0.03233318300357463,"214":-0.1623193949566033,"215":-0.021164079263402007,"216":-0.011591751569919841,"217":-0.07153830330777251,"218":-0.0513146733404009,"219":-0.042370430979855885,"220":-0.01941150383587503,"221":-0.05021342977900013,"222":-0.20558191780934962,"223":-0.07348469704516786,"224":-0.09477836691936692,"225":0.057139420691238244,"226":0.012422239435029401,"227":0.1631951375578459,"228":-0.20533681681212143,"229":-0.051555771351193394,"230":-0.012737464211468378,"231":-0.006430723334406146,"232":-0.10849136836376204,"233":0.07396956152898426,"234":0.14042195718598513,"235":0.11406255695658193,"236":-0.030535713952821775,"237":0.014062178697626392,"238":0.18646357775559927,"239":-0.07819978562940663,"240":0.15614742646738322,"241":0.01621651276706213,"242":0.12620674741784252,"243":-0.20331505146396053,"244":-0.09832406296826247,"245":-0.06572308756351943,"246":-0.0454019107169081,"247":0.03681484684244266,"248":-0.10269894876975928,"249":-0.09707726482079491,"250":-0.17120311594631196,"251":-0.002126054732173897,"252":0.07869725702107021,"253":0.06852313812340594,"254":-0.18743758704919347,"255":-0.04749166628810689,"256":-0.024503367589367872,"257":-0.1348050223601957,"258":0.03724591762849205,"259":0.004004527494765963,"260":0.2711630167315055,"261":-0.051424520257054046,"262":-0.07680871514393878,"263":0.039623128802434494,"264":0.03195895043090866,"265":0.11581434340134206,"266":0.14237247430819758,"267":0.1966249281861694,"268":0.11550201870001703,"269":-0.047254924263951774,"270":-0.08519746169042369,"271":0.024260686175823803,"272":0.08705440079282233,"273":0.15952474286955634,"274":-0.07540117548916571,"275":-0.18014628304517571,"276":-0.15125930865820722,"277":-0.02919327673839737,"278":-0.041312468852282444,"279":0.03960894335726081,"280":0.1779650087275222,"281":-0.10012352694213657,"282":-0.22871294744229256,"283":-0.12734344621133775,"284":-0.0326860306208506,"285":0.1703388094879731,"286":0.04464310045496346,"287":0.14346396128313293,"288":0.12147120163794983,"289":-0.03597346348375159,"290":-0.11862135941036368,"291":-0.06211979699428035,"292":-0.07519047730302941,"293":-0.17007498526370063,"294":-0.11895173727890002,"295":0.012755335124728585,"296":0.06905709184268105,"297":-0.24233911287476137,"298":-0.15441732841184713,"299":-0.006072247777054671,"300":0.05609601346856878,"301":0.02497097763497147,"302":0.078249461850474,"303":0.07198286976826444,"304":-0.29086686728766314,"305":-0.23920418235697605,"306":0.04217312129359813,"307":-0.047613631035410595,"308":-0.10917838012833674,"309":-0.07036423332661111,"310":-0.10747155757982553,"311":-0.43314521370978326,"312":0.07746954451059676,"313":-0.08366982364024003,"314":0.03511937799662929,"315":-0.004095620905310111,"316":0.13598573558522156,"317":-0.11920962612410875,"318":-0.5682509377956023,"319":-0.03170247262727025,"320":-0.03600572987068381,"321":0.08396902578892962,"322":-0.12131270815539652,"323":0.10771110889820333,"324":-0.11213468233997224,"325":-0.673813407471051,"326":-0.034076084613649284,"327":0.10609862157872682,"328":-0.0059219017897596685,"329":0.10963891144769576,"330":-0.00723037400404744,"331":0.3217955800236488,"332":-0.7318866949644565,"333":0.015028307787394576,"334":-0.11619869289174888,"335":-0.03307036808940178,"336":0.12934755037509443,"337":0.02718953355072009,"338":0.6895525635757818,"339":-0.9148284137063685,"340":0.0859750027288562,"341":0.08361007696248426,"342":-0.1750251056662649,"343":-0.15547079604294645,"344":0.196366394423853,"345":0.9827284235093013,"346":-1.0593395022537049,"347":0.04516994723194113,"348":-0.016996111232177313,"349":-0.02022605419743777,"350":0.04646178025718534,"351":0.30286628281304123,"352":0.7427379676587469,"353":-1.0559522507603893,"354":0.22481524210801138,"355":0.14847177137172424,"356":0.11995177630307757,"357":-0.03529638302001617,"358":0.15736254779089603,"359":0.8806237638224371,"360":-0.9954618311127499,"361":0.1941384286475246,"362":0.09307710847174701,"363":0.053827048166307054,"364":-0.2061411822733207,"365":0.1562294308558256,"366":1.1630677269491014,"367":-0.988104872496321,"368":0.01746361279230118,"369":-0.14058079838373574,"370":0.05353106542872925,"371":-0.09321066643919221,"372":0.30394411105506314,"373":1.8815040577573294,"374":-0.7366872826334337,"375":0.05683023144976571,"376":0.2092207542900159,"377":-0.08239892679857899,"378":0.047273672207219654,"379":0.24975584275016238,"380":1.392251733867951,"381":0.03491860788790827,"382":-0.015147987345296033,"383":0.046664891124001316,"384":-0.037942217224521096,"385":0.01936708562468053,"386":0.1553889900366522,"387":1.2308079093499271,"388":-0.014859407594327972,"389":0.024090755772115256,"390":0.03850540746363444,"391":0.11987650604905539,"392":0.00475415041296756,"393":0.01248322247487546,"394":1.5635502654397642,"395":0.0481669149806013,"396":-0.009013765181761281,"397":0.09316522539036069,"398":0.05101518932539032,"399":-0.23732005941637152,"400":0.09761542118344316,"401":2.222100086130017,"402":0.10092520938935386,"403":-0.11572040199008138,"404":0.012182143874590335,"405":0.18984754384053695,"406":0.18740339900590613,"407":0.09596115298507665,"408":1.1448141184638112,"409":-0.8036945966170164,"410":0.05857273068900481,"411":0.12103255621050166,"412":-0.08676334206874456,"413":-0.027704404567586976,"414":0.025518413523923096,"415":0.720081599577635,"416":-0.7920495166603744,"417":0.0031869492751816506,"418":0.05115930513605854,"419":0.14088329618770934,"420":-0.020859485867109222,"421":-0.05797811975151211,"422":0.6574711996226525,"423":-0.7753842511493303,"424":-0.032528606540072634,"425":0.16084095397432696,"426":-0.2487773138570747,"427":-0.1676533590762552,"428":-0.01373553342975096,"429":-0.13050529884318818,"430":-0.3935480145841548,"431":-0.014562889232239693,"432":0.060529893704732496,"433":-0.14304159278532788,"434":0.1059785254022213,"435":0.09571514608488328,"436":0.21223985855725294,"437":-0.19623519507097628,"438":0.11097574766725606,"439":0.046400615910975815,"440":-0.0888584701956147,"441":0.24207818675948697,"442":0.10838940203325918,"443":0.31068536651699563,"444":-0.1346286849903926,"445":0.22163317451191086,"446":0.2849459993107769,"447":0.0077199987459240565,"448":0.15289510296854963,"449":-0.030769219476395677,"450":0.07886846725556085,"451":-0.1292606038996216,"452":-0.18405726169700196,"453":-0.04439046936564057,"454":-0.08640075813576391,"455":-0.0019436191924602207,"456":-0.23915825832612678,"457":-0.1383885849216571,"458":-0.3537583229078999,"459":-0.06463578182228633,"460":-0.03742160800716136,"461":0.08306489203997626}},{"sx":1,"sy":1,"depth":462,"w":{"0":-0.046509625101669845,"1":-0.04602713908662895,"2":0.05579087943635358,"3":-0.019917799633579213,"4":-0.03360100470818482,"5":-0.0035070683897789516,"6":0.003925513412585418,"7":-0.02694212363590271,"8":0.02307800502740627,"9":0.014063536299572865,"10":-0.02386365321108116,"11":0.03599609017178467,"12":-0.05417042182710842,"13":0.05320016352252554,"14":0.14774425903700242,"15":0.030528642179326233,"16":0.18385381695552297,"17":-0.061308029173551916,"18":0.019852311392005984,"19":0.10445414385984234,"20":-0.14356917113316622,"21":-0.04237698846029902,"22":-0.028013657095678733,"23":0.03656943346499116,"24":-0.10619716964895001,"25":0.07793087423842303,"26":0.030225663173700637,"27":0.04391858104188201,"28":0.0036986105189941417,"29":-0.047437941812008014,"30":-0.01755792932586409,"31":-0.007259400605389179,"32":0.04378395859103059,"33":0.06309672728169999,"34":-0.02349645996726238,"35":-0.09243577970831413,"36":-0.1676009288398061,"37":-0.190199035912029,"38":-0.019356609281964227,"39":0.03443845326621155,"40":-0.12167502758765489,"41":0.1015429684415053,"42":0.014088217356652015,"43":-0.10520843572302069,"44":-0.05799650362650717,"45":-0.17384374170476802,"46":0.10271109066022224,"47":0.03112127770723303,"48":0.13446890499779804,"49":0.0932168647417293,"50":0.058212178095203335,"51":0.10028064142219768,"52":-0.13617197825321867,"53":0.12354385366295587,"54":0.21363256241489906,"55":0.18921630839369707,"56":-0.08587085962791752,"57":0.07177347995246557,"58":-0.016191659742664993,"59":-0.09518693140633723,"60":0.09510162693582977,"61":0.039229745156539444,"62":-0.06809631595111817,"63":0.005095270108822398,"64":-0.12870736939851982,"65":0.06901438301705087,"66":-0.07974450315984492,"67":-0.1592363965512727,"68":0.21721032455036812,"69":-0.033059560939339525,"70":-0.06880657236294672,"71":-0.012131671814317527,"72":0.1615380091019753,"73":-0.025409908241306105,"74":0.16786156562587784,"75":0.08329772256934427,"76":0.10609032126169517,"77":-0.04889652900171361,"78":0.027851133807581196,"79":-0.017532839363345338,"80":-0.1298715093611304,"81":0.12110175394579592,"82":0.07468675310951946,"83":0.09045936329856794,"84":-0.018755023823859344,"85":-0.03474895828672205,"86":-0.11686933292923464,"87":-0.14008146720338266,"88":-0.024065028428633707,"89":0.12881626749926767,"90":0.11903571841339412,"91":-0.02633329126584607,"92":0.012401003256508874,"93":0.02722508676999966,"94":-0.2010238914269517,"95":-0.04380917051656408,"96":0.1217840204264649,"97":0.14829126702874798,"98":-0.05644145448056354,"99":-0.021914825435421326,"100":0.049996056387790117,"101":0.010789468777443346,"102":0.14556172770978734,"103":0.16405585415213764,"104":-0.04367808008038844,"105":-0.07465259952925475,"106":-0.0809131831248399,"107":0.025663367192211226,"108":-0.30586862600328146,"109":-0.14452468891361947,"110":0.1092597642640915,"111":-0.06876336879449725,"112":0.04550941054877604,"113":0.04735882964790591,"114":0.13020600887115916,"115":-0.15036935717887046,"116":0.12413637048926537,"117":0.03129104125554551,"118":0.060551292033245455,"119":-0.10598771883750799,"120":-0.13860134267998128,"121":-0.15469718970628038,"122":0.011501409241429318,"123":0.02302595827565668,"124":0.043211951023763996,"125":0.015296062142779704,"126":-0.16146393315698468,"127":0.1427981296803331,"128":-0.06591238655818119,"129":-0.20851602778810532,"130":-0.048250411519777166,"131":-0.026519132551662175,"132":0.01559735985269444,"133":-0.10121616885082911,"134":-0.19747894219960088,"135":-0.003309593783349382,"136":-0.09182562118447414,"137":0.07793681949151227,"138":0.27581919482197675,"139":0.006816955603004271,"140":-0.014542349022977047,"141":-0.13499364901831165,"142":0.011237242374585005,"143":-0.20407991254554067,"144":0.04545932787732807,"145":0.14548809903012988,"146":0.11259367368586248,"147":-0.0764112104798362,"148":0.08999986243451716,"149":0.004913503231051729,"150":-0.23574510583275096,"151":0.1502873181153969,"152":0.1338812526587205,"153":0.07244272246629306,"154":0.07050321391268088,"155":-0.26557998909074354,"156":-0.039141234992311855,"157":0.14076225257193514,"158":0.12888194960522556,"159":0.2280019425206203,"160":0.11097832460599377,"161":0.052316626383384565,"162":0.03588784685476671,"163":-0.112666803023171,"164":0.012897070613657757,"165":-0.05223473402588582,"166":0.15448300308791624,"167":-0.011513147996755601,"168":-0.04571665511303629,"169":-0.0879844686705343,"170":-0.04451941364180908,"171":-0.1678287652380125,"172":0.11623424568577001,"173":0.062220653469841916,"174":0.09783700496762647,"175":-0.1826768381771314,"176":-0.1303488482701858,"177":0.011097038198855403,"178":-0.13813291021247276,"179":0.20904752807975263,"180":0.16953325684488577,"181":-0.023674795713564265,"182":-0.13747811760974502,"183":0.12563540571175452,"184":-0.10000196352745645,"185":0.0442185839666115,"186":-0.052689873365453,"187":0.10725327516509493,"188":0.01988708392692334,"189":-0.015219636287884425,"190":-0.00808793635829751,"191":-0.07360669531128533,"192":-0.19437749877480726,"193":0.19626258835626412,"194":0.07509098404392327,"195":-0.03579509964931187,"196":-0.1505912454073878,"197":-0.10565411840352558,"198":-0.1637094481560567,"199":-0.2567192524373452,"200":0.031812760624468174,"201":0.10416397581747747,"202":0.0296159724820965,"203":-0.0813174120181275,"204":0.06484689231824588,"205":-0.062264948173096094,"206":-0.16111869726050707,"207":-0.044716325153215136,"208":0.23726033758292997,"209":-0.09371544206272137,"210":0.07775203934882408,"211":0.0012858516817355215,"212":-0.11329312498144943,"213":-0.20883797146584587,"214":-0.09349707162149581,"215":0.36575953816208917,"216":-0.09517211424208635,"217":-0.012218546215576276,"218":0.15545618746528414,"219":-0.010521390439126498,"220":-0.02884419722119278,"221":-0.022837192667618994,"222":0.22484677089933805,"223":-0.11067432368433695,"224":0.06724254844397914,"225":0.015149539771868574,"226":-0.002200161458875428,"227":-0.1435530698868531,"228":-0.10093828776873479,"229":0.318116352144009,"230":-0.17670743406059705,"231":0.10970151376908582,"232":0.01972195519023376,"233":-0.1756788121509361,"234":-0.14722356556039104,"235":-0.16602150006496297,"236":0.29971438722711774,"237":-0.1629167672937428,"238":-0.03662387089295389,"239":0.03776243679953718,"240":-0.09893524047190101,"241":-0.3630903181790061,"242":-0.15514637882814922,"243":0.21628085918730058,"244":0.07056926750853647,"245":0.12618446368831,"246":-0.04862168605938152,"247":-0.03411093806614075,"248":-0.24363588557930677,"249":0.07154434356061426,"250":0.0578648476358848,"251":-0.017125043493504598,"252":0.048967623286970345,"253":0.17841013482007356,"254":-0.1364067411637305,"255":-0.18212990030989684,"256":0.028864754079100687,"257":0.4580873752014256,"258":-0.10184422186530333,"259":-0.091954221148577,"260":0.11609279181748121,"261":-0.2402255843569103,"262":-0.04675360649854104,"263":-0.35077277611812,"264":0.3969797039053004,"265":-0.03793404854997988,"266":0.05017859119966818,"267":0.0225117939381168,"268":-0.12579311415932726,"269":-0.06003354762602195,"270":-0.13014233932778835,"271":0.4377875486686701,"272":-0.038524924312090696,"273":-0.1015094247442394,"274":0.0741308811402559,"275":-0.10702148833032427,"276":-0.2304158361747785,"277":-0.13188269244981313,"278":0.4492458699516357,"279":0.08862735680262228,"280":-0.06785235628773939,"281":0.029149675214833942,"282":-0.08542821411183023,"283":-0.26695260432050993,"284":-0.3919732341346453,"285":0.4264625297279463,"286":0.07056208858745615,"287":0.09703076500611668,"288":-0.11955757429825574,"289":-0.1829777465251982,"290":-0.15504683433914995,"291":-0.21111742664937047,"292":0.3791894782477172,"293":0.027043098832030654,"294":0.027459838948398024,"295":0.007736780399239613,"296":-0.15393048458732553,"297":-0.21506779176406035,"298":-0.2686180256274009,"299":0.2933726623056476,"300":0.09822549821473854,"301":0.05404239118648369,"302":0.0929473715843547,"303":-0.06723850733078983,"304":-0.14004812371421846,"305":-0.06278226073204905,"306":0.3898937619181498,"307":0.17814457213264587,"308":0.015532253040734618,"309":0.09901226288461834,"310":-0.15459414611377365,"311":-0.2492819999348793,"312":-0.050906807488321576,"313":0.44023504757408616,"314":0.14529288524723752,"315":-0.031194845535981796,"316":-0.039665223915136695,"317":-0.02843300131179512,"318":-0.33477717326665624,"319":-0.2647039380436234,"320":0.31735434132700074,"321":0.024802517904275043,"322":-0.0046732486267525904,"323":-0.04031400021313222,"324":-0.25033093139218016,"325":-0.22337093475020572,"326":-0.3154585895875135,"327":0.41777681889887647,"328":0.07594463370937819,"329":0.03459373132397533,"330":0.020297411635386516,"331":-0.18361875528997187,"332":-0.05835682092132246,"333":0.0990412662972311,"334":0.4168885556449565,"335":0.12293989913192926,"336":0.09516069503661667,"337":-0.02783273562788167,"338":-0.050529362942054096,"339":-0.004487360833321639,"340":-0.09188548851178635,"341":0.15422321017253485,"342":0.07621548062666118,"343":-0.02706317155213548,"344":0.10826883824243948,"345":-0.127077152972069,"346":-0.20313162577517554,"347":-0.08804944402734215,"348":0.3315268324577052,"349":0.021664558380968275,"350":0.1775456518180691,"351":0.04710261669077758,"352":-0.1318899780484971,"353":-0.3873223250729711,"354":-0.06662394426348174,"355":0.1919622447575324,"356":-0.034489954080135714,"357":0.14410440701629462,"358":-0.02421775810163814,"359":-0.14931284212424817,"360":-0.5444776627287284,"361":-0.23755987233474582,"362":0.15868711287427964,"363":0.010428138782870548,"364":-0.09533024641270639,"365":0.050436523236286016,"366":-0.15505267982015972,"367":-0.2341487514130719,"368":-0.16882493815302405,"369":0.21689878911200008,"370":-0.0811909650256541,"371":0.07190055978319368,"372":0.1084781537217153,"373":-0.2257902007884374,"374":0.0448158581016204,"375":0.09239096301626312,"376":0.16110176968533757,"377":0.048210025890807084,"378":0.08585051531566333,"379":-0.042509422809850664,"380":0.01831980585608206,"381":-0.30931699388382256,"382":0.03357922724052209,"383":0.08011906434080121,"384":0.0829192771648727,"385":0.0388526120768603,"386":-0.04149099018825534,"387":-0.029062825840113823,"388":-0.2631554951107226,"389":0.028705603785484052,"390":0.00906981618898585,"391":0.009206708548951649,"392":0.04172058733549165,"393":0.05057905759226934,"394":-0.1275876390443744,"395":-0.30769146424877886,"396":0.07835738469361508,"397":0.15322697807527905,"398":-0.010972114594750722,"399":0.13337182785555934,"400":0.02807846655835379,"401":0.05496338670815819,"402":-0.257824755926001,"403":0.1155881081635648,"404":0.2590479865203619,"405":0.1675020765887073,"406":0.0547712836258114,"407":0.1394645172221153,"408":0.0884965108067287,"409":0.34847141112348046,"410":0.058124732510404876,"411":-0.019831184383706617,"412":0.007666316788787873,"413":-0.1940880356031494,"414":0.023366702925687557,"415":-0.040064366442058956,"416":0.3228664987859293,"417":0.08302568571848006,"418":0.16748174603085617,"419":0.13509760095298862,"420":-0.10114698689525115,"421":-0.16206414109925624,"422":0.0853441614023914,"423":0.12873185834600898,"424":0.2524132801548829,"425":0.08266591271300036,"426":0.18401148911993453,"427":-0.09960983621508486,"428":-0.07325471699760763,"429":0.023517355026289533,"430":-0.44951183473202566,"431":0.10160143330733142,"432":0.13154210718669276,"433":0.015454375136314709,"434":-0.03648710261326115,"435":0.031088556412730277,"436":0.021415294980153442,"437":-0.30808643588844453,"438":0.08539242200342985,"439":0.013330629640956203,"440":0.029510894189490693,"441":-0.02211928725931367,"442":-0.04812053356781361,"443":-0.14585179989992111,"444":-0.10573363192342691,"445":-0.04016012001800649,"446":0.09963629362362503,"447":-0.05801237769488441,"448":-0.016734677334236135,"449":-0.0023730258832414153,"450":0.02882336956675873,"451":0.02682871772631293,"452":0.08830180069761757,"453":0.1700843558956593,"454":0.015518405919902872,"455":0.009112691735243325,"456":0.028610462837191052,"457":-0.008685348549979526,"458":-0.08504666026518835,"459":0.06076853873125794,"460":0.1456057953750365,"461":-0.05749746631375276}},{"sx":1,"sy":1,"depth":462,"w":{"0":-0.053504514993137,"1":-0.038493488103024054,"2":0.0017943330160185944,"3":-0.02176127059260786,"4":-0.0032473926971159383,"5":-0.04292009040846098,"6":-0.058466861288249086,"7":-0.10995764036674463,"8":-0.0015139055144686093,"9":-0.03842699294993065,"10":0.005151271037350022,"11":0.0015232531921988625,"12":-0.027555553278454124,"13":-0.005092841173599947,"14":-0.15997163191984082,"15":-0.11542210488969679,"16":0.09916608081068554,"17":-0.06805897552253184,"18":-0.045132740180238884,"19":-0.01721326878090312,"20":0.05866337820207598,"21":0.06254885043359501,"22":-0.0384086032943863,"23":-0.09931534057704056,"24":0.01794402862189091,"25":0.05117221513831065,"26":0.12025863319852692,"27":0.04066219125524088,"28":-0.09637044176136891,"29":0.0674202671365061,"30":0.1349122580040156,"31":0.0650074914998247,"32":0.07774288732688032,"33":0.09457971982734512,"34":0.037261071766915,"35":0.05081307286983015,"36":-0.005014034688235877,"37":0.017197176836020095,"38":0.025250219504712658,"39":0.1585898189055909,"40":0.036976549716029,"41":0.07265452413990357,"42":0.054603419956887694,"43":-0.07755536685649153,"44":0.009616020330117644,"45":-0.02219448014108319,"46":-0.05641629852991343,"47":0.07355102590095344,"48":0.09158641680771244,"49":0.013033388436433136,"50":-0.059414995203159626,"51":0.04787241874690644,"52":-0.024937054754137447,"53":0.07835388893944668,"54":0.18558412639581853,"55":0.022911381400977156,"56":-0.062330655660216006,"57":0.07528250176405618,"58":0.06585390161067038,"59":-0.07955481665763191,"60":0.03871716566156052,"61":-0.0384173854221431,"62":0.09095367357953694,"63":0.09042176297069855,"64":-0.05140103697987187,"65":0.12993446850334212,"66":-0.010666704179233537,"67":0.06720694408321395,"68":0.20298591424295315,"69":0.0075366046328087825,"70":0.03321826546552692,"71":-0.06879120099196773,"72":-0.06229618699541183,"73":0.09444345765275375,"74":0.07384115607719641,"75":0.0652482073748402,"76":-0.0656662751304549,"77":-0.05869410110500391,"78":-0.06861984423562931,"79":-0.05411024689678445,"80":0.08040753508913911,"81":0.07174613071894684,"82":0.08233306584560518,"83":0.0677631563583399,"84":-0.0142682190196613,"85":-0.01852270851335362,"86":0.1233520942513913,"87":-0.046394385655533915,"88":0.028677962182726852,"89":0.11336560764086809,"90":0.06059403353157576,"91":-0.046250044961297546,"92":-0.06466898315011743,"93":0.12497707824911039,"94":-0.020769521831306013,"95":0.12759931929712473,"96":0.12011693482848923,"97":0.008091213010547514,"98":-0.07294328982176645,"99":0.039866266566212845,"100":0.19867942920253265,"101":0.10619579515653774,"102":0.12205821282724452,"103":0.06301369341352843,"104":0.018917968494159425,"105":-0.1374222900201335,"106":0.10052520220557916,"107":0.12520627645765423,"108":0.02380214886552806,"109":0.04199295828516142,"110":0.04311873591726555,"111":0.011543650888976095,"112":0.18774836435947756,"113":-0.06827505959258864,"114":0.1864777670207478,"115":0.2014539416956541,"116":0.11883834941869874,"117":-0.0236936560890628,"118":0.19283484748264168,"119":0.11115681658863616,"120":-0.01706871390358098,"121":0.03707591782158155,"122":-0.007994935967581713,"123":-0.016575177395640205,"124":0.008026562949353916,"125":0.14291101321883753,"126":-0.05182408736416975,"127":0.0642378120543008,"128":0.11652097742565427,"129":-0.05739848239337459,"130":-0.05426120762645614,"131":0.13359570949264934,"132":0.17804373088269113,"133":-0.19268874869833777,"134":0.010969719320000957,"135":0.2334672448246303,"136":0.09928813592078495,"137":0.07354365660352666,"138":0.09972280433521377,"139":0.011506825556039204,"140":0.05539563532370559,"141":0.05585002166188042,"142":0.10550853873821114,"143":0.11728914244110503,"144":0.023729318712225445,"145":-0.1633926295238442,"146":0.060312022005905117,"147":0.016680523227938678,"148":0.012392466394401414,"149":0.2381173753937905,"150":0.16301001717335736,"151":0.13634019776074868,"152":-0.05662506425133763,"153":-0.12001487268158569,"154":0.10263654853364214,"155":-0.007225409229111161,"156":0.18310149895698502,"157":0.1446586712587471,"158":0.1486395526277414,"159":0.06243888558360954,"160":-0.022578319065893727,"161":0.053326556565499124,"162":0.03669857049157302,"163":0.07963231154232693,"164":0.19346587097298648,"165":0.09725717561133192,"166":-0.04261834071313996,"167":0.1104148818952155,"168":-0.07670648031498532,"169":0.10402618455112396,"170":0.3200072780005032,"171":0.1930946553970732,"172":0.08899038193133764,"173":-0.039318837409347676,"174":-0.028805483803590697,"175":0.07074597120664025,"176":0.005176964601338057,"177":0.33839018374820895,"178":0.33671431286682185,"179":0.07268836218720466,"180":0.0700830715157969,"181":0.03777984250143698,"182":0.05164176887771461,"183":-0.02906285386430779,"184":0.2143910853462815,"185":0.2054838381632809,"186":0.04571870858646699,"187":-0.027926891028115877,"188":-0.009880329684016195,"189":-0.060791816678328524,"190":0.011511026351211961,"191":0.27165486987091886,"192":0.22519900832202686,"193":0.24465459175935436,"194":-0.04486527681206998,"195":0.11073702722468504,"196":-0.025556664897164173,"197":0.3009912965220224,"198":0.14496461808981997,"199":0.18649471324986672,"200":0.03599708629618436,"201":0.1431460590096885,"202":-0.05859418124938201,"203":0.03603858817644469,"204":0.11706323213282682,"205":0.30816915642984133,"206":0.08928121699704437,"207":0.13922398289603388,"208":0.06440902986766091,"209":0.08090639697763527,"210":-0.02276809219377094,"211":0.04404933790063586,"212":0.3360228772933616,"213":0.24632161727309587,"214":-0.033644555886815225,"215":0.09537230132986772,"216":0.1435680806959411,"217":0.05660932126603301,"218":0.09223477586993402,"219":0.3096697687312506,"220":0.30421344386408666,"221":0.0012495799215492861,"222":0.1601213680560791,"223":0.09267470519649473,"224":0.12536665162478802,"225":0.06854988390741375,"226":0.2580040742738049,"227":0.033311048080709935,"228":0.07265227402488086,"229":-0.06743824733624089,"230":-0.01083995585573336,"231":0.022554596989185834,"232":0.0993261754803645,"233":0.24009454599800775,"234":0.02629702770827462,"235":0.03345207082993704,"236":-0.1395579887577941,"237":-0.03555115751505227,"238":0.10629468600690799,"239":0.19938473909563553,"240":0.1511341534430787,"241":0.14507569190941086,"242":-0.10961693958931402,"243":-0.15139368121609584,"244":-0.15529403392937075,"245":0.07843111349865278,"246":0.12028385468955295,"247":0.22476695998114055,"248":0.22344062507156284,"249":-0.17119945990128158,"250":-0.04051891309342865,"251":0.1588245024129643,"252":0.03260334408820774,"253":0.0034848603617382143,"254":0.3465791364100804,"255":0.18662067807966176,"256":-0.0980172936247922,"257":0.04820369277294038,"258":-0.08654622081136555,"259":-0.010191159769263342,"260":0.06830128836779813,"261":0.43307477958351087,"262":0.26551652810360565,"263":-0.18487226506474388,"264":0.04164520015063662,"265":-0.09721780048939843,"266":-0.05077818349944813,"267":-0.006108320796391523,"268":0.3637977753333623,"269":-0.030282403168352123,"270":-0.048346123861804646,"271":-0.05464668273207081,"272":-0.08873929195434094,"273":-0.029909696467870703,"274":0.08559216458109165,"275":0.35099467277387214,"276":0.15495881940866413,"277":-0.26047021444254453,"278":0.002391289426997741,"279":-0.1146940767396281,"280":-0.07656602842694249,"281":-0.029257500264793478,"282":0.3264669870094474,"283":0.2844673954584408,"284":-0.1751683617971395,"285":-0.024343585978940402,"286":0.11818213568904383,"287":-0.15157170721961044,"288":0.16431106188702752,"289":0.282047113541676,"290":0.3327526049215122,"291":-0.29207476444575864,"292":-0.03966485417190039,"293":0.08244291643009065,"294":-0.06274453269367904,"295":-0.0017847040753637632,"296":0.4037130287742241,"297":0.41027730460150613,"298":-0.17603698855891864,"299":-0.07897019100954923,"300":-0.08947556730315709,"301":-0.11244806174338387,"302":0.10189303115644704,"303":0.24477739116896313,"304":0.3055891633095571,"305":-0.38222914263750113,"306":-0.07211544707915535,"307":-0.17133839664658906,"308":-0.10403408363586844,"309":-0.043539342224389106,"310":0.15765603525679003,"311":0.39478955692896545,"312":-0.30014274141934544,"313":-0.12422007982313188,"314":0.08009839704881125,"315":-0.2385662102732212,"316":0.02280863245904733,"317":0.2518997850947575,"318":0.5132356402284916,"319":-0.244385239191214,"320":0.15703198067105323,"321":0.003161214245301443,"322":-0.09411796487147031,"323":-0.1430093810269191,"324":0.41681456396858513,"325":0.5403487189497626,"326":-0.22310181555954423,"327":0.058682109499861135,"328":-0.015018326034870626,"329":-0.1074979214681365,"330":-0.078073337215693,"331":-0.015362339884818759,"332":0.6109457469236935,"333":-0.2638120309775536,"334":0.013674074640938913,"335":0.11398988844764914,"336":-0.04180728937314488,"337":-0.0209119203224403,"338":-0.012099460381301046,"339":1.1146252122028748,"340":-0.34223813596844777,"341":-0.0038501433957947536,"342":-0.0071249245056788976,"343":0.010138287070015335,"344":-0.1535279381936857,"345":-0.03596133518932908,"346":1.1722340153729431,"347":-0.002676003850153476,"348":-0.2668896469571071,"349":0.0811785865703544,"350":-0.043495021572286525,"351":-0.15559532945839843,"352":-0.11413984411645398,"353":0.731693909013511,"354":0.017779791673188966,"355":-0.1783262484999121,"356":-0.03975202522837581,"357":-0.13197422462108588,"358":-0.002543628374266332,"359":-0.09889841704882885,"360":-0.11066806034107424,"361":0.012262026909340614,"362":-0.07852776186061992,"363":-0.04544986908036075,"364":0.041849250997489346,"365":-0.04642480877286313,"366":-0.04994656303374615,"367":-1.1057750536242013,"368":-0.04025419501246679,"369":0.0981365805224274,"370":-0.06246647958818401,"371":0.0485308694829182,"372":-0.04725340860923233,"373":-0.05151737579708247,"374":-1.4126794195462729,"375":0.14063040616604675,"376":-0.03006768867560769,"377":0.06362766575765645,"378":0.022974133372162368,"379":-0.05455350004345177,"380":-0.04721233777279256,"381":0.8685588608030256,"382":0.14681749174680878,"383":-0.19459417800757245,"384":0.12851367842398184,"385":0.00277180355097271,"386":-0.05598395397740465,"387":-0.12045722916904762,"388":0.8625502572098407,"389":0.06575067919094231,"390":-0.0846180574754589,"391":-0.1263328754389604,"392":0.08331534917318344,"393":-0.14929016132667386,"394":-0.09669408125554126,"395":0.7900274057735487,"396":0.22352814071019797,"397":-0.020444916851061878,"398":-0.037513710160557726,"399":-0.05584183624534633,"400":-0.21356327690026367,"401":-0.054388198523335575,"402":0.846751722914128,"403":0.16010068095616217,"404":-0.2404713578334483,"405":0.0979629116659361,"406":-0.1606341481220571,"407":-0.10830277391917885,"408":-0.2742019081936014,"409":-1.7083911805756569,"410":-0.11052932422987409,"411":0.0031242951108325302,"412":0.01881382745545355,"413":0.10451575507294097,"414":-0.1876003689173375,"415":-0.1913571957690982,"416":-1.682231526853839,"417":0.2034115864776189,"418":-0.08110091621268944,"419":-0.06487123135795313,"420":0.05344069250062685,"421":0.010701781636452462,"422":-0.22950932595334644,"423":-1.5435146153904789,"424":0.061333075691118545,"425":-0.07123276368201097,"426":0.08194255225758722,"427":-0.03937667796755388,"428":-0.1582698951008903,"429":-0.323635337612874,"430":0.11506674017248361,"431":0.10728544678875479,"432":-0.11024295137564703,"433":-0.004577832099802066,"434":-0.06273116842482485,"435":-0.23303139894967345,"436":-0.18724367685851553,"437":0.1344159342139134,"438":0.07793819189680251,"439":0.13447724743262124,"440":0.06367723134911006,"441":-0.14623772546698938,"442":-0.10964940537338809,"443":-0.08293149478844847,"444":0.1197940330669464,"445":0.045496681356902186,"446":0.02926540996624604,"447":0.027299556349045018,"448":-0.05282258986414966,"449":-0.07813882285321072,"450":-0.05917610303067144,"451":0.10684385346278369,"452":-0.061332912493467576,"453":0.02389246677377993,"454":0.010007728962730184,"455":0.07752526584668025,"456":-0.16572479034856666,"457":-0.1850087642274489,"458":0.12111219619731928,"459":0.07424007908413856,"460":-0.11196662600331321,"461":-0.19283907384456914}},{"sx":1,"sy":1,"depth":462,"w":{"0":0.05103336266852869,"1":0.04099125385690293,"2":-0.0175026292689769,"3":-0.017580836597950907,"4":0.09018145444892085,"5":0.03808721688404193,"6":-0.007311484985850384,"7":-0.02568787209415398,"8":0.05380163466210313,"9":0.02178561093045878,"10":0.05669313601672849,"11":-0.0010769889454477432,"12":-0.0699859287680269,"13":0.016032523037303726,"14":-0.05489574258652088,"15":0.11751125516644893,"16":0.18341324435456818,"17":0.44372643009628643,"18":-0.001516441677981456,"19":0.16500315066782098,"20":0.22535012168074517,"21":-0.040135932889153375,"22":-0.012990024815574146,"23":0.1507630687828129,"24":0.18228246636162934,"25":-0.027245583448013606,"26":0.12670833695151298,"27":0.2728460017740668,"28":-0.026968681980214917,"29":0.08086233146529462,"30":0.10763401482214721,"31":0.1829441512852296,"32":0.07417118450632149,"33":-0.049001663617330264,"34":0.19333339726254717,"35":-0.05916309332629525,"36":0.06640266947360561,"37":0.08573905205074311,"38":0.24403514166469933,"39":0.11810357959603453,"40":0.2073067541650275,"41":0.022413360381279925,"42":-0.07174283162790447,"43":0.00199601751634137,"44":0.26282820953026714,"45":0.0716309193981835,"46":0.22540129766238506,"47":0.11911930892352413,"48":0.09781075544782597,"49":0.07442076017650957,"50":0.0309556976067244,"51":-0.0016454268302625004,"52":0.046308043743092484,"53":0.014300158867467876,"54":0.05825928054417333,"55":0.17574683955049467,"56":-0.014449207321365962,"57":0.10774967925482007,"58":0.1015623765337567,"59":-0.054292187519717296,"60":0.06524786122749736,"61":0.17369394769967864,"62":0.3768250826100779,"63":-0.1682283407074515,"64":0.07747156607111422,"65":0.16958515272810992,"66":-0.011391671615882878,"67":0.2257697785221918,"68":0.19868655890609035,"69":0.4031659363068921,"70":-0.04833758016000568,"71":-0.07288496007875069,"72":0.2917325627031824,"73":0.2373441189226619,"74":0.06158005276318269,"75":0.24979086207815085,"76":0.20946457799271642,"77":-0.08910302111813512,"78":-0.07533171638892065,"79":0.16222925920193143,"80":0.12707083157734628,"81":0.3315698881413899,"82":0.07319859943451666,"83":0.13812625145314736,"84":0.030248971971359517,"85":0.040046362346494946,"86":0.0041097119299916855,"87":0.030655343265977037,"88":0.08050321992646801,"89":0.04030356252645724,"90":0.14691982249342023,"91":-0.030696134316310023,"92":-0.11127760371931003,"93":0.11179229485376911,"94":0.19230351927398362,"95":-0.05510778708504115,"96":0.10457074103279129,"97":0.13768414151345057,"98":-0.050946686086615935,"99":-0.1300881948914853,"100":-0.08048441483344601,"101":0.18222265604798424,"102":0.08608411005520406,"103":0.2635096973418526,"104":0.23206464162744606,"105":0.03229224971858571,"106":-0.04895173711247705,"107":0.13465639778642885,"108":0.18043415719785233,"109":0.3026774496908311,"110":0.07397277523879031,"111":0.0671487843461828,"112":0.021256820058740914,"113":-0.020044536673751022,"114":0.013248917309988638,"115":0.011246091269439125,"116":0.18216788850059124,"117":-0.028654361416475847,"118":0.15824388242942894,"119":-0.08278421052565647,"120":-0.07337656178954222,"121":-0.04267879266503031,"122":0.17150500696503387,"123":0.09190018169119227,"124":0.08914141495076572,"125":0.13986176475743162,"126":0.028156210372978524,"127":-0.034615775430395936,"128":-0.05969550752353547,"129":0.08127711050362948,"130":0.04438602710049286,"131":0.08732907653300286,"132":0.3187034262524591,"133":0.015514780355440603,"134":0.03391966867727157,"135":0.08831571235553545,"136":0.03649073393506752,"137":-0.0968012198361501,"138":0.10906340508307279,"139":0.23235175735037372,"140":0.034479737224405484,"141":0.050082871212654055,"142":-0.0012508823385874778,"143":0.009292808069695943,"144":0.15403214734114892,"145":0.14262282285985067,"146":0.0007989208679175201,"147":-0.10211151572286312,"148":0.07447975589129065,"149":0.01147604489168306,"150":0.0725676362806819,"151":-0.018889594339792554,"152":0.09665360107633317,"153":-0.001130654738765878,"154":-0.14580823025193781,"155":-0.04005685684676521,"156":0.03030084448669254,"157":-0.1670662845477435,"158":-0.06111561246618103,"159":-0.0640153429278611,"160":-0.06419615055525056,"161":-0.15833300351617843,"162":-0.08994332569648432,"163":-0.07823132225043879,"164":-0.11405431445161636,"165":-0.10500163319716305,"166":0.08409842169570979,"167":0.15659011781984059,"168":-0.1654615822253965,"169":-0.0342720470019287,"170":0.01268023807073905,"171":-0.11024432132889167,"172":-0.05685974036652871,"173":0.18369334249011274,"174":0.1432176787862263,"175":-0.011857680898461816,"176":-0.07706368858234094,"177":-0.09276804956223725,"178":-0.17836748578815467,"179":-0.157691961781779,"180":0.015544851372213325,"181":0.0925351100616172,"182":-0.04783012901184481,"183":-0.0011452247581514295,"184":-0.05833540233044755,"185":-0.1045248473204664,"186":-0.08630937823847898,"187":0.09766570863844651,"188":0.18603125482391727,"189":-0.0037245531524515447,"190":0.05764488997945143,"191":0.04890317705408649,"192":-0.18560749333083057,"193":-0.0868861783599677,"194":-0.08415235494750672,"195":0.21750207667843574,"196":-0.08915037994529545,"197":-0.13112395659475057,"198":-0.4019899566701383,"199":-0.18767418745058081,"200":-0.14336296465595827,"201":-0.13912355929256745,"202":0.20491193033816507,"203":-0.016555202133312994,"204":-0.17596796704387446,"205":0.0023165035266642757,"206":-0.3213461386706985,"207":-0.20257406638460604,"208":0.15883480351543075,"209":0.19560589928439223,"210":-0.02291348699467572,"211":-0.26877640371305317,"212":-0.1014498594929543,"213":-0.18131590318025895,"214":-0.2157839665460643,"215":-0.09305820672132767,"216":0.2568490539667614,"217":0.08508532120535203,"218":-0.13247031923478472,"219":-0.12453293758038599,"220":-0.30888244803061066,"221":-0.3146448870128597,"222":-0.08134707829437503,"223":-0.138072549910897,"224":-0.11775266460667194,"225":-0.13115719282092286,"226":-0.13005905166666873,"227":-0.280340941246503,"228":-0.3219880757305593,"229":-0.1550723658618285,"230":0.12589198607257002,"231":-0.11543871285814145,"232":-0.1883312122745569,"233":-0.2158120487428615,"234":-0.06649064496407396,"235":-0.38543299560591254,"236":-0.1304685957552762,"237":0.2864254434614219,"238":0.055869785649640034,"239":-0.03968132881588875,"240":-0.2970680099638806,"241":-0.2740278787015726,"242":-0.2891588921023072,"243":-0.09160071855428552,"244":-0.041424304656699294,"245":-0.11756041122694862,"246":-0.2958866293471835,"247":-0.1422482126089645,"248":-0.33773708441962264,"249":-0.15642823629543595,"250":-0.18605609770704884,"251":0.039081338485773436,"252":-0.06509774406777617,"253":-0.2846385577167999,"254":0.012244744589412401,"255":-0.4678042307092674,"256":-0.23723889191202516,"257":-0.21629547269838226,"258":-0.03394438128163769,"259":-0.027853849434853997,"260":-0.24972021713762324,"261":-0.04120078423727576,"262":-0.2072381219209249,"263":-0.3191000693248434,"264":-0.20860286932305006,"265":0.13056359281753344,"266":0.009632354104539631,"267":-0.09970475731142896,"268":-0.07931430906671813,"269":-0.05642989242301766,"270":-0.3476543243439327,"271":-0.2826570543919046,"272":-0.06863417871656116,"273":0.09338933329705909,"274":-0.2521984501769833,"275":-0.046440813018771,"276":-0.22929192148763441,"277":-0.2373381401914778,"278":-0.2842005154982027,"279":0.03166552567432926,"280":-0.08018117310222311,"281":-0.08873958242455562,"282":-0.0801122149989103,"283":-0.4881632539832733,"284":-0.28747040317118167,"285":-0.11092549685901491,"286":0.07593026997928214,"287":0.04669005087778448,"288":-0.11410353816249319,"289":-0.05138594106369287,"290":-0.22097649671195477,"291":-0.20905645477558715,"292":-0.3238291907115302,"293":-0.2331513997927233,"294":-0.07379958518562571,"295":-0.22639320830244433,"296":0.11612035631754121,"297":-0.17193497473907862,"298":-0.2488887161524197,"299":-0.39646550742161435,"300":-0.10002039258409144,"301":-0.18880654630770521,"302":-0.08356387376218281,"303":0.0827050710209367,"304":-0.33137999615175423,"305":-0.22492207027155317,"306":-0.07554536852140328,"307":0.0008905079080464782,"308":-0.016212908329555797,"309":0.11842862522272479,"310":-0.16843120018536145,"311":0.14289513099408593,"312":-0.15631415432564227,"313":-0.20848527313487034,"314":-0.11853899326367137,"315":-0.07120447875381007,"316":0.10483791470101597,"317":-0.14188717272237925,"318":-0.1445995108923608,"319":-0.21390110191306,"320":-0.28014901143306165,"321":0.14965818937751224,"322":-0.12887311076931807,"323":-0.0652922318090873,"324":0.03290413630144341,"325":-0.08709241306005214,"326":-0.1566970668116461,"327":-0.02808891212792754,"328":-0.024403181884847084,"329":-0.015622095221244714,"330":0.1231924585928963,"331":-0.26114541682786946,"332":0.4741782717461792,"333":-0.05276715205521733,"334":-0.1654340808428668,"335":0.2141983065123388,"336":-0.12926256615506357,"337":-0.01607055819854233,"338":0.01335274581748653,"339":0.4146957326313473,"340":0.07738308778743667,"341":-0.18181843283083193,"342":0.25716342367401707,"343":0.07227079109569039,"344":0.12987995805360952,"345":0.1990491293508648,"346":0.2597662865203649,"347":0.00923610485467789,"348":-0.07733498771266618,"349":-0.1804913645610099,"350":-0.049353623981900324,"351":0.16207605748415732,"352":0.1345418269002636,"353":-0.06426583523428558,"354":0.07454274698606882,"355":-0.11563430419994607,"356":0.11890727980004495,"357":-0.08770627524767247,"358":0.16420480533627585,"359":0.15433890153302235,"360":0.3279243742059912,"361":0.03943705737288417,"362":-0.1788989602348382,"363":-0.03275512395534751,"364":0.008947720645302432,"365":-0.13744635817386064,"366":0.35671688527915224,"367":0.5267012018682716,"368":-0.030810641246029984,"369":-0.11251333979962824,"370":0.13420415728472787,"371":0.004195277563451712,"372":-0.11208260884644762,"373":0.3048947371116479,"374":0.47455079609738066,"375":-0.1503613857967552,"376":-0.06844429008660009,"377":-0.09648645161260212,"378":-0.004717647486627388,"379":0.14862216009611665,"380":0.20893794608797245,"381":-0.13799792503330743,"382":-0.13294863012033728,"383":-0.19957778727675501,"384":0.17304034943792831,"385":-0.028476034902645112,"386":-0.08316779470535603,"387":0.32124659745194734,"388":-0.2163034421330592,"389":-0.2579731157726103,"390":0.03032105598222087,"391":0.06415772291583878,"392":0.0342335613183167,"393":-0.06800868219423488,"394":0.20533750195034342,"395":-0.13617659064145027,"396":-0.1697281224192939,"397":0.09016899809834722,"398":0.11691741185954868,"399":0.025145758969636577,"400":0.02187784652629563,"401":0.20374653965000858,"402":-0.18354894584793421,"403":-0.08632025651548259,"404":-0.09834938085662663,"405":0.07057208046184565,"406":-0.05599908555612399,"407":-0.05561071397783256,"408":0.24589256826153863,"409":0.5957558678973236,"410":-0.20940945929878166,"411":-0.13315506109015343,"412":-0.1585567196258649,"413":0.16110457664077626,"414":0.02508346063581122,"415":0.18550801040709836,"416":0.5051577112738149,"417":-0.1659558276641429,"418":-0.14475799660858202,"419":-0.10288336046898644,"420":-0.04594181844846411,"421":0.051184510235907116,"422":0.24298933884566792,"423":0.44159024445649897,"424":-0.37637022180365043,"425":-0.1562688519284212,"426":0.07857174684846567,"427":-0.0025655997660364023,"428":-0.08893984400935113,"429":0.02186880093327325,"430":-0.12642241690742484,"431":-0.20321152508025192,"432":0.05568604261021746,"433":0.18026099268475645,"434":0.04879196250702647,"435":0.01776832223764165,"436":-0.10994740514126204,"437":-0.03289491621095897,"438":-0.04338460652657025,"439":0.1202538955340201,"440":-0.018056769957565104,"441":0.03363569133874239,"442":-0.03161148924566633,"443":-0.1617074566301401,"444":0.10412744425073116,"445":-0.14833510448401124,"446":-0.07341380000672357,"447":0.13622353941198792,"448":0.03485006470639561,"449":-0.06697489879609295,"450":-0.10841303491659228,"451":0.03499634630596937,"452":-0.14828206797268928,"453":-0.007947105030114393,"454":0.12410470227040542,"455":0.07204306424100412,"456":0.0031828844558278798,"457":0.008187212574977943,"458":-0.24487916532864334,"459":-0.15483032310790967,"460":0.11577701084889365,"461":0.48640696393299937}},{"sx":1,"sy":1,"depth":462,"w":{"0":0.00995909671710958,"1":-0.0418575169328664,"2":-0.05741879953475837,"3":0.0218674169988933,"4":-0.008129696841907456,"5":-0.02467203924706555,"6":-0.008727953555591623,"7":0.05054659796419248,"8":-0.043339988636125794,"9":0.06627134021708866,"10":-0.03519839525962068,"11":0.026172512983752002,"12":0.0061356524118888894,"13":0.10086082547749334,"14":-0.14990587420681606,"15":0.1178282006398099,"16":-0.056541430223053364,"17":0.013944390058921525,"18":0.012357279911820968,"19":-0.09830128078117009,"20":-0.024722953167045956,"21":-0.09037489616798121,"22":0.02111311388930784,"23":-0.03647915051340126,"24":0.02391598741769957,"25":0.054230248763570424,"26":-0.137388576710415,"27":0.07960046787168575,"28":0.05531162627666326,"29":-0.22941561384887732,"30":-0.08549741111980377,"31":-0.016536567129878037,"32":0.2294651664804891,"33":0.11459489391984058,"34":0.018549564297244848,"35":-0.16131483742130992,"36":0.026650570445944637,"37":-0.021276332149663898,"38":-0.09293805287830316,"39":-0.05758888064747981,"40":0.12941188420958058,"41":-0.05710221232954844,"42":-0.039419001272173834,"43":0.02575876740186402,"44":-0.18792585349781518,"45":0.032627284136232414,"46":0.19499463754971852,"47":-0.09133048011441494,"48":0.11436268310674645,"49":0.0296156027284144,"50":-0.0007070557644809889,"51":-0.06386236345622621,"52":0.12378740516278597,"53":-0.20754566387153311,"54":0.2083335416615481,"55":-0.10458470472154463,"56":-0.06845247575566275,"57":-0.04162489448092736,"58":0.03286037299940232,"59":0.1334041566544527,"60":0.0626156071222224,"61":0.06348260190795045,"62":-0.18266125177029416,"63":0.20330190461118564,"64":-0.09454935347386766,"65":-0.08442286944498464,"66":-0.10486285097476021,"67":-0.16947911787244674,"68":-0.05392235799034381,"69":-0.041996099960183525,"70":0.16257179867418345,"71":0.07681770865330081,"72":-0.07150811428391092,"73":0.13620158134856825,"74":-0.04619378991726252,"75":0.2274879248704724,"76":0.07184366682895055,"77":-0.02073427899834428,"78":-0.06662204651638391,"79":-0.021622950491498018,"80":-0.044914474808515584,"81":-0.0708112976723022,"82":0.06564204530561374,"83":-0.13898938204802758,"84":-0.024808733027768613,"85":-0.10176954339311566,"86":-0.012390712653947549,"87":0.1035271500731414,"88":-0.023889145284046266,"89":-0.127061461724104,"90":0.1133025178391062,"91":0.12063736148318091,"92":-0.014164366743688107,"93":-0.03782303601756913,"94":-0.06367164986775573,"95":-0.016505232106343293,"96":0.03608890166079178,"97":0.1251228122914178,"98":0.06416266306429565,"99":0.05483155233765239,"100":-0.022698521445740596,"101":-0.15891407567690077,"102":-0.008402764117066272,"103":-0.03394350008044827,"104":-0.10786679556259113,"105":0.156541479887076,"106":-0.09222670005419524,"107":-0.22047765090527982,"108":0.034668465476480274,"109":-0.08656445267099679,"110":0.01830459032137682,"111":0.10124867118301539,"112":0.2052184025848166,"113":0.13338051795244552,"114":-0.08270702770601562,"115":0.07446973248024602,"116":-0.04942290346046664,"117":0.1449427946866987,"118":0.020339542354192507,"119":0.12221255731172671,"120":0.010148367060704322,"121":0.16148754241651456,"122":-0.07384296034431125,"123":0.12208561071737573,"124":0.055959044550513246,"125":0.0020744603571501213,"126":0.05493479519386115,"127":0.15798144550751322,"128":-0.07501369833930008,"129":0.007932527471667842,"130":-0.08428823725584302,"131":0.006596747191270149,"132":-0.027341605504311528,"133":0.11573575993212196,"134":0.2835249464288926,"135":0.07414165180858036,"136":-0.1479704662543916,"137":-0.054005091592774467,"138":0.029941119169266964,"139":-0.08796408332364762,"140":0.08462760826475133,"141":0.17784555444122746,"142":0.09319068682302996,"143":-0.25130072277714355,"144":-0.0773495226264626,"145":0.07854265918416173,"146":-0.049581506746070696,"147":0.0273660375595502,"148":0.13293233571329974,"149":0.011472784616892226,"150":-0.2111058454134778,"151":0.06780925718664914,"152":0.13557798739681687,"153":0.06154162418479474,"154":0.09449638293750942,"155":0.015715769464940132,"156":0.15248405830058073,"157":-0.02870802923745762,"158":-0.05517436181498687,"159":0.03581497549461207,"160":0.0038490017048697454,"161":0.0638633510416412,"162":0.13469314439598473,"163":0.11323393945666416,"164":-0.19820773078727683,"165":0.08142386545027637,"166":0.22123814771265418,"167":0.07970811737834005,"168":0.04110079837880319,"169":0.15283108996223466,"170":-0.08698937476567653,"171":-0.20596290890463906,"172":-0.045003298773949096,"173":0.18897768818372254,"174":0.024469766385728054,"175":0.015355986014389582,"176":0.26595793392137723,"177":-0.06027911073227022,"178":0.0025598189955269406,"179":-0.18254515692057177,"180":0.2347157426916358,"181":-0.019592870984896413,"182":-0.07787915886217793,"183":0.18271891518126768,"184":0.010417595450302262,"185":-0.05664737657923342,"186":0.07878372234022421,"187":0.13249546667078724,"188":-0.1357253496740581,"189":0.14291600988533448,"190":0.10414903706002199,"191":-0.07056624870469762,"192":-0.0717655579335176,"193":0.03989295941263052,"194":0.2563178262586358,"195":0.1672320951230102,"196":0.10168453559154911,"197":0.12252125142554315,"198":-0.016086904428240893,"199":0.08399506027932091,"200":0.010615438303949268,"201":0.13001481050143268,"202":-0.006886529362168342,"203":0.13149003473086038,"204":0.017387113335903242,"205":-0.020949926362270926,"206":-0.08910281893457928,"207":0.1485393821184903,"208":0.07966155424736449,"209":0.019544485802174327,"210":-0.027030899576675895,"211":0.15057035825676984,"212":0.016683075691765255,"213":-0.10660711584887814,"214":-0.0006932208326701839,"215":0.07999641171083048,"216":0.156406896796529,"217":-0.05660575421008722,"218":0.1495228395413496,"219":0.09196571395594355,"220":-0.14797810840483375,"221":0.01782830362729653,"222":0.05480115044257111,"223":0.09920600344206071,"224":0.09076324760457039,"225":0.0020027016542551014,"226":0.0437003417676657,"227":0.08538260892334446,"228":0.25925975554055597,"229":0.1777342639459604,"230":0.05124636057697458,"231":0.11115427879084855,"232":0.21395598691606355,"233":0.04055492040539813,"234":-0.03818039219188277,"235":0.19950897076066074,"236":0.21127277650383094,"237":-0.054473706087349735,"238":0.06381705346526309,"239":-0.001893046773331099,"240":0.004629572919231832,"241":-0.07945002578723162,"242":0.3131887256830249,"243":0.20716832084530787,"244":0.09022152533948487,"245":0.05695657464355801,"246":0.17533283380528153,"247":-0.03775982114774308,"248":0.003004827563681922,"249":0.2747197474800527,"250":0.07834235698700286,"251":-0.059177100203065894,"252":-0.0019878985521255155,"253":0.008626550936319092,"254":0.12709435251158746,"255":-0.005349566972263667,"256":0.29040937410844575,"257":-0.0037950858851102773,"258":0.08813880332996411,"259":-0.005628139397813825,"260":0.06686986521671462,"261":0.22201019167999353,"262":-0.06352189101175007,"263":0.43666727141185596,"264":0.09785112282017344,"265":0.08355889845979309,"266":0.14949466061842118,"267":0.15539891148521567,"268":0.1873435522763462,"269":-0.1096559014670827,"270":0.4868509753842859,"271":0.21400934416810496,"272":-0.09476536374668795,"273":0.03621080389826507,"274":-0.026196595119633955,"275":0.07012469894626863,"276":-0.15171977538160003,"277":0.5862370871262635,"278":0.19349875503915184,"279":-0.08156879913663229,"280":0.22476206782006172,"281":0.008328304787456957,"282":0.07173045847883983,"283":0.11138464658410344,"284":0.5652500835025045,"285":0.21340044547419545,"286":-0.1306151164929216,"287":0.01124179399597295,"288":0.11845820850336146,"289":0.03065205907576667,"290":-0.210059165578413,"291":0.3041022834250469,"292":0.00636015026982236,"293":-0.15599946728968106,"294":-0.023255280443544465,"295":-0.07467946686270592,"296":0.1188453366020501,"297":-0.14651075003807246,"298":0.5357411194360098,"299":0.05032886538794448,"300":-0.06511862014031336,"301":0.20878449386284817,"302":0.12137345739584574,"303":0.311250907166365,"304":-0.131191032154371,"305":0.5415457526892592,"306":-0.09019389860892947,"307":-0.013718193485270116,"308":-0.0026571392960884213,"309":0.10137068707759532,"310":0.21016973378376103,"311":-0.2885190521398568,"312":0.5922110033686185,"313":0.04954854160873603,"314":0.03829274583623449,"315":0.03160009522851342,"316":0.21268231678594224,"317":0.03507295103135429,"318":-0.1452084896617918,"319":0.52681736388782,"320":-0.2233365432390365,"321":-0.0613988206162047,"322":0.0620544374700566,"323":0.01278845472554681,"324":0.15351853785919847,"325":0.005687019960200324,"326":0.6430318937682177,"327":-0.24639905450042698,"328":-0.14796561094837868,"329":-0.21562134359412297,"330":0.1075714989857714,"331":0.028887756725348105,"332":-0.19284846172412548,"333":0.3470947392916761,"334":-0.1257108091418446,"335":-0.03171816029801487,"336":0.17313843792463626,"337":0.051371953889530704,"338":0.0640824116374532,"339":0.11185909689832683,"340":-0.020855933157171252,"341":-0.12322016546200452,"342":-0.13213209700323106,"343":-0.05371424074389214,"344":-0.0017184005346625587,"345":-0.10725690545536815,"346":0.42036410520944545,"347":-0.2363823873082355,"348":-0.2667219357370714,"349":0.13048230915036702,"350":-0.19074020183135226,"351":-0.07028972032051922,"352":-0.12947966408742498,"353":0.29614897220731573,"354":-0.46187381958355733,"355":-0.1781560764277941,"356":0.18485361134073947,"357":-0.10242565707693638,"358":-0.12806946101940378,"359":-0.1465863106084035,"360":0.6815531390055596,"361":-0.44194256733180387,"362":-0.35480423270195394,"363":0.016251548849697203,"364":-0.28812340571156403,"365":0.046220324283682696,"366":-0.12626887010024326,"367":0.25542252728128506,"368":-0.6713246886248535,"369":-0.3296065471450891,"370":-0.09198836101774552,"371":-0.14528387592021397,"372":-0.49836447893141306,"373":-0.04274573591173043,"374":-0.1250824602372674,"375":-0.6073954745179101,"376":-0.37901895412832404,"377":-0.04293034910805484,"378":-0.22783460539185268,"379":-0.18846373284175033,"380":-0.06475999971970914,"381":0.21981043792244997,"382":-0.6499550210126775,"383":-0.11397507516849212,"384":-0.1956895711064462,"385":-0.10967688277538186,"386":-0.0689649948237729,"387":0.1046433862296471,"388":0.1650351879868237,"389":-0.39139121223959955,"390":-0.02181317676800644,"391":0.22719322631881644,"392":-0.25865417214149905,"393":-0.29615873992916164,"394":-0.03959809438877282,"395":0.30257903249131307,"396":-0.33961326221089316,"397":-0.0030882565778739316,"398":0.08750193137364891,"399":-0.13147780243653384,"400":-0.28742300033984686,"401":-0.03998585514252098,"402":0.2100618640815193,"403":-0.10529622947837107,"404":-0.16409799691820018,"405":-0.09009532368280092,"406":0.03054698193623857,"407":-0.1794078802887982,"408":-0.1172283409776091,"409":-0.45190209099293527,"410":-0.11485181709591318,"411":-0.11050773598272713,"412":-0.11501101868648034,"413":0.15553597001096192,"414":-0.13688525394441073,"415":0.18323011225466357,"416":-0.3560051338251356,"417":0.024280591057479126,"418":-0.026202831739147926,"419":0.013518548672030587,"420":0.03170801977584535,"421":-0.12500373880492027,"422":-0.004535428050183604,"423":-0.34333996185824833,"424":-0.26756148743389463,"425":-0.040824355233269584,"426":-0.08345379470050127,"427":0.02897993645390777,"428":-0.07695862260930912,"429":-0.030341316451779756,"430":-0.024576343554880805,"431":0.05060886475987801,"432":0.07655307851874842,"433":-0.05768329563821089,"434":-0.0011870348810159139,"435":-0.13297996983172777,"436":0.03724578403985913,"437":-0.17827205258276585,"438":0.005121934661385253,"439":-0.11380155755751803,"440":0.06928238947842003,"441":0.02402085680879499,"442":-0.19125739575329945,"443":0.07427867605947414,"444":-0.03672661206973186,"445":0.11815857891731472,"446":0.20561327070377122,"447":0.021239957845865135,"448":-0.0811970649107155,"449":-0.1449843816626793,"450":-0.12600737681828525,"451":0.18872227261141847,"452":-0.14217265073632337,"453":-0.03411010109924912,"454":0.28312129887979137,"455":0.038847071520649465,"456":-0.17782024329526952,"457":-0.0723801967321337,"458":-0.009430752052583508,"459":-0.10948123971433607,"460":0.0037720651577041317,"461":0.007198442003613284}},{"sx":1,"sy":1,"depth":462,"w":{"0":-0.025748797124340094,"1":-0.052636069039178036,"2":0.056321236693727586,"3":-0.038225732791855746,"4":-0.00898653191218272,"5":0.03473546657608733,"6":-0.024309819691784914,"7":0.043438058257213766,"8":-0.05251588722701171,"9":-0.01346406491899769,"10":0.026175632723802404,"11":-0.0236823645434607,"12":0.06697557706646905,"13":-0.0024459842981853163,"14":0.226942316063864,"15":0.03116565034846806,"16":-0.24340804934709015,"17":-0.07366363323530427,"18":-0.1891153081427209,"19":0.09286193454974931,"20":-0.08248530955133376,"21":-0.03607299074658361,"22":-0.19703012632671002,"23":-0.10565769561659112,"24":0.046371039580449164,"25":0.15318152068826557,"26":0.07381591238607073,"27":0.01259716597492427,"28":0.10044043865717092,"29":0.13596020632035852,"30":-0.09706916733819146,"31":0.02726456047799956,"32":-0.036425977915247695,"33":0.011521439583858765,"34":-0.0885924295406055,"35":0.06221494950037995,"36":0.021218359725583686,"37":-0.14929180764233763,"38":0.13877070127862842,"39":-0.14096542447354218,"40":-0.09154929553853566,"41":-0.16504688819338253,"42":0.16708124378245579,"43":0.035454095065346115,"44":-0.09909472384516126,"45":0.1213312582201924,"46":-0.11816524215859196,"47":-0.1628482730227415,"48":0.129887363575669,"49":0.006235187527973105,"50":0.045105069533891644,"51":-0.09726346624474567,"52":0.08204358622417642,"53":0.14679861993736634,"54":-0.03330765093729124,"55":-0.07262578870706772,"56":-0.03358404010310279,"57":0.03437530846106031,"58":0.05532327400780975,"59":0.09841380781281561,"60":-0.026681322528614805,"61":0.06059426991577346,"62":-0.18311114242970442,"63":-0.08838617050353816,"64":-0.09629158976088313,"65":0.0970795865529535,"66":0.09289114383221775,"67":0.10174231257660214,"68":0.11479814361231472,"69":-0.07700866814989189,"70":0.01344819595328817,"71":-0.03271622591146976,"72":0.014267243375109016,"73":0.07246605232371066,"74":-0.11397908226099361,"75":-0.006125504113391529,"76":-0.12332588771245591,"77":-0.002956143241024103,"78":0.0787046194449573,"79":-0.08883318591038278,"80":0.03797226687589766,"81":-0.1258193805195421,"82":-0.027163274144844488,"83":-0.017331780107433498,"84":0.15686026188505475,"85":-0.11971564586196191,"86":-0.015415386559930445,"87":0.2551468338938396,"88":-0.025748951875907047,"89":0.14810766432590344,"90":-0.09729579859934859,"91":0.022484316247227135,"92":-0.029820364493718426,"93":0.014718851519522222,"94":0.10108355908295334,"95":0.02056519033398776,"96":0.003219219410413248,"97":-0.017357049706902234,"98":-0.09165694779681224,"99":0.04888894151460434,"100":-0.005885575043946134,"101":0.004888845245443136,"102":-0.052231806507014096,"103":0.12850971262659072,"104":0.030018951702401892,"105":-0.02980262457575452,"106":-0.034549582969239934,"107":0.028158165651671254,"108":0.03567546047778962,"109":-0.039384338639414214,"110":0.1472668743411748,"111":0.05375825815132309,"112":0.027285087160870438,"113":0.1486152472601872,"114":-0.11979199933328362,"115":-0.017311703107569392,"116":-0.10977615420229822,"117":-0.006723925760794906,"118":0.08413211521505141,"119":0.042908146449939684,"120":-0.1348161616050414,"121":0.0526718564078721,"122":-0.024610483331806803,"123":0.08391328432776156,"124":0.14201742629011843,"125":-0.04060852527297097,"126":0.15977136493672323,"127":-0.046632077083511185,"128":0.11669456709584539,"129":-0.1548068721402226,"130":0.18767795832269726,"131":0.1328836917479414,"132":-0.017904411516742234,"133":0.029947368739204557,"134":0.15686769103997034,"135":-0.22113768445449342,"136":-0.05005010571015064,"137":-0.04197626117600446,"138":-0.1747367843214135,"139":-0.05644005879238535,"140":0.032848223365782046,"141":-0.047288703793076134,"142":-0.04769849482997758,"143":0.07455423396581674,"144":-0.10775742978161562,"145":-0.06674023817746545,"146":0.06397805045590735,"147":0.05710589324456229,"148":0.11303181558218474,"149":0.09114066887574655,"150":-0.04316998163392853,"151":-0.11631163346908607,"152":-0.15757127322321726,"153":0.20524452843196717,"154":0.10607673273834334,"155":-0.11004670360619645,"156":0.019484232515125342,"157":-0.21938795898874341,"158":-0.24028924845351193,"159":-0.21145131585207996,"160":0.005232796351409441,"161":0.02284520682584307,"162":-0.12993820270634793,"163":-0.08459334493547625,"164":0.07689976750424098,"165":-0.18273542443416363,"166":0.015754611260825845,"167":0.03396574446830042,"168":-0.12416023356026434,"169":0.03788308665085257,"170":-0.07213427073925842,"171":-0.168841761252568,"172":-0.0953582250001802,"173":0.02550541196083106,"174":0.03050517436022908,"175":-0.2045012764630534,"176":0.2333985072610798,"177":-0.15970951611747036,"178":-0.18087912929051647,"179":0.09607584056116711,"180":-0.20893029829135706,"181":-0.12805034442817334,"182":-0.19594904023029514,"183":0.011294327887437679,"184":-0.07173707746811063,"185":-0.10259764853386,"186":-0.08112508749016979,"187":0.07966243111193047,"188":0.08967433698350312,"189":0.06953405701865358,"190":-0.029367245588968523,"191":-0.10798502144082087,"192":0.08841829359096018,"193":-0.15235335599253233,"194":-0.01645348353556789,"195":0.09711653545958095,"196":0.16689977201193404,"197":-0.0032068479418282344,"198":-0.06526915288807082,"199":-0.022784163089440333,"200":0.1400181010773612,"201":-0.05240145877176404,"202":0.011678723684200913,"203":0.14329281004063485,"204":0.06782373044907124,"205":-0.2152494875138285,"206":0.107438824484029,"207":0.029658769439957187,"208":-0.030216399461060004,"209":-0.10298102377126303,"210":0.08977408742404965,"211":-0.1309727653894287,"212":0.01774322381859265,"213":0.02428107497476409,"214":0.2527693444041677,"215":-0.09865891224799399,"216":0.13183161241500657,"217":0.13758822235802384,"218":-0.07000923176445653,"219":-0.18811141082416366,"220":0.056349594073353916,"221":0.07827852597763647,"222":0.023996297701863838,"223":0.041481750672867614,"224":0.43833566210976693,"225":0.020856114909465092,"226":-0.20660854357592467,"227":0.11029491788863587,"228":0.17903325600758335,"229":0.07901760100652735,"230":-0.08759189157008213,"231":-0.11075712116756503,"232":0.009206876017994421,"233":-0.21679462895592566,"234":0.006332000702311314,"235":-0.03294899801051028,"236":0.16624299760161168,"237":0.08911797586742035,"238":-0.2094041734610699,"239":0.049440568577121966,"240":0.14467399478152135,"241":-0.07945668084826592,"242":0.11318352029365833,"243":0.2381035144175366,"244":0.04359927875443916,"245":0.08029374605566948,"246":-0.06439628797752471,"247":-0.1763299868764149,"248":-0.07771468866375392,"249":0.13934797123752388,"250":0.12799791559614926,"251":-0.05349166960643702,"252":0.0706238699796556,"253":-0.031649672560814905,"254":-0.32824306174535584,"255":0.0939575124054121,"256":0.11503068644169616,"257":0.1761667180309722,"258":-0.013584885899727015,"259":0.05761805175761736,"260":0.020938389054690892,"261":-0.24973048904769948,"262":-0.003617818730795865,"263":0.213599136957136,"264":-0.0376719466971688,"265":0.026242802745416145,"266":-0.017871399525561802,"267":-0.020287789358473973,"268":0.07703620327847957,"269":0.03527085902200324,"270":0.36012678631775297,"271":0.0909152071627002,"272":0.15542291542122622,"273":-0.06382195203615583,"274":0.16550141413767083,"275":0.02609264449996082,"276":0.27380953888571347,"277":0.19097283470722565,"278":0.01979339787798611,"279":0.08778641915629418,"280":0.00025741923386927475,"281":0.049244678700841364,"282":0.19818501721179135,"283":0.1769325910618997,"284":0.18917326521134623,"285":0.02177958915378699,"286":0.1344948377665779,"287":0.009714499520311509,"288":0.17422812177247526,"289":0.30828793024272294,"290":0.36161889076437914,"291":0.3579122717335815,"292":0.11806866219443413,"293":0.06110929893971396,"294":-0.1902512153106978,"295":0.23498991304464356,"296":0.28193524520100616,"297":0.10596420043972775,"298":0.4051511112756648,"299":0.10791004043550308,"300":0.12977349385048179,"301":-0.002420177398849869,"302":-0.0668792556111822,"303":0.341837354635428,"304":0.47322143651913434,"305":0.03573062334344033,"306":0.17176095382939285,"307":-0.02973241781267958,"308":-0.07647184829383658,"309":0.16064235699107202,"310":0.3861541031463843,"311":0.6224477417389207,"312":0.32204676284544137,"313":0.08179620899099913,"314":-0.002938338318302551,"315":0.025281037663911633,"316":0.18911897607444272,"317":0.7156846315759183,"318":0.9309270014972683,"319":0.30177906119241993,"320":0.029093980921472046,"321":0.08228251816847652,"322":-0.08397694889220762,"323":0.1465550298696553,"324":0.7351201050196713,"325":0.8064040961270251,"326":0.2682493835799151,"327":0.04808822883041459,"328":0.06697953341804362,"329":-0.035637727149105444,"330":0.06784638152817064,"331":0.542423315747845,"332":1.121280576125356,"333":0.09098849560018737,"334":0.08397386652998662,"335":-0.06320101525541678,"336":-0.02335535208294946,"337":0.11605777732826146,"338":0.8968477264997291,"339":1.2768788858231983,"340":0.3267181152470067,"341":-0.0798066369758038,"342":0.117182139477748,"343":-0.006019024079234869,"344":0.21482264147481384,"345":0.9696861569342505,"346":1.2088603753606448,"347":0.15952720882425128,"348":0.1870553268301076,"349":0.04058924704673617,"350":0.005564267390859735,"351":-0.10327037613472616,"352":0.8542403500229929,"353":1.0072637215289857,"354":0.03439908840785938,"355":0.0685545685416712,"356":-0.04215932444236229,"357":0.04884746394872247,"358":-0.0015321544784154364,"359":1.018327992262954,"360":-0.5242306807606993,"361":0.12421824167073844,"362":-0.07648445286859241,"363":-0.043024470533728223,"364":0.055450824659685816,"365":-0.08312627790540074,"366":0.7777775972757884,"367":-1.3901972342149307,"368":0.14348110199273104,"369":-0.04429985529441102,"370":0.06871037148244663,"371":-0.23358080174687315,"372":-0.03359239507406621,"373":0.93967087825991,"374":-1.426861250153944,"375":0.14478733143721084,"376":-0.2310462560527161,"377":0.020938425405082797,"378":0.0007634680669600161,"379":-0.11308922328036572,"380":0.4172528959673904,"381":0.39416141539071636,"382":-0.0077897325141357806,"383":0.03029533549837939,"384":-0.05595073937354434,"385":-0.0879649346729206,"386":-0.04508146190527147,"387":0.37519501151801243,"388":0.4514229060310855,"389":-0.09023996982416953,"390":-0.027037420371566288,"391":0.2621841436641001,"392":-0.061361214966943946,"393":-0.08181595953219042,"394":-0.0014282041457891555,"395":0.33975912264172525,"396":-0.2700394428229436,"397":0.08514554852875136,"398":0.03426490938507813,"399":-0.031332153946146975,"400":-0.3542428237363912,"401":-0.11886641276648928,"402":0.3500310277428971,"403":0.05893521410795564,"404":0.0857966929999146,"405":-0.1064618434297223,"406":-0.12424062390437372,"407":-0.125679167525369,"408":-0.24190653084310748,"409":-1.411801973123578,"410":0.11231709155824908,"411":0.0011121483208195182,"412":-0.13588877817731027,"413":0.0790907597707546,"414":0.05072854594176113,"415":-0.2771249201403806,"416":-1.396873606268436,"417":-0.18354446597026303,"418":0.05075862925175822,"419":0.10715610493820868,"420":-0.021029772676270094,"421":-0.2806444294199474,"422":-0.1838182458443748,"423":-1.438731857934335,"424":-0.14289419387774263,"425":-0.09548974036733977,"426":-0.03910477927612169,"427":-0.0686164406904404,"428":-0.2182552957344168,"429":-0.17847311218018433,"430":-0.08755415984499353,"431":-0.1270953324788657,"432":0.012322003915057307,"433":0.23114787329776673,"434":-0.013894730872822416,"435":-0.1198032692993102,"436":-0.048338613086641245,"437":0.17004463519793706,"438":-0.10754832826206513,"439":0.09096840905015909,"440":-0.06416582682758787,"441":-0.01585787712815158,"442":0.005312583349945323,"443":-0.19563492326935022,"444":-0.0035419243816534524,"445":-0.10053108589648746,"446":-0.09698848484612024,"447":-0.017898366953543503,"448":0.11971683662667404,"449":0.14062573981961465,"450":-0.06458670012356711,"451":0.07931397224802583,"452":-0.018343979514635875,"453":0.03018121499865301,"454":-0.08842761869554502,"455":0.13247468966148143,"456":0.2751144424429448,"457":-0.12357453156185569,"458":0.0597531028933524,"459":0.08530235658745453,"460":-0.10060420904466837,"461":-0.004617882866369859}},{"sx":1,"sy":1,"depth":462,"w":{"0":0.00969601896640971,"1":0.009697354409846036,"2":-0.020476309932436307,"3":0.06966216011707065,"4":0.022477400169656134,"5":0.023463193051289966,"6":-0.02030809969785352,"7":-0.04192609087920499,"8":-0.052003712683429563,"9":0.0032001020478870214,"10":-0.0021240385645664244,"11":-0.04600022743303767,"12":0.04538083598986877,"13":0.03474934350004601,"14":-0.18829065919469615,"15":0.168418021940033,"16":-0.04551986637808078,"17":0.11796153730970464,"18":-0.24328591417459547,"19":-0.12436041852106525,"20":-0.19432725119065786,"21":-0.00857660302127182,"22":-0.12002970255281649,"23":0.11291557618675745,"24":0.1780739294814919,"25":-0.3486229619807141,"26":-0.07159457403862063,"27":-0.07496704409521016,"28":0.009164358529737838,"29":-0.24812311247743654,"30":0.1031217353945985,"31":0.16844045350522782,"32":-0.2592456477362156,"33":0.11124301337975429,"34":-0.06789297764900207,"35":0.029015512711227844,"36":0.018032984682666803,"37":0.03172175878537936,"38":0.07809975518526292,"39":-0.28772757880032734,"40":-0.0814240075669442,"41":0.09577826547006348,"42":-0.02226897113542985,"43":-0.17134956515366953,"44":-0.1261722336216806,"45":-0.1961595212076906,"46":-0.043001632441387445,"47":0.12809750477869158,"48":-0.03507522484691847,"49":0.0734687676563497,"50":0.21850726347087993,"51":0.005237211396353322,"52":-0.02020837501015827,"53":-0.09819547982084112,"54":0.13475706926077108,"55":-0.06696161147422139,"56":-0.06731694176352832,"57":-0.0928418437551952,"58":0.09129104206608421,"59":-0.037145114423730315,"60":0.0009622142719143472,"61":0.08178381880646185,"62":0.03550958321641302,"63":-0.046533026943797184,"64":-0.12027100797110635,"65":-0.02403683101600343,"66":0.019622373930074957,"67":0.2571199452417635,"68":0.16410004798374409,"69":-0.14120569354360227,"70":-0.041147641629602924,"71":-0.13588733958322266,"72":-0.14869259226825995,"73":-0.23180783287384188,"74":0.014330398892097175,"75":-0.097155871759808,"76":0.06039548193457671,"77":0.04335870586879187,"78":-0.12214663272133017,"79":-0.03396351615202059,"80":-0.17854186078523884,"81":0.021372333168707264,"82":0.004732169939674735,"83":-0.11967422725840554,"84":0.12277238552150485,"85":-0.046984768633502275,"86":-0.025217543750979877,"87":-0.19824452594381445,"88":0.10702492272548873,"89":-0.0793292843094886,"90":-0.09193670772694511,"91":0.12250317781668434,"92":-0.11507374485337,"93":0.10657328851051638,"94":-0.02081206673193363,"95":0.13890694440688112,"96":-0.0877370042804897,"97":-0.1444492056966627,"98":0.020587621349245556,"99":-0.005402929325240119,"100":-0.08067476374115982,"101":-0.02444066770656567,"102":0.02734794641976669,"103":-0.13767372795481173,"104":-0.018723431587070075,"105":0.042502824733029285,"106":-0.021416197109955844,"107":0.024178978209143873,"108":-0.12035867386545535,"109":-0.15320547801460677,"110":0.08815056344831759,"111":0.04107195494098108,"112":-0.08859280563641228,"113":0.05986071112449235,"114":-0.06395726153031098,"115":-0.18238571516865698,"116":-0.07423750403577058,"117":0.025405530553725752,"118":0.15488029237452622,"119":-0.11956297142988559,"120":-0.015463954317424313,"121":-0.06594095155252466,"122":-0.38477128117062354,"123":-0.13742704181191334,"124":-0.019657801263796296,"125":0.23153038028795894,"126":-0.029686290500581615,"127":-0.005454051588826269,"128":-0.08115344272395517,"129":-0.3074085246360185,"130":-0.025261812559763924,"131":-0.1303178549880184,"132":0.11679521305431345,"133":-0.06311495666774539,"134":-0.23628809632092732,"135":-0.139204917338331,"136":-0.2118711192296561,"137":0.13213530389071795,"138":-0.1096747276690536,"139":0.03904308404095188,"140":0.13401629849862062,"141":-0.08532119595109901,"142":-0.07270761417011742,"143":-0.1404000527549813,"144":-0.12066696086760252,"145":-0.05122137199120079,"146":0.19341969391324576,"147":-0.02547398387981121,"148":-0.20264842704890373,"149":-0.1594218658968035,"150":-0.07028893062586436,"151":0.010762806424256413,"152":-0.0504153737344729,"153":-0.017988667200263892,"154":-0.035817363766632936,"155":-0.0991924656954337,"156":-0.11071788948490141,"157":-0.18210795797063786,"158":0.011630591109212043,"159":-0.03809406548751138,"160":0.11846235377206504,"161":-0.20091927742666615,"162":-0.19381839559673916,"163":-0.11708591804592033,"164":-0.3042238988133508,"165":0.04168901102881722,"166":0.11315481297954265,"167":0.023885100455088185,"168":-0.09691809082321208,"169":-0.30486823115402245,"170":-0.19136649773281791,"171":-0.10232435552872965,"172":0.09876877266762527,"173":0.1357017285473994,"174":0.09978211979641953,"175":0.029776649134939385,"176":-0.07924097919954463,"177":-0.156308340903443,"178":0.006351870351022187,"179":-0.14859580205954664,"180":0.0752172007017307,"181":0.049255187249821676,"182":-0.10829018384603518,"183":-0.13366434121023535,"184":-0.10481831894483279,"185":-0.12716870960506346,"186":0.1338304918730938,"187":0.05592100384058392,"188":-0.1315132873759484,"189":-0.1176542024374299,"190":-0.04699080108758739,"191":-0.1894803322183508,"192":0.0004218737092374952,"193":0.17650279765877394,"194":-0.023198889053028398,"195":-0.08017822377730975,"196":-0.20760517561821928,"197":-0.00253200004293401,"198":-0.09202570523118729,"199":-0.0728251447861776,"200":-0.0589548580911074,"201":0.07293155067034976,"202":-0.08372826003411124,"203":-0.14277842952150938,"204":-0.14339690815761838,"205":-0.12470226308198618,"206":-0.03811288456795413,"207":-0.006209861648392002,"208":0.1427704387541948,"209":-0.12999226686516613,"210":-0.10115959292125701,"211":-0.16197012120518037,"212":-0.07772251254092924,"213":-0.22666692387672863,"214":0.3331312893966395,"215":0.1671723300446299,"216":-0.06694007956650529,"217":0.0064657744477022005,"218":-0.11058232094908751,"219":-0.14769582521863586,"220":-0.008679226578350015,"221":0.03896276203237317,"222":0.08043536670292759,"223":-0.11057398929750903,"224":0.008570927558984429,"225":-0.13750452054845944,"226":-0.20478879729783353,"227":-0.11566809419118664,"228":0.0691339127340457,"229":-0.03586333597273283,"230":0.04205711039291594,"231":-0.08538111480791886,"232":-0.2318112256293921,"233":-0.14217777719923513,"234":0.061522920009297793,"235":-0.046631845021654426,"236":-0.0005558989866414205,"237":0.02009286420570779,"238":-0.025827150841529655,"239":-0.1828220022026366,"240":-0.04413644926410705,"241":0.0657104360636739,"242":-0.09449155319875074,"243":-0.011772283194710456,"244":-0.08028963232420963,"245":-0.007698133613017009,"246":0.07324820873351214,"247":0.05063202337530559,"248":0.03290538581093695,"249":0.1984827812233669,"250":0.21262013298822846,"251":0.09885766380584443,"252":0.05427023800840747,"253":-0.024955005237626723,"254":-0.14168298190032041,"255":-0.25795066445789955,"256":0.09087037434095703,"257":0.05660401649534254,"258":-0.005105161455281682,"259":-0.04874421827153643,"260":0.1599358755973576,"261":-0.21091685857388498,"262":-0.20990295030123052,"263":0.26950009435773703,"264":0.11998034563419994,"265":-0.15641567621804683,"266":0.07486005912751292,"267":0.28027646953643526,"268":-0.005402672619477236,"269":-0.33789025623902863,"270":0.39684208061143017,"271":0.22995684222444654,"272":-0.299782929909448,"273":0.06608956639214808,"274":-0.0028315698437804127,"275":-0.13101835066035966,"276":-0.08050216522202047,"277":0.21006795841330902,"278":0.15604110636638385,"279":-0.07103500982814075,"280":-0.004988676974832281,"281":0.150692921564291,"282":0.020329916068524478,"283":0.07680208084600693,"284":-0.011739859827054926,"285":-0.044048747573578524,"286":-0.0325418280443599,"287":-0.07077009480932134,"288":0.40640049480905577,"289":-0.0482795118494808,"290":0.21896506040938815,"291":-0.08465988327199328,"292":0.11273527444849406,"293":0.14001661039168367,"294":0.10102409987065568,"295":0.21468901340167293,"296":-0.00949241286117292,"297":0.41762657447004414,"298":-0.023288674553499394,"299":0.11845886965339691,"300":0.14799595343561242,"301":0.08083634923141741,"302":0.31211687394932197,"303":-0.0025685865646860435,"304":-0.18044111771428156,"305":-0.2519351324788628,"306":0.0678555005496911,"307":-0.1044336272578418,"308":0.007152995043801478,"309":0.3465495892884076,"310":-0.032677316625853894,"311":0.1522505067260776,"312":-0.358829556016804,"313":0.19206494790544743,"314":0.14262146086614433,"315":-0.062148173087540386,"316":0.1643154307062325,"317":-0.20846394744251773,"318":0.18994761375545302,"319":-0.30918502691991157,"320":0.2507914215102507,"321":0.18646381558025832,"322":0.11890507897050821,"323":0.3454624902046713,"324":-0.009211825726454712,"325":0.5544382939686834,"326":-0.2459049592611695,"327":0.20747909211692672,"328":0.21064689216216131,"329":0.14728826523387825,"330":0.1926461469003934,"331":-0.15432472223500884,"332":0.09094549319119027,"333":-0.15705669738930966,"334":0.2149572923478165,"335":0.16885883123955778,"336":0.07528022449329042,"337":0.3155497537623304,"338":-0.06280264669287199,"339":0.43482495169543944,"340":-0.2011620867546136,"341":0.15261276341414465,"342":0.10487729248370395,"343":0.2711419210592456,"344":0.21113910754430823,"345":-0.18563119811135967,"346":0.5684546625871351,"347":0.1254095573335642,"348":-0.00980149859863127,"349":0.00236553302930472,"350":0.06376453983309908,"351":0.43355461411120805,"352":-0.21315937159358078,"353":0.4959602788855156,"354":0.20410836336410298,"355":0.03264711585816149,"356":-0.07529934960204182,"357":-0.09349110938903865,"358":0.31539390290408087,"359":-0.16896856349868816,"360":1.4444855363792382,"361":0.07571182917854713,"362":-0.24180056637535985,"363":-0.017385715086353885,"364":0.08636395712723678,"365":0.23264085258211203,"366":-0.27410891636396484,"367":1.1107493953423637,"368":0.1924047124187043,"369":-0.13382878230863698,"370":-0.0021977240717805714,"371":0.04345327365814223,"372":0.41543769169198697,"373":-0.17124698492084098,"374":0.5802064300416856,"375":0.19667851060981328,"376":-0.14616096332617753,"377":0.1345643076849874,"378":-0.06761461394839931,"379":0.22104237942706043,"380":-0.15839734277778147,"381":0.49308407471140686,"382":-0.02737028710538894,"383":-0.06340409118906308,"384":-0.005054104344827241,"385":-0.028824144421178984,"386":0.463402547565585,"387":0.02105425712163462,"388":0.4547369690358474,"389":0.12281179453281321,"390":-0.09818648765835625,"391":0.25166539904149954,"392":0.213179683693224,"393":0.2017647885671773,"394":0.01917077301143819,"395":0.4797203493065448,"396":0.18726706318319855,"397":-0.1355080724647249,"398":0.1104649068045149,"399":0.1817108421679676,"400":0.149578914037997,"401":-0.08012250528271427,"402":0.3883576654034751,"403":0.02984888520069042,"404":-0.18364522605586653,"405":-0.00968178553766665,"406":0.14737675134501407,"407":-0.027161957373577985,"408":0.23873631195108208,"409":-0.2711462174534199,"410":0.022145419192023934,"411":0.13481266863362884,"412":0.12003453521508849,"413":0.11840690660299183,"414":-0.021350249517369774,"415":0.23084122785823752,"416":-0.210633365117343,"417":-0.012952134604732175,"418":-0.17715677682300857,"419":0.1329466287607903,"420":-0.12618083392219254,"421":-0.10755962006859486,"422":0.08039255586050549,"423":0.1771117835459826,"424":0.15467089970938613,"425":-0.0844035053428304,"426":-0.25919184395846984,"427":-0.09545355580712372,"428":-0.19205954418334314,"429":0.12188261440014693,"430":0.37318844247280647,"431":-0.13630824440886993,"432":-0.15130701292960458,"433":-0.18843480969266466,"434":-0.11650759557530359,"435":0.04587036156706837,"436":0.07619978627812132,"437":0.6380620140236443,"438":0.041321306555747665,"439":-0.12062343286727777,"440":-0.07060504214816136,"441":-0.13633141197190718,"442":-0.08806512020605055,"443":0.18315890975585222,"444":0.3091007653760214,"445":0.1786724214050214,"446":-0.05679273167981304,"447":-0.05771333163302198,"448":0.023613020862058832,"449":-0.07532456175522739,"450":0.24181191970025903,"451":0.34688424465790024,"452":-0.04069781021302445,"453":-0.05864316066550472,"454":-0.044007319812740454,"455":0.02210369543480738,"456":-0.03007666222444332,"457":0.035704027024769845,"458":0.4958107543912552,"459":-0.07679806739537551,"460":-0.3256963198512685,"461":-0.2521667032332393}},{"sx":1,"sy":1,"depth":462,"w":{"0":0.019027835685105035,"1":-0.017872495564521102,"2":-0.055993728694232456,"3":0.06000625503010401,"4":0.02102077923239207,"5":0.0018720512967852336,"6":-0.07896212108759006,"7":0.05207968673337871,"8":0.044836190835765205,"9":0.05947950463334128,"10":0.011790902583735162,"11":-0.01285181132778712,"12":0.07627219961216118,"13":0.05706362070876405,"14":-0.1522560399512069,"15":0.08470816212537823,"16":-0.2845577586500127,"17":-0.31703939756360255,"18":-0.13677847202417218,"19":-0.08905141875674456,"20":0.09299485586128725,"21":-0.024247235854456557,"22":0.20818476632064087,"23":-0.30068324320868783,"24":-0.22862606662984694,"25":0.08988222553306655,